digraph Tree {
node [shape=box] ;
0 [label="X[0] <= 251.0\nmse = 90.889\nsamples = 827\nvalue = 28.125"] ;
1 [label="X[5] <= 7.0\nmse = 76.994\nsamples = 361\nvalue = 34.594"] ;
0 -> 1 [labeldistance=2.5, labelangle=45, headlabel="True"] ;
2 [label="X[3] <= 3687.5\nmse = 63.534\nsamples = 78\nvalue = 43.718"] ;
1 -> 2 ;
3 [label="X[7] <= 0.5\nmse = 34.106\nsamples = 29\nvalue = 48.776"] ;
2 -> 3 ;
4 [label="X[2] <= 5.5\nmse = 25.905\nsamples = 25\nvalue = 47.568"] ;
3 -> 4 ;
5 [label="X[0] <= 138.5\nmse = 8.136\nsamples = 3\nvalue = 54.567"] ;
4 -> 5 ;
6 [label="X[2] <= 3.0\nmse = 0.003\nsamples = 2\nvalue = 52.55"] ;
5 -> 6 ;
7 [label="mse = 0.0\nsamples = 1\nvalue = 52.6"] ;
6 -> 7 ;
8 [label="mse = 0.0\nsamples = 1\nvalue = 52.5"] ;
6 -> 8 ;
9 [label="mse = 0.0\nsamples = 1\nvalue = 58.6"] ;
5 -> 9 ;
10 [label="X[4] <= 3.305\nmse = 20.738\nsamples = 22\nvalue = 46.614"] ;
4 -> 10 ;
11 [label="X[2] <= 7.5\nmse = 8.734\nsamples = 5\nvalue = 51.78"] ;
10 -> 11 ;
12 [label="X[0] <= 167.5\nmse = 3.842\nsamples = 3\nvalue = 53.667"] ;
11 -> 12 ;
13 [label="mse = 0.0\nsamples = 1\nvalue = 56.1"] ;
12 -> 13 ;
14 [label="X[2] <= 6.5\nmse = 1.322\nsamples = 2\nvalue = 52.45"] ;
12 -> 14 ;
15 [label="mse = 0.0\nsamples = 1\nvalue = 51.3"] ;
14 -> 15 ;
16 [label="mse = -0.0\nsamples = 1\nvalue = 53.6"] ;
14 -> 16 ;
17 [label="X[18] <= 0.5\nmse = 2.722\nsamples = 2\nvalue = 48.95"] ;
11 -> 17 ;
18 [label="mse = 0.0\nsamples = 1\nvalue = 47.3"] ;
17 -> 18 ;
19 [label="mse = -0.0\nsamples = 1\nvalue = 50.6"] ;
17 -> 19 ;
20 [label="X[3] <= 3062.5\nmse = 14.11\nsamples = 17\nvalue = 45.094"] ;
10 -> 20 ;
21 [label="X[3] <= 2812.5\nmse = 1.26\nsamples = 3\nvalue = 52.2"] ;
20 -> 21 ;
22 [label="mse = 0.0\nsamples = 1\nvalue = 53.7"] ;
21 -> 22 ;
23 [label="X[3] <= 2937.5\nmse = 0.202\nsamples = 2\nvalue = 51.45"] ;
21 -> 23 ;
24 [label="mse = 0.0\nsamples = 1\nvalue = 51.9"] ;
23 -> 24 ;
25 [label="mse = -0.0\nsamples = 1\nvalue = 51.0"] ;
23 -> 25 ;
26 [label="X[11] <= 0.5\nmse = 3.725\nsamples = 14\nvalue = 43.571"] ;
20 -> 26 ;
27 [label="X[4] <= 4.14\nmse = 2.052\nsamples = 11\nvalue = 44.255"] ;
26 -> 27 ;
28 [label="X[0] <= 175.0\nmse = 2.047\nsamples = 9\nvalue = 43.967"] ;
27 -> 28 ;
29 [label="X[0] <= 143.0\nmse = 0.287\nsamples = 4\nvalue = 42.925"] ;
28 -> 29 ;
30 [label="X[0] <= 134.0\nmse = 0.123\nsamples = 2\nvalue = 43.35"] ;
29 -> 30 ;
31 [label="mse = 0.0\nsamples = 1\nvalue = 43.0"] ;
30 -> 31 ;
32 [label="mse = 0.0\nsamples = 1\nvalue = 43.7"] ;
30 -> 32 ;
33 [label="X[3] <= 3500.0\nmse = 0.09\nsamples = 2\nvalue = 42.5"] ;
29 -> 33 ;
34 [label="mse = 0.0\nsamples = 1\nvalue = 42.8"] ;
33 -> 34 ;
35 [label="mse = 0.0\nsamples = 1\nvalue = 42.2"] ;
33 -> 35 ;
36 [label="X[8] <= 0.5\nmse = 1.892\nsamples = 5\nvalue = 44.8"] ;
28 -> 36 ;
37 [label="X[16] <= 0.5\nmse = 0.303\nsamples = 2\nvalue = 45.85"] ;
36 -> 37 ;
38 [label="mse = 0.0\nsamples = 1\nvalue = 45.3"] ;
37 -> 38 ;
39 [label="mse = 0.0\nsamples = 1\nvalue = 46.4"] ;
37 -> 39 ;
40 [label="X[4] <= 3.515\nmse = 1.727\nsamples = 3\nvalue = 44.1"] ;
36 -> 40 ;
41 [label="mse = 0.0\nsamples = 1\nvalue = 43.9"] ;
40 -> 41 ;
42 [label="mse = 2.56\nsamples = 2\nvalue = 44.2"] ;
40 -> 42 ;
43 [label="X[2] <= 6.5\nmse = 0.023\nsamples = 2\nvalue = 45.55"] ;
27 -> 43 ;
44 [label="mse = 0.0\nsamples = 1\nvalue = 45.4"] ;
43 -> 44 ;
45 [label="mse = 0.0\nsamples = 1\nvalue = 45.7"] ;
43 -> 45 ;
46 [label="X[0] <= 133.0\nmse = 1.876\nsamples = 3\nvalue = 41.067"] ;
26 -> 46 ;
47 [label="mse = 0.0\nsamples = 1\nvalue = 43.0"] ;
46 -> 47 ;
48 [label="X[4] <= 4.045\nmse = 0.01\nsamples = 2\nvalue = 40.1"] ;
46 -> 48 ;
49 [label="mse = 0.0\nsamples = 1\nvalue = 40.0"] ;
48 -> 49 ;
50 [label="mse = -0.0\nsamples = 1\nvalue = 40.2"] ;
48 -> 50 ;
51 [label="X[4] <= 4.03\nmse = 19.252\nsamples = 4\nvalue = 56.325"] ;
3 -> 51 ;
52 [label="X[4] <= 3.195\nmse = 9.536\nsamples = 3\nvalue = 58.333"] ;
51 -> 52 ;
53 [label="mse = 0.0\nsamples = 1\nvalue = 61.8"] ;
52 -> 53 ;
54 [label="X[3] <= 2937.5\nmse = 5.29\nsamples = 2\nvalue = 56.6"] ;
52 -> 54 ;
55 [label="mse = 0.0\nsamples = 1\nvalue = 58.9"] ;
54 -> 55 ;
56 [label="mse = 0.0\nsamples = 1\nvalue = 54.3"] ;
54 -> 56 ;
57 [label="mse = -0.0\nsamples = 1\nvalue = 50.3"] ;
51 -> 57 ;
58 [label="X[0] <= 152.5\nmse = 56.849\nsamples = 49\nvalue = 40.724"] ;
2 -> 58 ;
59 [label="X[0] <= 138.5\nmse = 80.206\nsamples = 9\nvalue = 48.678"] ;
58 -> 59 ;
60 [label="X[0] <= 106.0\nmse = 71.241\nsamples = 7\nvalue = 46.214"] ;
59 -> 60 ;
61 [label="mse = 0.0\nsamples = 1\nvalue = 61.2"] ;
60 -> 61 ;
62 [label="X[3] <= 3937.5\nmse = 39.448\nsamples = 6\nvalue = 43.717"] ;
60 -> 62 ;
63 [label="X[0] <= 135.5\nmse = 8.437\nsamples = 4\nvalue = 40.575"] ;
62 -> 63 ;
64 [label="X[4] <= 4.29\nmse = 1.536\nsamples = 3\nvalue = 42.133"] ;
63 -> 64 ;
65 [label="X[3] <= 3812.5\nmse = 0.302\nsamples = 2\nvalue = 42.95"] ;
64 -> 65 ;
66 [label="mse = 0.0\nsamples = 1\nvalue = 43.5"] ;
65 -> 66 ;
67 [label="mse = -0.0\nsamples = 1\nvalue = 42.4"] ;
65 -> 67 ;
68 [label="mse = 0.0\nsamples = 1\nvalue = 40.5"] ;
64 -> 68 ;
69 [label="mse = -0.0\nsamples = 1\nvalue = 35.9"] ;
63 -> 69 ;
70 [label="X[7] <= 0.5\nmse = 42.25\nsamples = 2\nvalue = 50.0"] ;
62 -> 70 ;
71 [label="mse = 0.0\nsamples = 1\nvalue = 43.5"] ;
70 -> 71 ;
72 [label="mse = 0.0\nsamples = 1\nvalue = 56.5"] ;
70 -> 72 ;
73 [label="X[0] <= 145.5\nmse = 16.0\nsamples = 2\nvalue = 57.3"] ;
59 -> 73 ;
74 [label="mse = 0.0\nsamples = 1\nvalue = 61.3"] ;
73 -> 74 ;
75 [label="mse = 0.0\nsamples = 1\nvalue = 53.3"] ;
73 -> 75 ;
76 [label="X[3] <= 4875.0\nmse = 34.159\nsamples = 40\nvalue = 38.935"] ;
58 -> 76 ;
77 [label="X[2] <= 6.5\nmse = 24.726\nsamples = 38\nvalue = 39.684"] ;
76 -> 77 ;
78 [label="X[6] <= 49.5\nmse = 24.23\nsamples = 21\nvalue = 37.329"] ;
77 -> 78 ;
79 [label="X[3] <= 4000.0\nmse = 0.162\nsamples = 3\nvalue = 27.833"] ;
78 -> 79 ;
80 [label="mse = 0.0\nsamples = 1\nvalue = 28.4"] ;
79 -> 80 ;
81 [label="X[6] <= 28.5\nmse = 0.003\nsamples = 2\nvalue = 27.55"] ;
79 -> 81 ;
82 [label="mse = 0.0\nsamples = 1\nvalue = 27.6"] ;
81 -> 82 ;
83 [label="mse = 0.0\nsamples = 1\nvalue = 27.5"] ;
81 -> 83 ;
84 [label="X[4] <= 3.135\nmse = 10.71\nsamples = 18\nvalue = 38.911"] ;
78 -> 84 ;
85 [label="X[0] <= 207.0\nmse = 9.0\nsamples = 2\nvalue = 45.0"] ;
84 -> 85 ;
86 [label="mse = 0.0\nsamples = 1\nvalue = 48.0"] ;
85 -> 86 ;
87 [label="mse = 0.0\nsamples = 1\nvalue = 42.0"] ;
85 -> 87 ;
88 [label="X[7] <= 0.5\nmse = 5.71\nsamples = 16\nvalue = 38.15"] ;
84 -> 88 ;
89 [label="X[16] <= 0.5\nmse = 1.67\nsamples = 11\nvalue = 36.791"] ;
88 -> 89 ;
90 [label="X[4] <= 3.355\nmse = 0.346\nsamples = 6\nvalue = 35.967"] ;
89 -> 90 ;
91 [label="mse = 0.122\nsamples = 2\nvalue = 35.25"] ;
90 -> 91 ;
92 [label="X[15] <= 0.5\nmse = 0.072\nsamples = 4\nvalue = 36.325"] ;
90 -> 92 ;
93 [label="mse = 0.0\nsamples = 1\nvalue = 36.6"] ;
92 -> 93 ;
94 [label="X[0] <= 202.0\nmse = 0.062\nsamples = 3\nvalue = 36.233"] ;
92 -> 94 ;
95 [label="mse = 0.0\nsamples = 1\nvalue = 36.3"] ;
94 -> 95 ;
96 [label="mse = 0.09\nsamples = 2\nvalue = 36.2"] ;
94 -> 96 ;
97 [label="X[3] <= 4125.0\nmse = 1.466\nsamples = 5\nvalue = 37.78"] ;
89 -> 97 ;
98 [label="X[3] <= 3937.5\nmse = 0.027\nsamples = 3\nvalue = 38.6"] ;
97 -> 98 ;
99 [label="mse = 0.0\nsamples = 1\nvalue = 38.4"] ;
98 -> 99 ;
100 [label="X[10] <= 0.5\nmse = 0.01\nsamples = 2\nvalue = 38.7"] ;
98 -> 100 ;
101 [label="mse = 0.0\nsamples = 1\nvalue = 38.8"] ;
100 -> 101 ;
102 [label="mse = -0.0\nsamples = 1\nvalue = 38.6"] ;
100 -> 102 ;
103 [label="X[4] <= 3.36\nmse = 1.103\nsamples = 2\nvalue = 36.55"] ;
97 -> 103 ;
104 [label="mse = 0.0\nsamples = 1\nvalue = 37.6"] ;
103 -> 104 ;
105 [label="mse = 0.0\nsamples = 1\nvalue = 35.5"] ;
103 -> 105 ;
106 [label="X[3] <= 3812.5\nmse = 1.594\nsamples = 5\nvalue = 41.14"] ;
88 -> 106 ;
107 [label="X[15] <= 0.5\nmse = 0.302\nsamples = 2\nvalue = 42.45"] ;
106 -> 107 ;
108 [label="mse = 0.0\nsamples = 1\nvalue = 43.0"] ;
107 -> 108 ;
109 [label="mse = -0.0\nsamples = 1\nvalue = 41.9"] ;
107 -> 109 ;
110 [label="X[3] <= 4125.0\nmse = 0.549\nsamples = 3\nvalue = 40.267"] ;
106 -> 110 ;
111 [label="X[4] <= 3.785\nmse = 0.122\nsamples = 2\nvalue = 40.75"] ;
110 -> 111 ;
112 [label="mse = 0.0\nsamples = 1\nvalue = 41.1"] ;
111 -> 112 ;
113 [label="mse = 0.0\nsamples = 1\nvalue = 40.4"] ;
111 -> 113 ;
114 [label="mse = 0.0\nsamples = 1\nvalue = 39.3"] ;
110 -> 114 ;
115 [label="X[9] <= 0.5\nmse = 10.016\nsamples = 17\nvalue = 42.594"] ;
77 -> 115 ;
116 [label="X[4] <= 2.305\nmse = 8.772\nsamples = 16\nvalue = 42.262"] ;
115 -> 116 ;
117 [label="X[3] <= 4125.0\nmse = 15.21\nsamples = 2\nvalue = 39.1"] ;
116 -> 117 ;
118 [label="mse = 0.0\nsamples = 1\nvalue = 43.0"] ;
117 -> 118 ;
119 [label="mse = -0.0\nsamples = 1\nvalue = 35.2"] ;
117 -> 119 ;
120 [label="X[15] <= 0.5\nmse = 6.22\nsamples = 14\nvalue = 42.714"] ;
116 -> 120 ;
121 [label="X[0] <= 249.0\nmse = 5.221\nsamples = 12\nvalue = 43.25"] ;
120 -> 121 ;
122 [label="X[4] <= 3.15\nmse = 3.166\nsamples = 11\nvalue = 43.709"] ;
121 -> 122 ;
123 [label="X[0] <= 244.5\nmse = 1.885\nsamples = 7\nvalue = 42.843"] ;
122 -> 123 ;
124 [label="X[0] <= 212.0\nmse = 0.499\nsamples = 6\nvalue = 42.35"] ;
123 -> 124 ;
125 [label="X[0] <= 180.5\nmse = 0.224\nsamples = 5\nvalue = 42.1"] ;
124 -> 125 ;
126 [label="X[5] <= 2.5\nmse = 0.029\nsamples = 3\nvalue = 42.367"] ;
125 -> 126 ;
127 [label="mse = 0.0\nsamples = 1\nvalue = 42.6"] ;
126 -> 127 ;
128 [label="X[3] <= 3812.5\nmse = 0.003\nsamples = 2\nvalue = 42.25"] ;
126 -> 128 ;
129 [label="mse = 0.0\nsamples = 1\nvalue = 42.2"] ;
128 -> 129 ;
130 [label="mse = 0.0\nsamples = 1\nvalue = 42.3"] ;
128 -> 130 ;
131 [label="X[3] <= 3875.0\nmse = 0.25\nsamples = 2\nvalue = 41.7"] ;
125 -> 131 ;
132 [label="mse = 0.0\nsamples = 1\nvalue = 42.2"] ;
131 -> 132 ;
133 [label="mse = 0.0\nsamples = 1\nvalue = 41.2"] ;
131 -> 133 ;
134 [label="mse = -0.0\nsamples = 1\nvalue = 43.6"] ;
124 -> 134 ;
135 [label="mse = -0.0\nsamples = 1\nvalue = 45.8"] ;
123 -> 135 ;
136 [label="X[14] <= 0.5\nmse = 1.797\nsamples = 4\nvalue = 45.225"] ;
122 -> 136 ;
137 [label="X[0] <= 214.0\nmse = 0.482\nsamples = 3\nvalue = 44.533"] ;
136 -> 137 ;
138 [label="X[2] <= 8.5\nmse = 0.023\nsamples = 2\nvalue = 44.05"] ;
137 -> 138 ;
139 [label="mse = 0.0\nsamples = 1\nvalue = 43.9"] ;
138 -> 139 ;
140 [label="mse = 0.0\nsamples = 1\nvalue = 44.2"] ;
138 -> 140 ;
141 [label="mse = 0.0\nsamples = 1\nvalue = 45.5"] ;
137 -> 141 ;
142 [label="mse = -0.0\nsamples = 1\nvalue = 47.3"] ;
136 -> 142 ;
143 [label="mse = -0.0\nsamples = 1\nvalue = 38.2"] ;
121 -> 143 ;
144 [label="X[2] <= 7.5\nmse = 0.16\nsamples = 2\nvalue = 39.5"] ;
120 -> 144 ;
145 [label="mse = 0.0\nsamples = 1\nvalue = 39.1"] ;
144 -> 145 ;
146 [label="mse = 0.0\nsamples = 1\nvalue = 39.9"] ;
144 -> 146 ;
147 [label="mse = -0.0\nsamples = 1\nvalue = 47.9"] ;
115 -> 147 ;
148 [label="X[3] <= 5125.0\nmse = 0.09\nsamples = 2\nvalue = 24.7"] ;
76 -> 148 ;
149 [label="mse = 0.0\nsamples = 1\nvalue = 25.0"] ;
148 -> 149 ;
150 [label="mse = 0.0\nsamples = 1\nvalue = 24.4"] ;
148 -> 150 ;
151 [label="X[0] <= 122.5\nmse = 51.434\nsamples = 283\nvalue = 32.079"] ;
1 -> 151 ;
152 [label="X[4] <= 4.15\nmse = 60.188\nsamples = 25\nvalue = 44.548"] ;
151 -> 152 ;
153 [label="X[4] <= 3.63\nmse = 30.933\nsamples = 24\nvalue = 43.421"] ;
152 -> 153 ;
154 [label="X[3] <= 3750.0\nmse = 33.271\nsamples = 11\nvalue = 46.473"] ;
153 -> 154 ;
155 [label="X[5] <= 55.5\nmse = 32.202\nsamples = 9\nvalue = 47.533"] ;
154 -> 155 ;
156 [label="X[5] <= 16.0\nmse = 32.16\nsamples = 6\nvalue = 49.8"] ;
155 -> 156 ;
157 [label="X[0] <= 88.0\nmse = 13.622\nsamples = 5\nvalue = 47.76"] ;
156 -> 157 ;
158 [label="mse = 0.09\nsamples = 2\nvalue = 52.0"] ;
157 -> 158 ;
159 [label="X[3] <= 3562.5\nmse = 2.669\nsamples = 3\nvalue = 44.933"] ;
157 -> 159 ;
160 [label="mse = 0.0\nsamples = 1\nvalue = 46.9"] ;
159 -> 160 ;
161 [label="X[4] <= 2.935\nmse = 1.102\nsamples = 2\nvalue = 43.95"] ;
159 -> 161 ;
162 [label="mse = 0.0\nsamples = 1\nvalue = 45.0"] ;
161 -> 162 ;
163 [label="mse = -0.0\nsamples = 1\nvalue = 42.9"] ;
161 -> 163 ;
164 [label="mse = 0.0\nsamples = 1\nvalue = 60.0"] ;
156 -> 164 ;
165 [label="X[4] <= 3.21\nmse = 1.46\nsamples = 3\nvalue = 43.0"] ;
155 -> 165 ;
166 [label="mse = 1.44\nsamples = 2\nvalue = 42.5"] ;
165 -> 166 ;
167 [label="mse = 0.0\nsamples = 1\nvalue = 44.0"] ;
165 -> 167 ;
168 [label="X[0] <= 106.0\nmse = 10.24\nsamples = 2\nvalue = 41.7"] ;
154 -> 168 ;
169 [label="mse = 0.0\nsamples = 1\nvalue = 38.5"] ;
168 -> 169 ;
170 [label="mse = -0.0\nsamples = 1\nvalue = 44.9"] ;
168 -> 170 ;
171 [label="X[1] <= 3.5\nmse = 14.405\nsamples = 13\nvalue = 40.838"] ;
153 -> 171 ;
172 [label="X[11] <= 0.5\nmse = 0.596\nsamples = 3\nvalue = 45.433"] ;
171 -> 172 ;
173 [label="mse = 0.49\nsamples = 2\nvalue = 45.8"] ;
172 -> 173 ;
174 [label="mse = 0.0\nsamples = 1\nvalue = 44.7"] ;
172 -> 174 ;
175 [label="X[4] <= 3.755\nmse = 10.314\nsamples = 10\nvalue = 39.46"] ;
171 -> 175 ;
176 [label="X[0] <= 107.5\nmse = 1.564\nsamples = 5\nvalue = 41.7"] ;
175 -> 176 ;
177 [label="mse = 0.0\nsamples = 1\nvalue = 39.4"] ;
176 -> 177 ;
178 [label="X[3] <= 2812.5\nmse = 0.302\nsamples = 4\nvalue = 42.275"] ;
176 -> 178 ;
179 [label="mse = 0.062\nsamples = 2\nvalue = 42.75"] ;
178 -> 179 ;
180 [label="mse = 0.09\nsamples = 2\nvalue = 41.8"] ;
178 -> 180 ;
181 [label="X[2] <= 5.5\nmse = 9.03\nsamples = 5\nvalue = 37.22"] ;
175 -> 181 ;
182 [label="X[11] <= 0.5\nmse = 1.162\nsamples = 3\nvalue = 34.867"] ;
181 -> 182 ;
183 [label="X[3] <= 2687.5\nmse = 0.202\nsamples = 2\nvalue = 34.15"] ;
182 -> 183 ;
184 [label="mse = 0.0\nsamples = 1\nvalue = 34.6"] ;
183 -> 184 ;
185 [label="mse = -0.0\nsamples = 1\nvalue = 33.7"] ;
183 -> 185 ;
186 [label="mse = -0.0\nsamples = 1\nvalue = 36.3"] ;
182 -> 186 ;
187 [label="X[3] <= 2687.5\nmse = 0.062\nsamples = 2\nvalue = 40.75"] ;
181 -> 187 ;
188 [label="mse = 0.0\nsamples = 1\nvalue = 41.0"] ;
187 -> 188 ;
189 [label="mse = 0.0\nsamples = 1\nvalue = 40.5"] ;
187 -> 189 ;
190 [label="mse = -0.0\nsamples = 1\nvalue = 71.6"] ;
152 -> 190 ;
191 [label="X[10] <= 0.5\nmse = 34.06\nsamples = 258\nvalue = 30.871"] ;
151 -> 191 ;
192 [label="X[3] <= 3437.5\nmse = 18.396\nsamples = 227\nvalue = 29.765"] ;
191 -> 192 ;
193 [label="X[0] <= 186.5\nmse = 10.076\nsamples = 71\nvalue = 33.563"] ;
192 -> 193 ;
194 [label="X[3] <= 3187.5\nmse = 6.981\nsamples = 55\nvalue = 34.485"] ;
193 -> 194 ;
195 [label="X[5] <= 16.0\nmse = 4.304\nsamples = 30\nvalue = 35.84"] ;
194 -> 195 ;
196 [label="X[3] <= 3062.5\nmse = 3.39\nsamples = 4\nvalue = 33.8"] ;
195 -> 196 ;
197 [label="mse = 0.0\nsamples = 1\nvalue = 31.3"] ;
196 -> 197 ;
198 [label="X[0] <= 177.0\nmse = 1.742\nsamples = 3\nvalue = 34.633"] ;
196 -> 198 ;
199 [label="X[8] <= 0.5\nmse = 0.36\nsamples = 2\nvalue = 35.5"] ;
198 -> 199 ;
200 [label="mse = 0.0\nsamples = 1\nvalue = 34.9"] ;
199 -> 200 ;
201 [label="mse = 0.0\nsamples = 1\nvalue = 36.1"] ;
199 -> 201 ;
202 [label="mse = -0.0\nsamples = 1\nvalue = 32.9"] ;
198 -> 202 ;
203 [label="X[0] <= 167.0\nmse = 3.706\nsamples = 26\nvalue = 36.154"] ;
195 -> 203 ;
204 [label="X[4] <= 3.435\nmse = 3.518\nsamples = 24\nvalue = 35.967"] ;
203 -> 204 ;
205 [label="X[0] <= 147.5\nmse = 2.501\nsamples = 12\nvalue = 36.442"] ;
204 -> 205 ;
206 [label="X[4] <= 3.065\nmse = 2.027\nsamples = 11\nvalue = 36.2"] ;
205 -> 206 ;
207 [label="mse = 2.715\nsamples = 4\nvalue = 36.7"] ;
206 -> 207 ;
208 [label="X[12] <= 0.5\nmse = 1.41\nsamples = 7\nvalue = 35.914"] ;
206 -> 208 ;
209 [label="X[5] <= 33.0\nmse = 0.342\nsamples = 5\nvalue = 36.58"] ;
208 -> 209 ;
210 [label="X[11] <= 0.5\nmse = 0.136\nsamples = 3\nvalue = 36.967"] ;
209 -> 210 ;
211 [label="mse = 0.062\nsamples = 2\nvalue = 36.75"] ;
210 -> 211 ;
212 [label="mse = -0.0\nsamples = 1\nvalue = 37.4"] ;
210 -> 212 ;
213 [label="X[4] <= 3.28\nmse = 0.09\nsamples = 2\nvalue = 36.0"] ;
209 -> 213 ;
214 [label="mse = 0.0\nsamples = 1\nvalue = 35.7"] ;
213 -> 214 ;
215 [label="mse = 0.0\nsamples = 1\nvalue = 36.3"] ;
213 -> 215 ;
216 [label="X[0] <= 134.0\nmse = 0.202\nsamples = 2\nvalue = 34.25"] ;
208 -> 216 ;
217 [label="mse = 0.0\nsamples = 1\nvalue = 33.8"] ;
216 -> 217 ;
218 [label="mse = -0.0\nsamples = 1\nvalue = 34.7"] ;
216 -> 218 ;
219 [label="mse = -0.0\nsamples = 1\nvalue = 39.1"] ;
205 -> 219 ;
220 [label="X[4] <= 3.56\nmse = 4.084\nsamples = 12\nvalue = 35.492"] ;
204 -> 220 ;
221 [label="X[16] <= 0.5\nmse = 1.127\nsamples = 3\nvalue = 32.8"] ;
220 -> 221 ;
222 [label="mse = 0.0\nsamples = 1\nvalue = 34.1"] ;
221 -> 222 ;
223 [label="X[5] <= 26.0\nmse = 0.423\nsamples = 2\nvalue = 32.15"] ;
221 -> 223 ;
224 [label="mse = 0.0\nsamples = 1\nvalue = 31.5"] ;
223 -> 224 ;
225 [label="mse = 0.0\nsamples = 1\nvalue = 32.8"] ;
223 -> 225 ;
226 [label="X[0] <= 146.5\nmse = 1.85\nsamples = 9\nvalue = 36.389"] ;
220 -> 226 ;
227 [label="X[4] <= 4.265\nmse = 0.796\nsamples = 6\nvalue = 36.933"] ;
226 -> 227 ;
228 [label="X[6] <= 42.0\nmse = 0.502\nsamples = 4\nvalue = 36.475"] ;
227 -> 228 ;
229 [label="mse = 0.0\nsamples = 1\nvalue = 35.6"] ;
228 -> 229 ;
230 [label="X[0] <= 131.0\nmse = 0.329\nsamples = 3\nvalue = 36.767"] ;
228 -> 230 ;
231 [label="mse = 0.49\nsamples = 2\nvalue = 36.8"] ;
230 -> 231 ;
232 [label="mse = 0.0\nsamples = 1\nvalue = 36.7"] ;
230 -> 232 ;
233 [label="X[11] <= 0.5\nmse = 0.123\nsamples = 2\nvalue = 37.85"] ;
227 -> 233 ;
234 [label="mse = 0.0\nsamples = 1\nvalue = 37.5"] ;
233 -> 234 ;
235 [label="mse = 0.0\nsamples = 1\nvalue = 38.2"] ;
233 -> 235 ;
236 [label="X[4] <= 4.215\nmse = 2.18\nsamples = 3\nvalue = 35.3"] ;
226 -> 236 ;
237 [label="X[5] <= 60.5\nmse = 0.562\nsamples = 2\nvalue = 36.25"] ;
236 -> 237 ;
238 [label="mse = 0.0\nsamples = 1\nvalue = 35.5"] ;
237 -> 238 ;
239 [label="mse = 0.0\nsamples = 1\nvalue = 37.0"] ;
237 -> 239 ;
240 [label="mse = -0.0\nsamples = 1\nvalue = 33.4"] ;
236 -> 240 ;
241 [label="mse = 0.49\nsamples = 2\nvalue = 38.4"] ;
203 -> 241 ;
242 [label="X[5] <= 60.5\nmse = 5.35\nsamples = 25\nvalue = 32.86"] ;
194 -> 242 ;
243 [label="X[0] <= 149.5\nmse = 3.893\nsamples = 22\nvalue = 33.159"] ;
242 -> 243 ;
244 [label="X[4] <= 4.46\nmse = 1.482\nsamples = 6\nvalue = 34.833"] ;
243 -> 244 ;
245 [label="X[0] <= 128.5\nmse = 0.358\nsamples = 5\nvalue = 35.32"] ;
244 -> 245 ;
246 [label="mse = 0.0\nsamples = 1\nvalue = 36.1"] ;
245 -> 246 ;
247 [label="X[0] <= 142.0\nmse = 0.257\nsamples = 4\nvalue = 35.125"] ;
245 -> 247 ;
248 [label="X[4] <= 3.945\nmse = 0.003\nsamples = 2\nvalue = 34.85"] ;
247 -> 248 ;
249 [label="mse = 0.0\nsamples = 1\nvalue = 34.9"] ;
248 -> 249 ;
250 [label="mse = 0.0\nsamples = 1\nvalue = 34.8"] ;
248 -> 250 ;
251 [label="mse = 0.36\nsamples = 2\nvalue = 35.4"] ;
247 -> 251 ;
252 [label="mse = -0.0\nsamples = 1\nvalue = 32.4"] ;
244 -> 252 ;
253 [label="X[4] <= 3.98\nmse = 3.352\nsamples = 16\nvalue = 32.531"] ;
243 -> 253 ;
254 [label="X[12] <= 0.5\nmse = 2.913\nsamples = 12\nvalue = 33.083"] ;
253 -> 254 ;
255 [label="X[2] <= 5.5\nmse = 1.689\nsamples = 6\nvalue = 34.433"] ;
254 -> 255 ;
256 [label="mse = 0.0\nsamples = 1\nvalue = 31.9"] ;
255 -> 256 ;
257 [label="X[3] <= 3312.5\nmse = 0.486\nsamples = 5\nvalue = 34.94"] ;
255 -> 257 ;
258 [label="mse = 0.0\nsamples = 1\nvalue = 36.2"] ;
257 -> 258 ;
259 [label="X[7] <= 0.5\nmse = 0.112\nsamples = 4\nvalue = 34.625"] ;
257 -> 259 ;
260 [label="X[13] <= 0.5\nmse = 0.01\nsamples = 2\nvalue = 34.3"] ;
259 -> 260 ;
261 [label="mse = 0.0\nsamples = 1\nvalue = 34.4"] ;
260 -> 261 ;
262 [label="mse = 0.0\nsamples = 1\nvalue = 34.2"] ;
260 -> 262 ;
263 [label="X[4] <= 3.31\nmse = 0.002\nsamples = 2\nvalue = 34.95"] ;
259 -> 263 ;
264 [label="mse = 0.0\nsamples = 1\nvalue = 35.0"] ;
263 -> 264 ;
265 [label="mse = -0.0\nsamples = 1\nvalue = 34.9"] ;
263 -> 265 ;
266 [label="X[3] <= 3312.5\nmse = 0.492\nsamples = 6\nvalue = 31.733"] ;
254 -> 266 ;
267 [label="X[4] <= 3.17\nmse = 0.164\nsamples = 5\nvalue = 32.0"] ;
266 -> 267 ;
268 [label="X[4] <= 3.065\nmse = 0.007\nsamples = 3\nvalue = 32.2"] ;
267 -> 268 ;
269 [label="X[0] <= 162.0\nmse = 0.003\nsamples = 2\nvalue = 32.25"] ;
268 -> 269 ;
270 [label="mse = 0.0\nsamples = 1\nvalue = 32.2"] ;
269 -> 270 ;
271 [label="mse = 0.0\nsamples = 1\nvalue = 32.3"] ;
269 -> 271 ;
272 [label="mse = 0.0\nsamples = 1\nvalue = 32.1"] ;
268 -> 272 ;
273 [label="mse = 0.25\nsamples = 2\nvalue = 31.7"] ;
267 -> 273 ;
274 [label="mse = 0.0\nsamples = 1\nvalue = 30.4"] ;
266 -> 274 ;
275 [label="X[11] <= 0.5\nmse = 1.012\nsamples = 4\nvalue = 30.875"] ;
253 -> 275 ;
276 [label="mse = 0.0\nsamples = 1\nvalue = 32.6"] ;
275 -> 276 ;
277 [label="X[0] <= 156.5\nmse = 0.027\nsamples = 3\nvalue = 30.3"] ;
275 -> 277 ;
278 [label="X[3] <= 3312.5\nmse = 0.01\nsamples = 2\nvalue = 30.4"] ;
277 -> 278 ;
279 [label="mse = 0.0\nsamples = 1\nvalue = 30.5"] ;
278 -> 279 ;
280 [label="mse = 0.0\nsamples = 1\nvalue = 30.3"] ;
278 -> 280 ;
281 [label="mse = 0.0\nsamples = 1\nvalue = 30.1"] ;
277 -> 281 ;
282 [label="X[1] <= 3.5\nmse = 10.562\nsamples = 3\nvalue = 30.667"] ;
242 -> 282 ;
283 [label="mse = 0.0\nsamples = 1\nvalue = 26.1"] ;
282 -> 283 ;
284 [label="X[3] <= 3312.5\nmse = 0.202\nsamples = 2\nvalue = 32.95"] ;
282 -> 284 ;
285 [label="mse = 0.0\nsamples = 1\nvalue = 33.4"] ;
284 -> 285 ;
286 [label="mse = -0.0\nsamples = 1\nvalue = 32.5"] ;
284 -> 286 ;
287 [label="X[12] <= 0.5\nmse = 7.746\nsamples = 16\nvalue = 30.394"] ;
193 -> 287 ;
288 [label="X[0] <= 216.5\nmse = 7.209\nsamples = 13\nvalue = 29.738"] ;
287 -> 288 ;
289 [label="X[0] <= 201.5\nmse = 7.738\nsamples = 10\nvalue = 30.32"] ;
288 -> 289 ;
290 [label="X[8] <= 0.5\nmse = 3.212\nsamples = 8\nvalue = 29.275"] ;
289 -> 290 ;
291 [label="X[5] <= 26.0\nmse = 1.319\nsamples = 6\nvalue = 28.65"] ;
290 -> 291 ;
292 [label="X[4] <= 4.035\nmse = 0.727\nsamples = 4\nvalue = 28.025"] ;
291 -> 292 ;
293 [label="mse = 0.0\nsamples = 1\nvalue = 26.9"] ;
292 -> 293 ;
294 [label="mse = 0.407\nsamples = 3\nvalue = 28.4"] ;
292 -> 294 ;
295 [label="X[3] <= 3187.5\nmse = 0.16\nsamples = 2\nvalue = 29.9"] ;
291 -> 295 ;
296 [label="mse = 0.0\nsamples = 1\nvalue = 30.3"] ;
295 -> 296 ;
297 [label="mse = 0.0\nsamples = 1\nvalue = 29.5"] ;
295 -> 297 ;
298 [label="X[5] <= 16.0\nmse = 4.202\nsamples = 2\nvalue = 31.15"] ;
290 -> 298 ;
299 [label="mse = 0.0\nsamples = 1\nvalue = 29.1"] ;
298 -> 299 ;
300 [label="mse = 0.0\nsamples = 1\nvalue = 33.2"] ;
298 -> 300 ;
301 [label="X[4] <= 4.025\nmse = 4.0\nsamples = 2\nvalue = 34.5"] ;
289 -> 301 ;
302 [label="mse = 0.0\nsamples = 1\nvalue = 32.5"] ;
301 -> 302 ;
303 [label="mse = 0.0\nsamples = 1\nvalue = 36.5"] ;
301 -> 303 ;
304 [label="X[5] <= 63.0\nmse = 0.56\nsamples = 3\nvalue = 27.8"] ;
288 -> 304 ;
305 [label="X[11] <= 0.5\nmse = 0.09\nsamples = 2\nvalue = 27.3"] ;
304 -> 305 ;
306 [label="mse = 0.0\nsamples = 1\nvalue = 27.0"] ;
305 -> 306 ;
307 [label="mse = 0.0\nsamples = 1\nvalue = 27.6"] ;
305 -> 307 ;
308 [label="mse = 0.0\nsamples = 1\nvalue = 28.8"] ;
304 -> 308 ;
309 [label="X[0] <= 208.5\nmse = 0.149\nsamples = 3\nvalue = 33.233"] ;
287 -> 309 ;
310 [label="X[3] <= 3312.5\nmse = 0.01\nsamples = 2\nvalue = 33.5"] ;
309 -> 310 ;
311 [label="mse = 0.0\nsamples = 1\nvalue = 33.6"] ;
310 -> 311 ;
312 [label="mse = 0.0\nsamples = 1\nvalue = 33.4"] ;
310 -> 312 ;
313 [label="mse = -0.0\nsamples = 1\nvalue = 32.7"] ;
309 -> 313 ;
314 [label="X[3] <= 3687.5\nmse = 12.627\nsamples = 156\nvalue = 28.036"] ;
192 -> 314 ;
315 [label="X[0] <= 210.0\nmse = 9.639\nsamples = 44\nvalue = 30.159"] ;
314 -> 315 ;
316 [label="X[0] <= 196.0\nmse = 6.795\nsamples = 34\nvalue = 31.171"] ;
315 -> 316 ;
317 [label="X[11] <= 0.5\nmse = 5.252\nsamples = 32\nvalue = 30.831"] ;
316 -> 317 ;
318 [label="X[8] <= 0.5\nmse = 5.038\nsamples = 25\nvalue = 31.364"] ;
317 -> 318 ;
319 [label="X[4] <= 3.52\nmse = 4.218\nsamples = 23\nvalue = 31.078"] ;
318 -> 319 ;
320 [label="X[4] <= 2.56\nmse = 2.599\nsamples = 18\nvalue = 30.567"] ;
319 -> 320 ;
321 [label="X[3] <= 3562.5\nmse = 0.01\nsamples = 2\nvalue = 28.2"] ;
320 -> 321 ;
322 [label="mse = 0.0\nsamples = 1\nvalue = 28.1"] ;
321 -> 322 ;
323 [label="mse = -0.0\nsamples = 1\nvalue = 28.3"] ;
321 -> 323 ;
324 [label="X[4] <= 3.01\nmse = 2.135\nsamples = 16\nvalue = 30.862"] ;
320 -> 324 ;
325 [label="X[3] <= 3562.5\nmse = 0.695\nsamples = 8\nvalue = 31.8"] ;
324 -> 325 ;
326 [label="mse = 0.222\nsamples = 3\nvalue = 32.567"] ;
325 -> 326 ;
327 [label="X[4] <= 2.77\nmse = 0.414\nsamples = 5\nvalue = 31.34"] ;
325 -> 327 ;
328 [label="mse = 0.0\nsamples = 1\nvalue = 31.6"] ;
327 -> 328 ;
329 [label="mse = 0.497\nsamples = 4\nvalue = 31.275"] ;
327 -> 329 ;
330 [label="X[0] <= 172.0\nmse = 1.817\nsamples = 8\nvalue = 29.925"] ;
324 -> 330 ;
331 [label="X[3] <= 3562.5\nmse = 0.496\nsamples = 3\nvalue = 30.833"] ;
330 -> 331 ;
332 [label="X[4] <= 3.2\nmse = 0.09\nsamples = 2\nvalue = 31.3"] ;
331 -> 332 ;
333 [label="mse = 0.0\nsamples = 1\nvalue = 31.6"] ;
332 -> 333 ;
334 [label="mse = -0.0\nsamples = 1\nvalue = 31.0"] ;
332 -> 334 ;
335 [label="mse = -0.0\nsamples = 1\nvalue = 29.9"] ;
331 -> 335 ;
336 [label="X[5] <= 50.5\nmse = 1.818\nsamples = 5\nvalue = 29.38"] ;
330 -> 336 ;
337 [label="X[12] <= 0.5\nmse = 0.16\nsamples = 2\nvalue = 28.1"] ;
336 -> 337 ;
338 [label="mse = 0.0\nsamples = 1\nvalue = 28.5"] ;
337 -> 338 ;
339 [label="mse = -0.0\nsamples = 1\nvalue = 27.7"] ;
337 -> 339 ;
340 [label="X[3] <= 3562.5\nmse = 1.102\nsamples = 3\nvalue = 30.233"] ;
336 -> 340 ;
341 [label="mse = 0.0\nsamples = 1\nvalue = 29.7"] ;
340 -> 341 ;
342 [label="mse = 1.44\nsamples = 2\nvalue = 30.5"] ;
340 -> 342 ;
343 [label="X[0] <= 143.0\nmse = 5.714\nsamples = 5\nvalue = 32.92"] ;
319 -> 343 ;
344 [label="X[1] <= 3.5\nmse = 1.929\nsamples = 3\nvalue = 31.233"] ;
343 -> 344 ;
345 [label="X[4] <= 3.89\nmse = 0.09\nsamples = 2\nvalue = 32.2"] ;
344 -> 345 ;
346 [label="mse = 0.0\nsamples = 1\nvalue = 32.5"] ;
345 -> 346 ;
347 [label="mse = -0.0\nsamples = 1\nvalue = 31.9"] ;
345 -> 347 ;
348 [label="mse = 0.0\nsamples = 1\nvalue = 29.3"] ;
344 -> 348 ;
349 [label="X[2] <= 6.5\nmse = 0.723\nsamples = 2\nvalue = 35.45"] ;
343 -> 349 ;
350 [label="mse = 0.0\nsamples = 1\nvalue = 36.3"] ;
349 -> 350 ;
351 [label="mse = -0.0\nsamples = 1\nvalue = 34.6"] ;
349 -> 351 ;
352 [label="X[5] <= 55.5\nmse = 2.722\nsamples = 2\nvalue = 34.65"] ;
318 -> 352 ;
353 [label="mse = 0.0\nsamples = 1\nvalue = 36.3"] ;
352 -> 353 ;
354 [label="mse = -0.0\nsamples = 1\nvalue = 33.0"] ;
352 -> 354 ;
355 [label="X[4] <= 4.09\nmse = 1.385\nsamples = 7\nvalue = 28.929"] ;
317 -> 355 ;
356 [label="X[18] <= 0.5\nmse = 0.574\nsamples = 5\nvalue = 28.44"] ;
355 -> 356 ;
357 [label="X[3] <= 3562.5\nmse = 0.367\nsamples = 4\nvalue = 28.175"] ;
356 -> 357 ;
358 [label="X[4] <= 2.99\nmse = 0.123\nsamples = 2\nvalue = 28.65"] ;
357 -> 358 ;
359 [label="mse = 0.0\nsamples = 1\nvalue = 29.0"] ;
358 -> 359 ;
360 [label="mse = 0.0\nsamples = 1\nvalue = 28.3"] ;
358 -> 360 ;
361 [label="X[4] <= 3.22\nmse = 0.16\nsamples = 2\nvalue = 27.7"] ;
357 -> 361 ;
362 [label="mse = 0.0\nsamples = 1\nvalue = 27.3"] ;
361 -> 362 ;
363 [label="mse = -0.0\nsamples = 1\nvalue = 28.1"] ;
361 -> 363 ;
364 [label="mse = -0.0\nsamples = 1\nvalue = 29.5"] ;
356 -> 364 ;
365 [label="X[3] <= 3562.5\nmse = 1.322\nsamples = 2\nvalue = 30.15"] ;
355 -> 365 ;
366 [label="mse = 0.0\nsamples = 1\nvalue = 29.0"] ;
365 -> 366 ;
367 [label="mse = 0.0\nsamples = 1\nvalue = 31.3"] ;
365 -> 367 ;
368 [label="mse = 0.16\nsamples = 2\nvalue = 36.6"] ;
316 -> 368 ;
369 [label="X[6] <= 44.0\nmse = 4.004\nsamples = 10\nvalue = 26.72"] ;
315 -> 369 ;
370 [label="X[9] <= 0.5\nmse = 1.672\nsamples = 4\nvalue = 25.275"] ;
369 -> 370 ;
371 [label="mse = 0.0\nsamples = 1\nvalue = 27.3"] ;
370 -> 371 ;
372 [label="X[3] <= 3562.5\nmse = 0.407\nsamples = 3\nvalue = 24.6"] ;
370 -> 372 ;
373 [label="mse = 0.423\nsamples = 2\nvalue = 24.85"] ;
372 -> 373 ;
374 [label="mse = 0.0\nsamples = 1\nvalue = 24.1"] ;
372 -> 374 ;
375 [label="X[3] <= 3562.5\nmse = 3.238\nsamples = 6\nvalue = 27.683"] ;
369 -> 375 ;
376 [label="X[5] <= 58.0\nmse = 0.665\nsamples = 4\nvalue = 28.8"] ;
375 -> 376 ;
377 [label="X[0] <= 218.5\nmse = 0.136\nsamples = 3\nvalue = 29.233"] ;
376 -> 377 ;
378 [label="mse = 0.0\nsamples = 1\nvalue = 29.7"] ;
377 -> 378 ;
379 [label="X[4] <= 3.75\nmse = 0.04\nsamples = 2\nvalue = 29.0"] ;
377 -> 379 ;
380 [label="mse = 0.0\nsamples = 1\nvalue = 29.2"] ;
379 -> 380 ;
381 [label="mse = -0.0\nsamples = 1\nvalue = 28.8"] ;
379 -> 381 ;
382 [label="mse = -0.0\nsamples = 1\nvalue = 27.5"] ;
376 -> 382 ;
383 [label="X[0] <= 234.0\nmse = 0.903\nsamples = 2\nvalue = 25.45"] ;
375 -> 383 ;
384 [label="mse = 0.0\nsamples = 1\nvalue = 24.5"] ;
383 -> 384 ;
385 [label="mse = 0.0\nsamples = 1\nvalue = 26.4"] ;
383 -> 385 ;
386 [label="X[6] <= 49.5\nmse = 11.334\nsamples = 112\nvalue = 27.202"] ;
314 -> 386 ;
387 [label="X[4] <= 3.63\nmse = 13.83\nsamples = 14\nvalue = 23.779"] ;
386 -> 387 ;
388 [label="X[9] <= 0.5\nmse = 6.575\nsamples = 11\nvalue = 22.391"] ;
387 -> 388 ;
389 [label="X[3] <= 3812.5\nmse = 2.609\nsamples = 8\nvalue = 21.212"] ;
388 -> 389 ;
390 [label="X[16] <= 0.5\nmse = 0.49\nsamples = 2\nvalue = 22.7"] ;
389 -> 390 ;
391 [label="mse = 0.0\nsamples = 1\nvalue = 23.4"] ;
390 -> 391 ;
392 [label="mse = 0.0\nsamples = 1\nvalue = 22.0"] ;
390 -> 392 ;
393 [label="X[0] <= 185.0\nmse = 2.331\nsamples = 6\nvalue = 20.717"] ;
389 -> 393 ;
394 [label="X[18] <= 0.5\nmse = 0.296\nsamples = 3\nvalue = 19.767"] ;
393 -> 394 ;
395 [label="X[0] <= 176.0\nmse = 0.04\nsamples = 2\nvalue = 19.4"] ;
394 -> 395 ;
396 [label="mse = 0.0\nsamples = 1\nvalue = 19.6"] ;
395 -> 396 ;
397 [label="mse = 0.0\nsamples = 1\nvalue = 19.2"] ;
395 -> 397 ;
398 [label="mse = 0.0\nsamples = 1\nvalue = 20.5"] ;
394 -> 398 ;
399 [label="X[3] <= 4125.0\nmse = 2.562\nsamples = 3\nvalue = 21.667"] ;
393 -> 399 ;
400 [label="X[3] <= 3937.5\nmse = 1.322\nsamples = 2\nvalue = 20.75"] ;
399 -> 400 ;
401 [label="mse = 0.0\nsamples = 1\nvalue = 21.9"] ;
400 -> 401 ;
402 [label="mse = -0.0\nsamples = 1\nvalue = 19.6"] ;
400 -> 402 ;
403 [label="mse = 0.0\nsamples = 1\nvalue = 23.5"] ;
399 -> 403 ;
404 [label="X[16] <= 0.5\nmse = 3.576\nsamples = 3\nvalue = 25.533"] ;
388 -> 404 ;
405 [label="X[3] <= 3812.5\nmse = 0.423\nsamples = 2\nvalue = 24.25"] ;
404 -> 405 ;
406 [label="mse = 0.0\nsamples = 1\nvalue = 24.9"] ;
405 -> 406 ;
407 [label="mse = -0.0\nsamples = 1\nvalue = 23.6"] ;
405 -> 407 ;
408 [label="mse = 0.0\nsamples = 1\nvalue = 28.1"] ;
404 -> 408 ;
409 [label="X[12] <= 0.5\nmse = 7.482\nsamples = 3\nvalue = 28.867"] ;
387 -> 409 ;
410 [label="mse = 0.0\nsamples = 1\nvalue = 32.7"] ;
409 -> 410 ;
411 [label="X[1] <= 3.5\nmse = 0.203\nsamples = 2\nvalue = 26.95"] ;
409 -> 411 ;
412 [label="mse = 0.0\nsamples = 1\nvalue = 26.5"] ;
411 -> 412 ;
413 [label="mse = -0.0\nsamples = 1\nvalue = 27.4"] ;
411 -> 413 ;
414 [label="X[5] <= 60.5\nmse = 9.065\nsamples = 98\nvalue = 27.691"] ;
386 -> 414 ;
415 [label="X[2] <= 7.5\nmse = 7.957\nsamples = 84\nvalue = 28.162"] ;
414 -> 415 ;
416 [label="X[13] <= 0.5\nmse = 8.886\nsamples = 40\nvalue = 27.087"] ;
415 -> 416 ;
417 [label="X[3] <= 3937.5\nmse = 5.912\nsamples = 36\nvalue = 26.461"] ;
416 -> 417 ;
418 [label="X[0] <= 185.0\nmse = 3.55\nsamples = 19\nvalue = 28.105"] ;
417 -> 418 ;
419 [label="X[4] <= 3.545\nmse = 3.492\nsamples = 13\nvalue = 28.815"] ;
418 -> 419 ;
420 [label="X[12] <= 0.5\nmse = 2.436\nsamples = 9\nvalue = 28.044"] ;
419 -> 420 ;
421 [label="mse = 0.023\nsamples = 2\nvalue = 26.65"] ;
420 -> 421 ;
422 [label="X[4] <= 3.14\nmse = 2.411\nsamples = 7\nvalue = 28.443"] ;
420 -> 422 ;
423 [label="X[0] <= 175.0\nmse = 0.412\nsamples = 4\nvalue = 29.25"] ;
422 -> 423 ;
424 [label="mse = 0.202\nsamples = 2\nvalue = 29.75"] ;
423 -> 424 ;
425 [label="mse = 0.122\nsamples = 2\nvalue = 28.75"] ;
423 -> 425 ;
426 [label="X[0] <= 164.0\nmse = 3.049\nsamples = 3\nvalue = 27.367"] ;
422 -> 426 ;
427 [label="mse = 0.0\nsamples = 1\nvalue = 29.7"] ;
426 -> 427 ;
428 [label="X[4] <= 3.36\nmse = 0.49\nsamples = 2\nvalue = 26.2"] ;
426 -> 428 ;
429 [label="mse = 0.0\nsamples = 1\nvalue = 25.5"] ;
428 -> 429 ;
430 [label="mse = 0.0\nsamples = 1\nvalue = 26.9"] ;
428 -> 430 ;
431 [label="X[3] <= 3812.5\nmse = 1.523\nsamples = 4\nvalue = 30.55"] ;
419 -> 431 ;
432 [label="X[1] <= 3.5\nmse = 0.423\nsamples = 2\nvalue = 29.45"] ;
431 -> 432 ;
433 [label="mse = 0.0\nsamples = 1\nvalue = 28.8"] ;
432 -> 433 ;
434 [label="mse = -0.0\nsamples = 1\nvalue = 30.1"] ;
432 -> 434 ;
435 [label="X[5] <= 26.0\nmse = 0.202\nsamples = 2\nvalue = 31.65"] ;
431 -> 435 ;
436 [label="mse = 0.0\nsamples = 1\nvalue = 32.1"] ;
435 -> 436 ;
437 [label="mse = 0.0\nsamples = 1\nvalue = 31.2"] ;
435 -> 437 ;
438 [label="X[4] <= 3.05\nmse = 0.216\nsamples = 6\nvalue = 26.567"] ;
418 -> 438 ;
439 [label="mse = 0.0\nsamples = 1\nvalue = 27.4"] ;
438 -> 439 ;
440 [label="X[0] <= 234.0\nmse = 0.092\nsamples = 5\nvalue = 26.4"] ;
438 -> 440 ;
441 [label="X[16] <= 0.5\nmse = 0.023\nsamples = 2\nvalue = 26.05"] ;
440 -> 441 ;
442 [label="mse = 0.0\nsamples = 1\nvalue = 25.9"] ;
441 -> 442 ;
443 [label="mse = 0.0\nsamples = 1\nvalue = 26.2"] ;
441 -> 443 ;
444 [label="X[3] <= 3812.5\nmse = 0.002\nsamples = 3\nvalue = 26.633"] ;
440 -> 444 ;
445 [label="mse = 0.0\nsamples = 1\nvalue = 26.7"] ;
444 -> 445 ;
446 [label="mse = 0.0\nsamples = 2\nvalue = 26.6"] ;
444 -> 446 ;
447 [label="X[0] <= 168.5\nmse = 2.154\nsamples = 17\nvalue = 24.624"] ;
417 -> 447 ;
448 [label="X[11] <= 0.5\nmse = 1.727\nsamples = 3\nvalue = 22.5"] ;
447 -> 448 ;
449 [label="X[4] <= 3.805\nmse = 0.16\nsamples = 2\nvalue = 21.6"] ;
448 -> 449 ;
450 [label="mse = 0.0\nsamples = 1\nvalue = 21.2"] ;
449 -> 450 ;
451 [label="mse = -0.0\nsamples = 1\nvalue = 22.0"] ;
449 -> 451 ;
452 [label="mse = 0.0\nsamples = 1\nvalue = 24.3"] ;
448 -> 452 ;
453 [label="X[5] <= 26.0\nmse = 1.072\nsamples = 14\nvalue = 25.079"] ;
447 -> 453 ;
454 [label="X[3] <= 5000.0\nmse = 0.842\nsamples = 11\nvalue = 25.336"] ;
453 -> 454 ;
455 [label="X[0] <= 233.5\nmse = 0.73\nsamples = 10\nvalue = 25.47"] ;
454 -> 455 ;
456 [label="X[3] <= 4125.0\nmse = 0.022\nsamples = 4\nvalue = 26.05"] ;
455 -> 456 ;
457 [label="mse = 0.0\nsamples = 1\nvalue = 26.3"] ;
456 -> 457 ;
458 [label="X[16] <= 0.5\nmse = 0.002\nsamples = 3\nvalue = 25.967"] ;
456 -> 458 ;
459 [label="mse = -0.0\nsamples = 2\nvalue = 26.0"] ;
458 -> 459 ;
460 [label="mse = 0.0\nsamples = 1\nvalue = 25.9"] ;
458 -> 460 ;
461 [label="X[4] <= 3.435\nmse = 0.828\nsamples = 6\nvalue = 25.083"] ;
455 -> 461 ;
462 [label="X[12] <= 0.5\nmse = 0.172\nsamples = 4\nvalue = 25.675"] ;
461 -> 462 ;
463 [label="X[3] <= 4375.0\nmse = 0.062\nsamples = 2\nvalue = 26.05"] ;
462 -> 463 ;
464 [label="mse = 0.0\nsamples = 1\nvalue = 26.3"] ;
463 -> 464 ;
465 [label="mse = -0.0\nsamples = 1\nvalue = 25.8"] ;
463 -> 465 ;
466 [label="mse = 0.0\nsamples = 2\nvalue = 25.3"] ;
462 -> 466 ;
467 [label="X[0] <= 242.5\nmse = 0.04\nsamples = 2\nvalue = 23.9"] ;
461 -> 467 ;
468 [label="mse = 0.0\nsamples = 1\nvalue = 23.7"] ;
467 -> 468 ;
469 [label="mse = 0.0\nsamples = 1\nvalue = 24.1"] ;
467 -> 469 ;
470 [label="mse = 0.0\nsamples = 1\nvalue = 24.0"] ;
454 -> 470 ;
471 [label="X[4] <= 3.815\nmse = 0.776\nsamples = 3\nvalue = 24.133"] ;
453 -> 471 ;
472 [label="mse = 0.0\nsamples = 1\nvalue = 22.9"] ;
471 -> 472 ;
473 [label="X[7] <= 0.5\nmse = 0.022\nsamples = 2\nvalue = 24.75"] ;
471 -> 473 ;
474 [label="mse = 0.0\nsamples = 1\nvalue = 24.9"] ;
473 -> 474 ;
475 [label="mse = 0.0\nsamples = 1\nvalue = 24.6"] ;
473 -> 475 ;
476 [label="X[3] <= 3937.5\nmse = 0.342\nsamples = 4\nvalue = 32.725"] ;
416 -> 476 ;
477 [label="X[2] <= 3.5\nmse = 0.282\nsamples = 3\nvalue = 32.933"] ;
476 -> 477 ;
478 [label="mse = 0.0\nsamples = 1\nvalue = 33.6"] ;
477 -> 478 ;
479 [label="X[4] <= 3.8\nmse = 0.09\nsamples = 2\nvalue = 32.6"] ;
477 -> 479 ;
480 [label="mse = 0.0\nsamples = 1\nvalue = 32.9"] ;
479 -> 480 ;
481 [label="mse = 0.0\nsamples = 1\nvalue = 32.3"] ;
479 -> 481 ;
482 [label="mse = 0.0\nsamples = 1\nvalue = 32.1"] ;
476 -> 482 ;
483 [label="X[0] <= 180.5\nmse = 5.108\nsamples = 44\nvalue = 29.139"] ;
415 -> 483 ;
484 [label="X[4] <= 3.08\nmse = 0.002\nsamples = 2\nvalue = 35.65"] ;
483 -> 484 ;
485 [label="mse = 0.0\nsamples = 1\nvalue = 35.6"] ;
484 -> 485 ;
486 [label="mse = -0.0\nsamples = 1\nvalue = 35.7"] ;
484 -> 486 ;
487 [label="X[3] <= 4125.0\nmse = 3.236\nsamples = 42\nvalue = 28.829"] ;
483 -> 487 ;
488 [label="X[4] <= 2.295\nmse = 2.85\nsamples = 21\nvalue = 29.824"] ;
487 -> 488 ;
489 [label="mse = 0.303\nsamples = 2\nvalue = 27.15"] ;
488 -> 489 ;
490 [label="X[4] <= 2.805\nmse = 2.287\nsamples = 19\nvalue = 30.105"] ;
488 -> 490 ;
491 [label="mse = 0.0\nsamples = 1\nvalue = 35.6"] ;
490 -> 491 ;
492 [label="X[3] <= 3937.5\nmse = 0.643\nsamples = 18\nvalue = 29.8"] ;
490 -> 492 ;
493 [label="X[4] <= 3.11\nmse = 0.264\nsamples = 7\nvalue = 30.214"] ;
492 -> 493 ;
494 [label="X[3] <= 3812.5\nmse = 0.047\nsamples = 3\nvalue = 30.6"] ;
493 -> 494 ;
495 [label="mse = 0.0\nsamples = 1\nvalue = 30.3"] ;
494 -> 495 ;
496 [label="X[4] <= 2.94\nmse = 0.003\nsamples = 2\nvalue = 30.75"] ;
494 -> 496 ;
497 [label="mse = 0.0\nsamples = 1\nvalue = 30.8"] ;
496 -> 497 ;
498 [label="mse = 0.0\nsamples = 1\nvalue = 30.7"] ;
496 -> 498 ;
499 [label="X[0] <= 208.5\nmse = 0.232\nsamples = 4\nvalue = 29.925"] ;
493 -> 499 ;
500 [label="X[4] <= 3.175\nmse = 0.287\nsamples = 3\nvalue = 30.0"] ;
499 -> 500 ;
501 [label="mse = 0.0\nsamples = 1\nvalue = 29.9"] ;
500 -> 501 ;
502 [label="mse = 0.422\nsamples = 2\nvalue = 30.05"] ;
500 -> 502 ;
503 [label="mse = 0.0\nsamples = 1\nvalue = 29.7"] ;
499 -> 503 ;
504 [label="X[0] <= 244.5\nmse = 0.706\nsamples = 11\nvalue = 29.536"] ;
492 -> 504 ;
505 [label="X[2] <= 8.5\nmse = 0.278\nsamples = 5\nvalue = 29.02"] ;
504 -> 505 ;
506 [label="X[0] <= 208.5\nmse = 0.157\nsamples = 4\nvalue = 28.825"] ;
505 -> 506 ;
507 [label="mse = 0.0\nsamples = 1\nvalue = 29.4"] ;
506 -> 507 ;
508 [label="X[7] <= 0.5\nmse = 0.062\nsamples = 3\nvalue = 28.633"] ;
506 -> 508 ;
509 [label="X[16] <= 0.5\nmse = 0.01\nsamples = 2\nvalue = 28.8"] ;
508 -> 509 ;
510 [label="mse = 0.0\nsamples = 1\nvalue = 28.7"] ;
509 -> 510 ;
511 [label="mse = 0.0\nsamples = 1\nvalue = 28.9"] ;
509 -> 511 ;
512 [label="mse = 0.0\nsamples = 1\nvalue = 28.3"] ;
508 -> 512 ;
513 [label="mse = 0.0\nsamples = 1\nvalue = 29.8"] ;
505 -> 513 ;
514 [label="X[4] <= 2.945\nmse = 0.656\nsamples = 6\nvalue = 29.967"] ;
504 -> 514 ;
515 [label="mse = 0.066\nsamples = 5\nvalue = 29.62"] ;
514 -> 515 ;
516 [label="mse = 0.0\nsamples = 1\nvalue = 31.7"] ;
514 -> 516 ;
517 [label="X[5] <= 26.0\nmse = 1.641\nsamples = 21\nvalue = 27.833"] ;
487 -> 517 ;
518 [label="X[0] <= 212.5\nmse = 1.025\nsamples = 13\nvalue = 27.231"] ;
517 -> 518 ;
519 [label="mse = 0.0\nsamples = 2\nvalue = 26.2"] ;
518 -> 519 ;
520 [label="X[3] <= 4375.0\nmse = 0.983\nsamples = 11\nvalue = 27.418"] ;
518 -> 520 ;
521 [label="X[0] <= 245.5\nmse = 1.153\nsamples = 6\nvalue = 27.8"] ;
520 -> 521 ;
522 [label="X[2] <= 8.5\nmse = 0.424\nsamples = 5\nvalue = 27.4"] ;
521 -> 522 ;
523 [label="mse = 0.0\nsamples = 1\nvalue = 26.3"] ;
522 -> 523 ;
524 [label="X[4] <= 3.17\nmse = 0.152\nsamples = 4\nvalue = 27.675"] ;
522 -> 524 ;
525 [label="mse = 0.202\nsamples = 3\nvalue = 27.667"] ;
524 -> 525 ;
526 [label="mse = -0.0\nsamples = 1\nvalue = 27.7"] ;
524 -> 526 ;
527 [label="mse = -0.0\nsamples = 1\nvalue = 29.8"] ;
521 -> 527 ;
528 [label="X[4] <= 4.135\nmse = 0.394\nsamples = 5\nvalue = 26.96"] ;
520 -> 528 ;
529 [label="X[4] <= 3.5\nmse = 0.262\nsamples = 4\nvalue = 27.175"] ;
528 -> 529 ;
530 [label="mse = 0.09\nsamples = 2\nvalue = 27.1"] ;
529 -> 530 ;
531 [label="mse = 0.423\nsamples = 2\nvalue = 27.25"] ;
529 -> 531 ;
532 [label="mse = 0.0\nsamples = 1\nvalue = 26.1"] ;
528 -> 532 ;
533 [label="X[4] <= 3.265\nmse = 1.094\nsamples = 8\nvalue = 28.812"] ;
517 -> 533 ;
534 [label="X[0] <= 249.0\nmse = 0.282\nsamples = 3\nvalue = 29.967"] ;
533 -> 534 ;
535 [label="mse = 0.0\nsamples = 1\nvalue = 29.3"] ;
534 -> 535 ;
536 [label="X[4] <= 3.14\nmse = 0.09\nsamples = 2\nvalue = 30.3"] ;
534 -> 536 ;
537 [label="mse = 0.0\nsamples = 1\nvalue = 30.6"] ;
536 -> 537 ;
538 [label="mse = 0.0\nsamples = 1\nvalue = 30.0"] ;
536 -> 538 ;
539 [label="X[3] <= 4875.0\nmse = 0.302\nsamples = 5\nvalue = 28.12"] ;
533 -> 539 ;
540 [label="X[0] <= 245.0\nmse = 0.215\nsamples = 4\nvalue = 28.3"] ;
539 -> 540 ;
541 [label="mse = 0.0\nsamples = 1\nvalue = 27.8"] ;
540 -> 541 ;
542 [label="X[3] <= 4625.0\nmse = 0.176\nsamples = 3\nvalue = 28.467"] ;
540 -> 542 ;
543 [label="mse = 0.25\nsamples = 2\nvalue = 28.4"] ;
542 -> 543 ;
544 [label="mse = 0.0\nsamples = 1\nvalue = 28.6"] ;
542 -> 544 ;
545 [label="mse = -0.0\nsamples = 1\nvalue = 27.4"] ;
539 -> 545 ;
546 [label="X[4] <= 4.085\nmse = 6.391\nsamples = 14\nvalue = 24.864"] ;
414 -> 546 ;
547 [label="X[0] <= 228.5\nmse = 3.764\nsamples = 13\nvalue = 24.392"] ;
546 -> 547 ;
548 [label="X[5] <= 92.5\nmse = 3.494\nsamples = 10\nvalue = 24.88"] ;
547 -> 548 ;
549 [label="X[3] <= 4375.0\nmse = 2.186\nsamples = 8\nvalue = 25.512"] ;
548 -> 549 ;
550 [label="X[2] <= 6.5\nmse = 0.917\nsamples = 7\nvalue = 25.957"] ;
549 -> 550 ;
551 [label="X[7] <= 0.5\nmse = 0.367\nsamples = 4\nvalue = 26.525"] ;
550 -> 551 ;
552 [label="X[12] <= 0.5\nmse = 0.109\nsamples = 3\nvalue = 26.833"] ;
551 -> 552 ;
553 [label="mse = 0.0\nsamples = 1\nvalue = 27.3"] ;
552 -> 553 ;
554 [label="mse = 0.0\nsamples = 2\nvalue = 26.6"] ;
552 -> 554 ;
555 [label="mse = 0.0\nsamples = 1\nvalue = 25.6"] ;
551 -> 555 ;
556 [label="X[4] <= 3.035\nmse = 0.647\nsamples = 3\nvalue = 25.2"] ;
550 -> 556 ;
557 [label="mse = 0.0\nsamples = 1\nvalue = 26.3"] ;
556 -> 557 ;
558 [label="mse = 0.062\nsamples = 2\nvalue = 24.65"] ;
556 -> 558 ;
559 [label="mse = -0.0\nsamples = 1\nvalue = 22.4"] ;
549 -> 559 ;
560 [label="X[3] <= 4062.5\nmse = 0.723\nsamples = 2\nvalue = 22.35"] ;
548 -> 560 ;
561 [label="mse = 0.0\nsamples = 1\nvalue = 23.2"] ;
560 -> 561 ;
562 [label="mse = -0.0\nsamples = 1\nvalue = 21.5"] ;
560 -> 562 ;
563 [label="X[0] <= 238.5\nmse = 1.229\nsamples = 3\nvalue = 22.767"] ;
547 -> 563 ;
564 [label="mse = 0.0\nsamples = 1\nvalue = 21.2"] ;
563 -> 564 ;
565 [label="X[4] <= 3.235\nmse = 0.003\nsamples = 2\nvalue = 23.55"] ;
563 -> 565 ;
566 [label="mse = 0.0\nsamples = 1\nvalue = 23.6"] ;
565 -> 566 ;
567 [label="mse = 0.0\nsamples = 1\nvalue = 23.5"] ;
565 -> 567 ;
568 [label="mse = 0.0\nsamples = 1\nvalue = 31.0"] ;
546 -> 568 ;
569 [label="X[4] <= 3.62\nmse = 74.236\nsamples = 31\nvalue = 38.968"] ;
191 -> 569 ;
570 [label="X[0] <= 147.5\nmse = 55.462\nsamples = 9\nvalue = 49.933"] ;
569 -> 570 ;
571 [label="X[3] <= 4125.0\nmse = 8.347\nsamples = 3\nvalue = 58.6"] ;
570 -> 571 ;
572 [label="mse = 4.84\nsamples = 2\nvalue = 60.2"] ;
571 -> 572 ;
573 [label="mse = -0.0\nsamples = 1\nvalue = 55.4"] ;
571 -> 573 ;
574 [label="X[4] <= 3.365\nmse = 22.687\nsamples = 6\nvalue = 45.6"] ;
570 -> 574 ;
575 [label="X[3] <= 3812.5\nmse = 4.835\nsamples = 4\nvalue = 44.1"] ;
574 -> 575 ;
576 [label="X[5] <= 53.0\nmse = 0.302\nsamples = 2\nvalue = 46.25"] ;
575 -> 576 ;
577 [label="mse = 0.0\nsamples = 1\nvalue = 46.8"] ;
576 -> 577 ;
578 [label="mse = -0.0\nsamples = 1\nvalue = 45.7"] ;
576 -> 578 ;
579 [label="X[5] <= 53.0\nmse = 0.122\nsamples = 2\nvalue = 41.95"] ;
575 -> 579 ;
580 [label="mse = 0.0\nsamples = 1\nvalue = 42.3"] ;
579 -> 580 ;
581 [label="mse = -0.0\nsamples = 1\nvalue = 41.6"] ;
579 -> 581 ;
582 [label="X[6] <= 43.5\nmse = 44.89\nsamples = 2\nvalue = 48.6"] ;
574 -> 582 ;
583 [label="mse = 0.0\nsamples = 1\nvalue = 41.9"] ;
582 -> 583 ;
584 [label="mse = 0.0\nsamples = 1\nvalue = 55.3"] ;
582 -> 584 ;
585 [label="X[5] <= 92.5\nmse = 12.602\nsamples = 22\nvalue = 34.482"] ;
569 -> 585 ;
586 [label="X[3] <= 3687.5\nmse = 8.691\nsamples = 19\nvalue = 35.374"] ;
585 -> 586 ;
587 [label="X[5] <= 16.0\nmse = 3.573\nsamples = 18\nvalue = 35.917"] ;
586 -> 587 ;
588 [label="X[3] <= 3187.5\nmse = 0.545\nsamples = 7\nvalue = 34.443"] ;
587 -> 588 ;
589 [label="X[3] <= 3062.5\nmse = 0.269\nsamples = 3\nvalue = 33.767"] ;
588 -> 589 ;
590 [label="mse = 0.0\nsamples = 1\nvalue = 34.5"] ;
589 -> 590 ;
591 [label="mse = 0.0\nsamples = 2\nvalue = 33.4"] ;
589 -> 591 ;
592 [label="mse = 0.152\nsamples = 4\nvalue = 34.95"] ;
588 -> 592 ;
593 [label="X[3] <= 3437.5\nmse = 3.237\nsamples = 11\nvalue = 36.855"] ;
587 -> 593 ;
594 [label="X[3] <= 3187.5\nmse = 2.271\nsamples = 9\nvalue = 37.378"] ;
593 -> 594 ;
595 [label="X[0] <= 155.5\nmse = 0.525\nsamples = 4\nvalue = 36.2"] ;
594 -> 595 ;
596 [label="X[3] <= 3062.5\nmse = 0.162\nsamples = 3\nvalue = 36.567"] ;
595 -> 596 ;
597 [label="mse = 0.0\nsamples = 1\nvalue = 36.9"] ;
596 -> 597 ;
598 [label="X[0] <= 142.5\nmse = 0.16\nsamples = 2\nvalue = 36.4"] ;
596 -> 598 ;
599 [label="mse = 0.0\nsamples = 1\nvalue = 36.8"] ;
598 -> 599 ;
600 [label="mse = 0.0\nsamples = 1\nvalue = 36.0"] ;
598 -> 600 ;
601 [label="mse = 0.0\nsamples = 1\nvalue = 35.1"] ;
595 -> 601 ;
602 [label="X[5] <= 55.5\nmse = 1.67\nsamples = 5\nvalue = 38.32"] ;
594 -> 602 ;
603 [label="X[0] <= 163.0\nmse = 2.25\nsamples = 2\nvalue = 39.1"] ;
602 -> 603 ;
604 [label="mse = 0.0\nsamples = 1\nvalue = 37.6"] ;
603 -> 604 ;
605 [label="mse = 0.0\nsamples = 1\nvalue = 40.6"] ;
603 -> 605 ;
606 [label="mse = 0.607\nsamples = 3\nvalue = 37.8"] ;
602 -> 606 ;
607 [label="X[4] <= 4.265\nmse = 0.81\nsamples = 2\nvalue = 34.5"] ;
593 -> 607 ;
608 [label="mse = 0.0\nsamples = 1\nvalue = 35.4"] ;
607 -> 608 ;
609 [label="mse = 0.0\nsamples = 1\nvalue = 33.6"] ;
607 -> 609 ;
610 [label="mse = -0.0\nsamples = 1\nvalue = 25.6"] ;
586 -> 610 ;
611 [label="X[3] <= 3062.5\nmse = 0.429\nsamples = 3\nvalue = 28.833"] ;
585 -> 611 ;
612 [label="mse = 0.122\nsamples = 2\nvalue = 29.25"] ;
611 -> 612 ;
613 [label="mse = 0.0\nsamples = 1\nvalue = 28.0"] ;
611 -> 613 ;
614 [label="X[5] <= 7.0\nmse = 44.121\nsamples = 466\nvalue = 23.113"] ;
0 -> 614 [labeldistance=2.5, labelangle=-45, headlabel="False"] ;
615 [label="X[1] <= 7.0\nmse = 33.112\nsamples = 62\nvalue = 34.797"] ;
614 -> 615 ;
616 [label="X[3] <= 4375.0\nmse = 26.066\nsamples = 42\nvalue = 36.931"] ;
615 -> 616 ;
617 [label="X[2] <= 5.5\nmse = 17.292\nsamples = 15\nvalue = 40.5"] ;
616 -> 617 ;
618 [label="mse = 0.0\nsamples = 1\nvalue = 29.3"] ;
617 -> 618 ;
619 [label="X[12] <= 0.5\nmse = 8.927\nsamples = 14\nvalue = 41.3"] ;
617 -> 619 ;
620 [label="X[3] <= 3875.0\nmse = 3.492\nsamples = 4\nvalue = 38.375"] ;
619 -> 620 ;
621 [label="X[18] <= 0.5\nmse = 0.81\nsamples = 2\nvalue = 36.9"] ;
620 -> 621 ;
622 [label="mse = 0.0\nsamples = 1\nvalue = 37.8"] ;
621 -> 622 ;
623 [label="mse = 0.0\nsamples = 1\nvalue = 36.0"] ;
621 -> 623 ;
624 [label="X[4] <= 3.085\nmse = 1.822\nsamples = 2\nvalue = 39.85"] ;
620 -> 624 ;
625 [label="mse = 0.0\nsamples = 1\nvalue = 38.5"] ;
624 -> 625 ;
626 [label="mse = 0.0\nsamples = 1\nvalue = 41.2"] ;
624 -> 626 ;
627 [label="X[0] <= 303.5\nmse = 6.31\nsamples = 10\nvalue = 42.47"] ;
619 -> 627 ;
628 [label="X[2] <= 8.5\nmse = 2.75\nsamples = 5\nvalue = 44.26"] ;
627 -> 628 ;
629 [label="X[0] <= 287.0\nmse = 0.117\nsamples = 4\nvalue = 45.075"] ;
628 -> 629 ;
630 [label="X[4] <= 3.175\nmse = 0.023\nsamples = 2\nvalue = 44.75"] ;
629 -> 630 ;
631 [label="mse = 0.0\nsamples = 1\nvalue = 44.9"] ;
630 -> 631 ;
632 [label="mse = 0.0\nsamples = 1\nvalue = 44.6"] ;
630 -> 632 ;
633 [label="mse = 0.0\nsamples = 2\nvalue = 45.4"] ;
629 -> 633 ;
634 [label="mse = 0.0\nsamples = 1\nvalue = 41.0"] ;
628 -> 634 ;
635 [label="X[0] <= 342.0\nmse = 3.462\nsamples = 5\nvalue = 40.68"] ;
627 -> 635 ;
636 [label="X[4] <= 2.79\nmse = 3.127\nsamples = 3\nvalue = 41.7"] ;
635 -> 636 ;
637 [label="mse = 0.0\nsamples = 1\nvalue = 39.4"] ;
636 -> 637 ;
638 [label="X[2] <= 8.5\nmse = 0.723\nsamples = 2\nvalue = 42.85"] ;
636 -> 638 ;
639 [label="mse = 0.0\nsamples = 1\nvalue = 43.7"] ;
638 -> 639 ;
640 [label="mse = 0.0\nsamples = 1\nvalue = 42.0"] ;
638 -> 640 ;
641 [label="X[2] <= 7.5\nmse = 0.062\nsamples = 2\nvalue = 39.15"] ;
635 -> 641 ;
642 [label="mse = 0.0\nsamples = 1\nvalue = 39.4"] ;
641 -> 642 ;
643 [label="mse = 0.0\nsamples = 1\nvalue = 38.9"] ;
641 -> 643 ;
644 [label="X[18] <= 0.5\nmse = 19.932\nsamples = 27\nvalue = 34.948"] ;
616 -> 644 ;
645 [label="X[3] <= 4875.0\nmse = 15.188\nsamples = 14\nvalue = 37.164"] ;
644 -> 645 ;
646 [label="X[4] <= 2.945\nmse = 6.563\nsamples = 12\nvalue = 36.183"] ;
645 -> 646 ;
647 [label="X[12] <= 0.5\nmse = 1.323\nsamples = 2\nvalue = 39.85"] ;
646 -> 647 ;
648 [label="mse = 0.0\nsamples = 1\nvalue = 38.7"] ;
647 -> 648 ;
649 [label="mse = 0.0\nsamples = 1\nvalue = 41.0"] ;
647 -> 649 ;
650 [label="X[12] <= 0.5\nmse = 4.384\nsamples = 10\nvalue = 35.45"] ;
646 -> 650 ;
651 [label="X[0] <= 299.0\nmse = 1.006\nsamples = 7\nvalue = 36.7"] ;
650 -> 651 ;
652 [label="X[4] <= 4.16\nmse = 0.223\nsamples = 4\nvalue = 37.35"] ;
651 -> 652 ;
653 [label="mse = 0.0\nsamples = 1\nvalue = 38.1"] ;
652 -> 653 ;
654 [label="X[0] <= 289.5\nmse = 0.047\nsamples = 3\nvalue = 37.1"] ;
652 -> 654 ;
655 [label="mse = 0.0\nsamples = 1\nvalue = 37.3"] ;
654 -> 655 ;
656 [label="mse = 0.04\nsamples = 2\nvalue = 37.0"] ;
654 -> 656 ;
657 [label="X[0] <= 317.5\nmse = 0.736\nsamples = 3\nvalue = 35.833"] ;
651 -> 657 ;
658 [label="X[4] <= 3.275\nmse = 0.25\nsamples = 2\nvalue = 35.3"] ;
657 -> 658 ;
659 [label="mse = 0.0\nsamples = 1\nvalue = 34.8"] ;
658 -> 659 ;
660 [label="mse = -0.0\nsamples = 1\nvalue = 35.8"] ;
658 -> 660 ;
661 [label="mse = 0.0\nsamples = 1\nvalue = 36.9"] ;
657 -> 661 ;
662 [label="X[4] <= 3.18\nmse = 0.116\nsamples = 3\nvalue = 32.533"] ;
650 -> 662 ;
663 [label="X[0] <= 350.0\nmse = 0.01\nsamples = 2\nvalue = 32.3"] ;
662 -> 663 ;
664 [label="mse = 0.0\nsamples = 1\nvalue = 32.4"] ;
663 -> 664 ;
665 [label="mse = 0.0\nsamples = 1\nvalue = 32.2"] ;
663 -> 665 ;
666 [label="mse = 0.0\nsamples = 1\nvalue = 33.0"] ;
662 -> 666 ;
667 [label="X[0] <= 314.5\nmse = 26.523\nsamples = 2\nvalue = 43.05"] ;
645 -> 667 ;
668 [label="mse = 0.0\nsamples = 1\nvalue = 48.2"] ;
667 -> 668 ;
669 [label="mse = 0.0\nsamples = 1\nvalue = 37.9"] ;
667 -> 669 ;
670 [label="X[4] <= 3.545\nmse = 14.056\nsamples = 13\nvalue = 32.562"] ;
644 -> 670 ;
671 [label="X[2] <= 6.0\nmse = 4.611\nsamples = 8\nvalue = 34.488"] ;
670 -> 671 ;
672 [label="mse = 0.0\nsamples = 1\nvalue = 30.1"] ;
671 -> 672 ;
673 [label="X[4] <= 3.48\nmse = 2.127\nsamples = 7\nvalue = 35.114"] ;
671 -> 673 ;
674 [label="X[4] <= 3.315\nmse = 1.28\nsamples = 6\nvalue = 34.7"] ;
673 -> 674 ;
675 [label="X[4] <= 3.21\nmse = 0.382\nsamples = 3\nvalue = 35.633"] ;
674 -> 675 ;
676 [label="X[0] <= 385.5\nmse = 0.01\nsamples = 2\nvalue = 35.2"] ;
675 -> 676 ;
677 [label="mse = 0.0\nsamples = 1\nvalue = 35.1"] ;
676 -> 677 ;
678 [label="mse = -0.0\nsamples = 1\nvalue = 35.3"] ;
676 -> 678 ;
679 [label="mse = 0.0\nsamples = 1\nvalue = 36.5"] ;
675 -> 679 ;
680 [label="X[3] <= 4625.0\nmse = 0.436\nsamples = 3\nvalue = 33.767"] ;
674 -> 680 ;
681 [label="X[12] <= 0.5\nmse = 0.09\nsamples = 2\nvalue = 34.2"] ;
680 -> 681 ;
682 [label="mse = 0.0\nsamples = 1\nvalue = 34.5"] ;
681 -> 682 ;
683 [label="mse = -0.0\nsamples = 1\nvalue = 33.9"] ;
681 -> 683 ;
684 [label="mse = 0.0\nsamples = 1\nvalue = 32.9"] ;
680 -> 684 ;
685 [label="mse = 0.0\nsamples = 1\nvalue = 37.6"] ;
673 -> 685 ;
686 [label="X[3] <= 5500.0\nmse = 13.738\nsamples = 5\nvalue = 29.48"] ;
670 -> 686 ;
687 [label="X[4] <= 3.64\nmse = 9.422\nsamples = 4\nvalue = 30.725"] ;
686 -> 687 ;
688 [label="mse = 0.0\nsamples = 1\nvalue = 26.3"] ;
687 -> 688 ;
689 [label="X[2] <= 5.5\nmse = 3.86\nsamples = 3\nvalue = 32.2"] ;
687 -> 689 ;
690 [label="mse = 0.0\nsamples = 1\nvalue = 29.7"] ;
689 -> 690 ;
691 [label="X[4] <= 3.82\nmse = 1.103\nsamples = 2\nvalue = 33.45"] ;
689 -> 691 ;
692 [label="mse = 0.0\nsamples = 1\nvalue = 32.4"] ;
691 -> 692 ;
693 [label="mse = -0.0\nsamples = 1\nvalue = 34.5"] ;
691 -> 693 ;
694 [label="mse = 0.0\nsamples = 1\nvalue = 24.5"] ;
686 -> 694 ;
695 [label="X[4] <= 3.115\nmse = 18.258\nsamples = 20\nvalue = 30.315"] ;
615 -> 695 ;
696 [label="X[0] <= 459.0\nmse = 3.178\nsamples = 6\nvalue = 35.017"] ;
695 -> 696 ;
697 [label="X[18] <= 0.5\nmse = 0.662\nsamples = 4\nvalue = 34.075"] ;
696 -> 697 ;
698 [label="mse = 0.0\nsamples = 1\nvalue = 35.2"] ;
697 -> 698 ;
699 [label="X[2] <= 8.5\nmse = 0.32\nsamples = 3\nvalue = 33.7"] ;
697 -> 699 ;
700 [label="mse = 0.0\nsamples = 2\nvalue = 33.3"] ;
699 -> 700 ;
701 [label="mse = 0.0\nsamples = 1\nvalue = 34.5"] ;
699 -> 701 ;
702 [label="X[3] <= 5375.0\nmse = 2.89\nsamples = 2\nvalue = 36.9"] ;
696 -> 702 ;
703 [label="mse = 0.0\nsamples = 1\nvalue = 38.6"] ;
702 -> 703 ;
704 [label="mse = -0.0\nsamples = 1\nvalue = 35.2"] ;
702 -> 704 ;
705 [label="X[4] <= 3.82\nmse = 11.187\nsamples = 14\nvalue = 28.3"] ;
695 -> 705 ;
706 [label="X[6] <= 49.5\nmse = 7.033\nsamples = 11\nvalue = 29.473"] ;
705 -> 706 ;
707 [label="mse = 0.0\nsamples = 1\nvalue = 22.6"] ;
706 -> 707 ;
708 [label="X[0] <= 595.0\nmse = 2.54\nsamples = 10\nvalue = 30.16"] ;
706 -> 708 ;
709 [label="X[4] <= 3.18\nmse = 1.741\nsamples = 9\nvalue = 30.489"] ;
708 -> 709 ;
710 [label="mse = 0.0\nsamples = 1\nvalue = 27.3"] ;
709 -> 710 ;
711 [label="X[3] <= 5375.0\nmse = 0.529\nsamples = 8\nvalue = 30.888"] ;
709 -> 711 ;
712 [label="X[4] <= 3.63\nmse = 0.273\nsamples = 6\nvalue = 31.2"] ;
711 -> 712 ;
713 [label="X[0] <= 425.0\nmse = 0.088\nsamples = 5\nvalue = 31.4"] ;
712 -> 713 ;
714 [label="X[4] <= 3.365\nmse = 0.002\nsamples = 2\nvalue = 31.05"] ;
713 -> 714 ;
715 [label="mse = 0.0\nsamples = 1\nvalue = 31.0"] ;
714 -> 715 ;
716 [label="mse = 0.0\nsamples = 1\nvalue = 31.1"] ;
714 -> 716 ;
717 [label="X[15] <= 0.5\nmse = 0.009\nsamples = 3\nvalue = 31.633"] ;
713 -> 717 ;
718 [label="mse = -0.0\nsamples = 2\nvalue = 31.7"] ;
717 -> 718 ;
719 [label="mse = -0.0\nsamples = 1\nvalue = 31.5"] ;
717 -> 719 ;
720 [label="mse = 0.0\nsamples = 1\nvalue = 30.2"] ;
712 -> 720 ;
721 [label="X[4] <= 3.315\nmse = 0.122\nsamples = 2\nvalue = 29.95"] ;
711 -> 721 ;
722 [label="mse = 0.0\nsamples = 1\nvalue = 29.6"] ;
721 -> 722 ;
723 [label="mse = -0.0\nsamples = 1\nvalue = 30.3"] ;
721 -> 723 ;
724 [label="mse = 0.0\nsamples = 1\nvalue = 27.2"] ;
708 -> 724 ;
725 [label="X[3] <= 5750.0\nmse = 2.887\nsamples = 3\nvalue = 24.0"] ;
705 -> 725 ;
726 [label="mse = 0.0\nsamples = 1\nvalue = 26.4"] ;
725 -> 726 ;
727 [label="mse = 0.01\nsamples = 2\nvalue = 22.8"] ;
725 -> 727 ;
728 [label="X[1] <= 7.0\nmse = 21.647\nsamples = 404\nvalue = 21.32"] ;
614 -> 728 ;
729 [label="X[3] <= 4375.0\nmse = 12.7\nsamples = 271\nvalue = 23.583"] ;
728 -> 729 ;
730 [label="X[0] <= 422.5\nmse = 8.265\nsamples = 141\nvalue = 24.913"] ;
729 -> 730 ;
731 [label="X[6] <= 49.5\nmse = 7.013\nsamples = 124\nvalue = 25.319"] ;
730 -> 731 ;
732 [label="X[4] <= 3.455\nmse = 6.287\nsamples = 11\nvalue = 22.227"] ;
731 -> 732 ;
733 [label="X[1] <= 4.5\nmse = 4.316\nsamples = 6\nvalue = 20.567"] ;
732 -> 733 ;
734 [label="X[11] <= 0.5\nmse = 0.722\nsamples = 2\nvalue = 22.75"] ;
733 -> 734 ;
735 [label="mse = 0.0\nsamples = 1\nvalue = 23.6"] ;
734 -> 735 ;
736 [label="mse = -0.0\nsamples = 1\nvalue = 21.9"] ;
734 -> 736 ;
737 [label="X[5] <= 21.0\nmse = 2.537\nsamples = 4\nvalue = 19.475"] ;
733 -> 737 ;
738 [label="X[12] <= 0.5\nmse = 1.082\nsamples = 3\nvalue = 20.233"] ;
737 -> 738 ;
739 [label="X[3] <= 3750.0\nmse = 0.01\nsamples = 2\nvalue = 19.5"] ;
738 -> 739 ;
740 [label="mse = 0.0\nsamples = 1\nvalue = 19.6"] ;
739 -> 740 ;
741 [label="mse = -0.0\nsamples = 1\nvalue = 19.4"] ;
739 -> 741 ;
742 [label="mse = -0.0\nsamples = 1\nvalue = 21.7"] ;
738 -> 742 ;
743 [label="mse = 0.0\nsamples = 1\nvalue = 17.2"] ;
737 -> 743 ;
744 [label="X[3] <= 4062.5\nmse = 1.374\nsamples = 5\nvalue = 24.22"] ;
732 -> 744 ;
745 [label="X[4] <= 3.51\nmse = 0.327\nsamples = 3\nvalue = 25.1"] ;
744 -> 745 ;
746 [label="mse = 0.0\nsamples = 1\nvalue = 25.9"] ;
745 -> 746 ;
747 [label="X[3] <= 3625.0\nmse = 0.01\nsamples = 2\nvalue = 24.7"] ;
745 -> 747 ;
748 [label="mse = 0.0\nsamples = 1\nvalue = 24.8"] ;
747 -> 748 ;
749 [label="mse = 0.0\nsamples = 1\nvalue = 24.6"] ;
747 -> 749 ;
750 [label="X[4] <= 4.14\nmse = 0.04\nsamples = 2\nvalue = 22.9"] ;
744 -> 750 ;
751 [label="mse = 0.0\nsamples = 1\nvalue = 22.7"] ;
750 -> 751 ;
752 [label="mse = 0.0\nsamples = 1\nvalue = 23.1"] ;
750 -> 752 ;
753 [label="X[2] <= 6.5\nmse = 6.063\nsamples = 113\nvalue = 25.62"] ;
731 -> 753 ;
754 [label="X[4] <= 4.085\nmse = 6.521\nsamples = 32\nvalue = 24.153"] ;
753 -> 754 ;
755 [label="X[3] <= 3687.5\nmse = 5.598\nsamples = 24\nvalue = 23.392"] ;
754 -> 755 ;
756 [label="X[4] <= 3.665\nmse = 2.962\nsamples = 3\nvalue = 27.033"] ;
755 -> 756 ;
757 [label="X[5] <= 55.5\nmse = 0.003\nsamples = 2\nvalue = 28.25"] ;
756 -> 757 ;
758 [label="mse = 0.0\nsamples = 1\nvalue = 28.2"] ;
757 -> 758 ;
759 [label="mse = 0.0\nsamples = 1\nvalue = 28.3"] ;
757 -> 759 ;
760 [label="mse = -0.0\nsamples = 1\nvalue = 24.6"] ;
756 -> 760 ;
761 [label="X[0] <= 273.5\nmse = 3.81\nsamples = 21\nvalue = 22.871"] ;
755 -> 761 ;
762 [label="X[18] <= 0.5\nmse = 0.492\nsamples = 5\nvalue = 25.3"] ;
761 -> 762 ;
763 [label="X[5] <= 58.0\nmse = 0.04\nsamples = 2\nvalue = 26.1"] ;
762 -> 763 ;
764 [label="mse = 0.0\nsamples = 1\nvalue = 26.3"] ;
763 -> 764 ;
765 [label="mse = -0.0\nsamples = 1\nvalue = 25.9"] ;
763 -> 765 ;
766 [label="X[3] <= 3937.5\nmse = 0.082\nsamples = 3\nvalue = 24.767"] ;
762 -> 766 ;
767 [label="X[3] <= 3812.5\nmse = 0.04\nsamples = 2\nvalue = 24.6"] ;
766 -> 767 ;
768 [label="mse = 0.0\nsamples = 1\nvalue = 24.8"] ;
767 -> 768 ;
769 [label="mse = -0.0\nsamples = 1\nvalue = 24.4"] ;
767 -> 769 ;
770 [label="mse = -0.0\nsamples = 1\nvalue = 25.1"] ;
766 -> 770 ;
771 [label="X[14] <= 0.5\nmse = 2.427\nsamples = 16\nvalue = 22.112"] ;
761 -> 771 ;
772 [label="X[3] <= 3937.5\nmse = 1.858\nsamples = 14\nvalue = 22.436"] ;
771 -> 772 ;
773 [label="X[0] <= 342.5\nmse = 2.508\nsamples = 7\nvalue = 21.757"] ;
772 -> 773 ;
774 [label="X[9] <= 0.5\nmse = 1.126\nsamples = 6\nvalue = 21.25"] ;
773 -> 774 ;
775 [label="X[0] <= 318.5\nmse = 0.242\nsamples = 5\nvalue = 20.82"] ;
774 -> 775 ;
776 [label="X[0] <= 294.0\nmse = 0.002\nsamples = 3\nvalue = 20.567"] ;
775 -> 776 ;
777 [label="mse = 0.0\nsamples = 1\nvalue = 20.6"] ;
776 -> 777 ;
778 [label="X[3] <= 3812.5\nmse = 0.003\nsamples = 2\nvalue = 20.55"] ;
776 -> 778 ;
779 [label="mse = 0.0\nsamples = 1\nvalue = 20.6"] ;
778 -> 779 ;
780 [label="mse = 0.0\nsamples = 1\nvalue = 20.5"] ;
778 -> 780 ;
781 [label="X[3] <= 3812.5\nmse = 0.36\nsamples = 2\nvalue = 21.2"] ;
775 -> 781 ;
782 [label="mse = 0.0\nsamples = 1\nvalue = 20.6"] ;
781 -> 782 ;
783 [label="mse = -0.0\nsamples = 1\nvalue = 21.8"] ;
781 -> 783 ;
784 [label="mse = -0.0\nsamples = 1\nvalue = 23.4"] ;
774 -> 784 ;
785 [label="mse = 0.0\nsamples = 1\nvalue = 24.8"] ;
773 -> 785 ;
786 [label="X[4] <= 3.64\nmse = 0.287\nsamples = 7\nvalue = 23.114"] ;
772 -> 786 ;
787 [label="X[4] <= 3.37\nmse = 0.106\nsamples = 6\nvalue = 22.933"] ;
786 -> 787 ;
788 [label="X[0] <= 328.5\nmse = 0.058\nsamples = 5\nvalue = 23.04"] ;
787 -> 788 ;
789 [label="X[12] <= 0.5\nmse = 0.052\nsamples = 4\nvalue = 22.975"] ;
788 -> 789 ;
790 [label="X[5] <= 26.0\nmse = 0.047\nsamples = 3\nvalue = 22.9"] ;
789 -> 790 ;
791 [label="mse = 0.0\nsamples = 1\nvalue = 22.8"] ;
790 -> 791 ;
792 [label="mse = 0.062\nsamples = 2\nvalue = 22.95"] ;
790 -> 792 ;
793 [label="mse = -0.0\nsamples = 1\nvalue = 23.2"] ;
789 -> 793 ;
794 [label="mse = 0.0\nsamples = 1\nvalue = 23.3"] ;
788 -> 794 ;
795 [label="mse = -0.0\nsamples = 1\nvalue = 22.4"] ;
787 -> 795 ;
796 [label="mse = 0.0\nsamples = 1\nvalue = 24.2"] ;
786 -> 796 ;
797 [label="X[0] <= 315.0\nmse = 0.562\nsamples = 2\nvalue = 19.85"] ;
771 -> 797 ;
798 [label="mse = 0.0\nsamples = 1\nvalue = 20.6"] ;
797 -> 798 ;
799 [label="mse = -0.0\nsamples = 1\nvalue = 19.1"] ;
797 -> 799 ;
800 [label="X[3] <= 3937.5\nmse = 2.33\nsamples = 8\nvalue = 26.438"] ;
754 -> 800 ;
801 [label="X[5] <= 55.5\nmse = 1.252\nsamples = 5\nvalue = 27.4"] ;
800 -> 801 ;
802 [label="X[3] <= 3812.5\nmse = 0.052\nsamples = 4\nvalue = 26.85"] ;
801 -> 802 ;
803 [label="X[0] <= 284.0\nmse = 0.016\nsamples = 3\nvalue = 26.967"] ;
802 -> 803 ;
804 [label="mse = 0.0\nsamples = 1\nvalue = 26.8"] ;
803 -> 804 ;
805 [label="X[2] <= 3.5\nmse = 0.002\nsamples = 2\nvalue = 27.05"] ;
803 -> 805 ;
806 [label="mse = 0.0\nsamples = 1\nvalue = 27.1"] ;
805 -> 806 ;
807 [label="mse = 0.0\nsamples = 1\nvalue = 27.0"] ;
805 -> 807 ;
808 [label="mse = 0.0\nsamples = 1\nvalue = 26.5"] ;
802 -> 808 ;
809 [label="mse = -0.0\nsamples = 1\nvalue = 29.6"] ;
801 -> 809 ;
810 [label="X[3] <= 4125.0\nmse = 0.009\nsamples = 3\nvalue = 24.833"] ;
800 -> 810 ;
811 [label="mse = 0.0\nsamples = 2\nvalue = 24.9"] ;
810 -> 811 ;
812 [label="mse = -0.0\nsamples = 1\nvalue = 24.7"] ;
810 -> 812 ;
813 [label="X[1] <= 4.5\nmse = 4.695\nsamples = 81\nvalue = 26.2"] ;
753 -> 813 ;
814 [label="X[13] <= 0.5\nmse = 5.519\nsamples = 21\nvalue = 27.99"] ;
813 -> 814 ;
815 [label="X[4] <= 4.34\nmse = 1.921\nsamples = 20\nvalue = 28.42"] ;
814 -> 815 ;
816 [label="X[3] <= 3937.5\nmse = 1.099\nsamples = 19\nvalue = 28.205"] ;
815 -> 816 ;
817 [label="X[4] <= 3.21\nmse = 0.9\nsamples = 12\nvalue = 28.525"] ;
816 -> 817 ;
818 [label="X[4] <= 3.02\nmse = 0.787\nsamples = 6\nvalue = 29.0"] ;
817 -> 818 ;
819 [label="X[5] <= 26.0\nmse = 0.474\nsamples = 5\nvalue = 28.72"] ;
818 -> 819 ;
820 [label="X[18] <= 0.5\nmse = 0.382\nsamples = 3\nvalue = 28.433"] ;
819 -> 820 ;
821 [label="X[8] <= 0.5\nmse = 0.01\nsamples = 2\nvalue = 28.0"] ;
820 -> 821 ;
822 [label="mse = 0.0\nsamples = 1\nvalue = 27.9"] ;
821 -> 822 ;
823 [label="mse = -0.0\nsamples = 1\nvalue = 28.1"] ;
821 -> 823 ;
824 [label="mse = 0.0\nsamples = 1\nvalue = 29.3"] ;
820 -> 824 ;
825 [label="X[12] <= 0.5\nmse = 0.302\nsamples = 2\nvalue = 29.15"] ;
819 -> 825 ;
826 [label="mse = 0.0\nsamples = 1\nvalue = 28.6"] ;
825 -> 826 ;
827 [label="mse = 0.0\nsamples = 1\nvalue = 29.7"] ;
825 -> 827 ;
828 [label="mse = 0.0\nsamples = 1\nvalue = 30.4"] ;
818 -> 828 ;
829 [label="X[0] <= 327.5\nmse = 0.562\nsamples = 6\nvalue = 28.05"] ;
817 -> 829 ;
830 [label="X[0] <= 302.5\nmse = 0.41\nsamples = 5\nvalue = 28.26"] ;
829 -> 830 ;
831 [label="X[0] <= 293.5\nmse = 0.107\nsamples = 4\nvalue = 27.975"] ;
830 -> 831 ;
832 [label="X[3] <= 3812.5\nmse = 0.02\nsamples = 3\nvalue = 27.8"] ;
831 -> 832 ;
833 [label="mse = 0.0\nsamples = 1\nvalue = 28.0"] ;
832 -> 833 ;
834 [label="mse = -0.0\nsamples = 2\nvalue = 27.7"] ;
832 -> 834 ;
835 [label="mse = 0.0\nsamples = 1\nvalue = 28.5"] ;
831 -> 835 ;
836 [label="mse = -0.0\nsamples = 1\nvalue = 29.4"] ;
830 -> 836 ;
837 [label="mse = 0.0\nsamples = 1\nvalue = 27.0"] ;
829 -> 837 ;
838 [label="X[16] <= 0.5\nmse = 0.965\nsamples = 7\nvalue = 27.657"] ;
816 -> 838 ;
839 [label="X[4] <= 4.0\nmse = 0.362\nsamples = 4\nvalue = 28.35"] ;
838 -> 839 ;
840 [label="X[5] <= 26.0\nmse = 0.296\nsamples = 3\nvalue = 28.133"] ;
839 -> 840 ;
841 [label="X[3] <= 4125.0\nmse = 0.302\nsamples = 2\nvalue = 28.35"] ;
840 -> 841 ;
842 [label="mse = 0.0\nsamples = 1\nvalue = 28.9"] ;
841 -> 842 ;
843 [label="mse = -0.0\nsamples = 1\nvalue = 27.8"] ;
841 -> 843 ;
844 [label="mse = 0.0\nsamples = 1\nvalue = 27.7"] ;
840 -> 844 ;
845 [label="mse = 0.0\nsamples = 1\nvalue = 29.0"] ;
839 -> 845 ;
846 [label="X[0] <= 256.0\nmse = 0.276\nsamples = 3\nvalue = 26.733"] ;
838 -> 846 ;
847 [label="mse = 0.0\nsamples = 1\nvalue = 26.0"] ;
846 -> 847 ;
848 [label="X[3] <= 4125.0\nmse = 0.01\nsamples = 2\nvalue = 27.1"] ;
846 -> 848 ;
849 [label="mse = 0.0\nsamples = 1\nvalue = 27.2"] ;
848 -> 849 ;
850 [label="mse = -0.0\nsamples = 1\nvalue = 27.0"] ;
848 -> 850 ;
851 [label="mse = 0.0\nsamples = 1\nvalue = 32.5"] ;
815 -> 851 ;
852 [label="mse = 0.0\nsamples = 1\nvalue = 19.4"] ;
814 -> 852 ;
853 [label="X[4] <= 2.935\nmse = 2.892\nsamples = 60\nvalue = 25.573"] ;
813 -> 853 ;
854 [label="X[0] <= 296.5\nmse = 2.989\nsamples = 17\nvalue = 26.671"] ;
853 -> 854 ;
855 [label="X[2] <= 8.5\nmse = 0.723\nsamples = 2\nvalue = 24.75"] ;
854 -> 855 ;
856 [label="mse = 0.0\nsamples = 1\nvalue = 23.9"] ;
855 -> 856 ;
857 [label="mse = 0.0\nsamples = 1\nvalue = 25.6"] ;
855 -> 857 ;
858 [label="X[0] <= 328.5\nmse = 2.734\nsamples = 15\nvalue = 26.927"] ;
854 -> 858 ;
859 [label="X[2] <= 8.5\nmse = 0.916\nsamples = 6\nvalue = 28.25"] ;
858 -> 859 ;
860 [label="X[3] <= 4125.0\nmse = 0.364\nsamples = 5\nvalue = 28.6"] ;
859 -> 860 ;
861 [label="X[0] <= 321.0\nmse = 0.077\nsamples = 4\nvalue = 28.875"] ;
860 -> 861 ;
862 [label="X[0] <= 310.5\nmse = 0.069\nsamples = 3\nvalue = 28.967"] ;
861 -> 862 ;
863 [label="mse = 0.062\nsamples = 2\nvalue = 28.85"] ;
862 -> 863 ;
864 [label="mse = -0.0\nsamples = 1\nvalue = 29.2"] ;
862 -> 864 ;
865 [label="mse = 0.0\nsamples = 1\nvalue = 28.6"] ;
861 -> 865 ;
866 [label="mse = 0.0\nsamples = 1\nvalue = 27.5"] ;
860 -> 866 ;
867 [label="mse = 0.0\nsamples = 1\nvalue = 26.5"] ;
859 -> 867 ;
868 [label="X[4] <= 2.79\nmse = 2.0\nsamples = 9\nvalue = 26.044"] ;
858 -> 868 ;
869 [label="X[3] <= 3875.0\nmse = 0.25\nsamples = 2\nvalue = 23.7"] ;
868 -> 869 ;
870 [label="mse = 0.0\nsamples = 1\nvalue = 24.2"] ;
869 -> 870 ;
871 [label="mse = 0.0\nsamples = 1\nvalue = 23.2"] ;
869 -> 871 ;
872 [label="X[4] <= 2.815\nmse = 0.481\nsamples = 7\nvalue = 26.714"] ;
868 -> 872 ;
873 [label="X[3] <= 4125.0\nmse = 0.027\nsamples = 3\nvalue = 27.4"] ;
872 -> 873 ;
874 [label="mse = 0.01\nsamples = 2\nvalue = 27.5"] ;
873 -> 874 ;
875 [label="mse = -0.0\nsamples = 1\nvalue = 27.2"] ;
873 -> 875 ;
876 [label="X[12] <= 0.5\nmse = 0.205\nsamples = 4\nvalue = 26.2"] ;
872 -> 876 ;
877 [label="mse = 0.0\nsamples = 1\nvalue = 25.8"] ;
876 -> 877 ;
878 [label="X[15] <= 0.5\nmse = 0.202\nsamples = 3\nvalue = 26.333"] ;
876 -> 878 ;
879 [label="mse = 0.302\nsamples = 2\nvalue = 26.35"] ;
878 -> 879 ;
880 [label="mse = 0.0\nsamples = 1\nvalue = 26.3"] ;
878 -> 880 ;
881 [label="X[9] <= 0.5\nmse = 2.189\nsamples = 43\nvalue = 25.14"] ;
853 -> 881 ;
882 [label="X[0] <= 336.0\nmse = 0.65\nsamples = 27\nvalue = 24.493"] ;
881 -> 882 ;
883 [label="X[4] <= 3.28\nmse = 0.474\nsamples = 11\nvalue = 24.082"] ;
882 -> 883 ;
884 [label="X[3] <= 4125.0\nmse = 0.254\nsamples = 8\nvalue = 24.388"] ;
883 -> 884 ;
885 [label="X[12] <= 0.5\nmse = 0.003\nsamples = 2\nvalue = 25.05"] ;
884 -> 885 ;
886 [label="mse = 0.0\nsamples = 1\nvalue = 25.0"] ;
885 -> 886 ;
887 [label="mse = 0.0\nsamples = 1\nvalue = 25.1"] ;
885 -> 887 ;
888 [label="X[18] <= 0.5\nmse = 0.142\nsamples = 6\nvalue = 24.167"] ;
884 -> 888 ;
889 [label="mse = 0.0\nsamples = 1\nvalue = 24.6"] ;
888 -> 889 ;
890 [label="mse = 0.126\nsamples = 5\nvalue = 24.08"] ;
888 -> 890 ;
891 [label="X[3] <= 3687.5\nmse = 0.149\nsamples = 3\nvalue = 23.267"] ;
883 -> 891 ;
892 [label="mse = 0.0\nsamples = 1\nvalue = 23.8"] ;
891 -> 892 ;
893 [label="X[0] <= 331.0\nmse = 0.01\nsamples = 2\nvalue = 23.0"] ;
891 -> 893 ;
894 [label="mse = 0.0\nsamples = 1\nvalue = 22.9"] ;
893 -> 894 ;
895 [label="mse = 0.0\nsamples = 1\nvalue = 23.1"] ;
893 -> 895 ;
896 [label="X[0] <= 366.0\nmse = 0.574\nsamples = 16\nvalue = 24.775"] ;
882 -> 896 ;
897 [label="X[18] <= 0.5\nmse = 0.175\nsamples = 6\nvalue = 25.383"] ;
896 -> 897 ;
898 [label="mse = 0.203\nsamples = 2\nvalue = 25.65"] ;
897 -> 898 ;
899 [label="X[0] <= 351.0\nmse = 0.107\nsamples = 4\nvalue = 25.25"] ;
897 -> 899 ;
900 [label="mse = 0.0\nsamples = 1\nvalue = 25.0"] ;
899 -> 900 ;
901 [label="mse = 0.116\nsamples = 3\nvalue = 25.333"] ;
899 -> 901 ;
902 [label="X[18] <= 0.5\nmse = 0.459\nsamples = 10\nvalue = 24.41"] ;
896 -> 902 ;
903 [label="mse = 0.0\nsamples = 1\nvalue = 22.7"] ;
902 -> 903 ;
904 [label="X[12] <= 0.5\nmse = 0.149\nsamples = 9\nvalue = 24.6"] ;
902 -> 904 ;
905 [label="X[3] <= 3687.5\nmse = 0.033\nsamples = 6\nvalue = 24.7"] ;
904 -> 905 ;
906 [label="X[4] <= 3.515\nmse = 0.062\nsamples = 2\nvalue = 24.85"] ;
905 -> 906 ;
907 [label="mse = 0.0\nsamples = 1\nvalue = 25.1"] ;
906 -> 907 ;
908 [label="mse = -0.0\nsamples = 1\nvalue = 24.6"] ;
906 -> 908 ;
909 [label="X[0] <= 395.0\nmse = 0.002\nsamples = 4\nvalue = 24.625"] ;
905 -> 909 ;
910 [label="mse = 0.003\nsamples = 2\nvalue = 24.65"] ;
909 -> 910 ;
911 [label="mse = 0.0\nsamples = 2\nvalue = 24.6"] ;
909 -> 911 ;
912 [label="mse = 0.32\nsamples = 3\nvalue = 24.4"] ;
904 -> 912 ;
913 [label="X[18] <= 0.5\nmse = 2.89\nsamples = 16\nvalue = 26.231"] ;
881 -> 913 ;
914 [label="X[1] <= 5.5\nmse = 1.677\nsamples = 6\nvalue = 24.4"] ;
913 -> 914 ;
915 [label="X[5] <= 58.0\nmse = 0.25\nsamples = 2\nvalue = 22.7"] ;
914 -> 915 ;
916 [label="mse = 0.0\nsamples = 1\nvalue = 23.2"] ;
915 -> 916 ;
917 [label="mse = -0.0\nsamples = 1\nvalue = 22.2"] ;
915 -> 917 ;
918 [label="X[3] <= 4125.0\nmse = 0.223\nsamples = 4\nvalue = 25.25"] ;
914 -> 918 ;
919 [label="X[3] <= 3937.5\nmse = 0.207\nsamples = 3\nvalue = 25.4"] ;
918 -> 919 ;
920 [label="mse = 0.0\nsamples = 1\nvalue = 25.5"] ;
919 -> 920 ;
921 [label="mse = 0.303\nsamples = 2\nvalue = 25.35"] ;
919 -> 921 ;
922 [label="mse = 0.0\nsamples = 1\nvalue = 24.8"] ;
918 -> 922 ;
923 [label="X[4] <= 3.26\nmse = 0.398\nsamples = 10\nvalue = 27.33"] ;
913 -> 923 ;
924 [label="mse = 0.0\nsamples = 1\nvalue = 25.9"] ;
923 -> 924 ;
925 [label="X[3] <= 3812.5\nmse = 0.19\nsamples = 9\nvalue = 27.489"] ;
923 -> 925 ;
926 [label="X[4] <= 3.515\nmse = 0.17\nsamples = 5\nvalue = 27.72"] ;
925 -> 926 ;
927 [label="X[3] <= 3687.5\nmse = 0.01\nsamples = 2\nvalue = 28.1"] ;
926 -> 927 ;
928 [label="mse = 0.0\nsamples = 1\nvalue = 28.2"] ;
927 -> 928 ;
929 [label="mse = -0.0\nsamples = 1\nvalue = 28.0"] ;
927 -> 929 ;
930 [label="mse = 0.116\nsamples = 3\nvalue = 27.467"] ;
926 -> 930 ;
931 [label="X[0] <= 395.0\nmse = 0.065\nsamples = 4\nvalue = 27.2"] ;
925 -> 931 ;
932 [label="X[3] <= 3937.5\nmse = 0.022\nsamples = 2\nvalue = 27.35"] ;
931 -> 932 ;
933 [label="mse = 0.0\nsamples = 1\nvalue = 27.2"] ;
932 -> 933 ;
934 [label="mse = -0.0\nsamples = 1\nvalue = 27.5"] ;
932 -> 934 ;
935 [label="X[3] <= 3937.5\nmse = 0.063\nsamples = 2\nvalue = 27.05"] ;
931 -> 935 ;
936 [label="mse = 0.0\nsamples = 1\nvalue = 27.3"] ;
935 -> 936 ;
937 [label="mse = 0.0\nsamples = 1\nvalue = 26.8"] ;
935 -> 937 ;
938 [label="X[4] <= 3.745\nmse = 7.395\nsamples = 17\nvalue = 21.947"] ;
730 -> 938 ;
939 [label="X[5] <= 26.0\nmse = 4.839\nsamples = 15\nvalue = 22.573"] ;
938 -> 939 ;
940 [label="X[12] <= 0.5\nmse = 3.501\nsamples = 10\nvalue = 23.49"] ;
939 -> 940 ;
941 [label="X[9] <= 0.5\nmse = 1.174\nsamples = 9\nvalue = 24.011"] ;
940 -> 941 ;
942 [label="X[3] <= 3687.5\nmse = 0.057\nsamples = 4\nvalue = 23.025"] ;
941 -> 942 ;
943 [label="mse = 0.0\nsamples = 1\nvalue = 22.7"] ;
942 -> 943 ;
944 [label="X[7] <= 0.5\nmse = 0.029\nsamples = 3\nvalue = 23.133"] ;
942 -> 944 ;
945 [label="X[3] <= 3812.5\nmse = 0.022\nsamples = 2\nvalue = 23.05"] ;
944 -> 945 ;
946 [label="mse = 0.0\nsamples = 1\nvalue = 23.2"] ;
945 -> 946 ;
947 [label="mse = 0.0\nsamples = 1\nvalue = 22.9"] ;
945 -> 947 ;
948 [label="mse = 0.0\nsamples = 1\nvalue = 23.3"] ;
944 -> 948 ;
949 [label="X[0] <= 511.0\nmse = 0.668\nsamples = 5\nvalue = 24.8"] ;
941 -> 949 ;
950 [label="X[3] <= 3812.5\nmse = 0.223\nsamples = 4\nvalue = 25.15"] ;
949 -> 950 ;
951 [label="mse = 0.0\nsamples = 1\nvalue = 25.9"] ;
950 -> 951 ;
952 [label="X[3] <= 3937.5\nmse = 0.047\nsamples = 3\nvalue = 24.9"] ;
950 -> 952 ;
953 [label="mse = 0.0\nsamples = 1\nvalue = 25.1"] ;
952 -> 953 ;
954 [label="mse = 0.04\nsamples = 2\nvalue = 24.8"] ;
952 -> 954 ;
955 [label="mse = -0.0\nsamples = 1\nvalue = 23.4"] ;
949 -> 955 ;
956 [label="mse = -0.0\nsamples = 1\nvalue = 18.8"] ;
940 -> 956 ;
957 [label="X[18] <= 0.5\nmse = 2.474\nsamples = 5\nvalue = 20.74"] ;
939 -> 957 ;
958 [label="mse = 0.0\nsamples = 1\nvalue = 23.3"] ;
957 -> 958 ;
959 [label="X[9] <= 0.5\nmse = 1.045\nsamples = 4\nvalue = 20.1"] ;
957 -> 959 ;
960 [label="X[2] <= 7.0\nmse = 0.109\nsamples = 3\nvalue = 20.667"] ;
959 -> 960 ;
961 [label="X[0] <= 440.0\nmse = 0.023\nsamples = 2\nvalue = 20.45"] ;
960 -> 961 ;
962 [label="mse = 0.0\nsamples = 1\nvalue = 20.6"] ;
961 -> 962 ;
963 [label="mse = -0.0\nsamples = 1\nvalue = 20.3"] ;
961 -> 963 ;
964 [label="mse = 0.0\nsamples = 1\nvalue = 21.1"] ;
960 -> 964 ;
965 [label="mse = 0.0\nsamples = 1\nvalue = 18.4"] ;
959 -> 965 ;
966 [label="X[9] <= 0.5\nmse = 1.563\nsamples = 2\nvalue = 17.25"] ;
938 -> 966 ;
967 [label="mse = 0.0\nsamples = 1\nvalue = 16.0"] ;
966 -> 967 ;
968 [label="mse = 0.0\nsamples = 1\nvalue = 18.5"] ;
966 -> 968 ;
969 [label="X[7] <= 0.5\nmse = 13.515\nsamples = 130\nvalue = 22.142"] ;
729 -> 969 ;
970 [label="X[3] <= 5625.0\nmse = 14.046\nsamples = 69\nvalue = 23.587"] ;
969 -> 970 ;
971 [label="X[4] <= 2.69\nmse = 11.622\nsamples = 66\nvalue = 23.938"] ;
970 -> 971 ;
972 [label="mse = 0.0\nsamples = 1\nvalue = 36.8"] ;
971 -> 972 ;
973 [label="X[4] <= 3.375\nmse = 9.217\nsamples = 65\nvalue = 23.74"] ;
971 -> 973 ;
974 [label="X[4] <= 3.215\nmse = 11.242\nsamples = 34\nvalue = 25.024"] ;
973 -> 974 ;
975 [label="X[18] <= 0.5\nmse = 6.807\nsamples = 21\nvalue = 23.543"] ;
974 -> 975 ;
976 [label="X[1] <= 5.0\nmse = 5.491\nsamples = 13\nvalue = 22.385"] ;
975 -> 976 ;
977 [label="mse = 0.0\nsamples = 1\nvalue = 27.4"] ;
976 -> 977 ;
978 [label="X[4] <= 3.1\nmse = 3.677\nsamples = 12\nvalue = 21.967"] ;
976 -> 978 ;
979 [label="X[4] <= 2.885\nmse = 1.967\nsamples = 8\nvalue = 23.038"] ;
978 -> 979 ;
980 [label="X[4] <= 2.81\nmse = 1.7\nsamples = 4\nvalue = 24.0"] ;
979 -> 980 ;
981 [label="mse = 0.01\nsamples = 2\nvalue = 22.7"] ;
980 -> 981 ;
982 [label="X[0] <= 347.0\nmse = 0.01\nsamples = 2\nvalue = 25.3"] ;
980 -> 982 ;
983 [label="mse = 0.0\nsamples = 1\nvalue = 25.2"] ;
982 -> 983 ;
984 [label="mse = 0.0\nsamples = 1\nvalue = 25.4"] ;
982 -> 984 ;
985 [label="X[0] <= 355.0\nmse = 0.382\nsamples = 4\nvalue = 22.075"] ;
979 -> 985 ;
986 [label="X[0] <= 283.0\nmse = 0.087\nsamples = 3\nvalue = 22.4"] ;
985 -> 986 ;
987 [label="mse = 0.0\nsamples = 1\nvalue = 22.8"] ;
986 -> 987 ;
988 [label="X[16] <= 0.5\nmse = 0.01\nsamples = 2\nvalue = 22.2"] ;
986 -> 988 ;
989 [label="mse = 0.0\nsamples = 1\nvalue = 22.3"] ;
988 -> 989 ;
990 [label="mse = -0.0\nsamples = 1\nvalue = 22.1"] ;
988 -> 990 ;
991 [label="mse = -0.0\nsamples = 1\nvalue = 21.1"] ;
985 -> 991 ;
992 [label="X[5] <= 58.0\nmse = 0.217\nsamples = 4\nvalue = 19.825"] ;
978 -> 992 ;
993 [label="X[3] <= 5000.0\nmse = 0.087\nsamples = 3\nvalue = 19.6"] ;
992 -> 993 ;
994 [label="mse = 0.0\nsamples = 1\nvalue = 19.9"] ;
993 -> 994 ;
995 [label="X[16] <= 0.5\nmse = 0.063\nsamples = 2\nvalue = 19.45"] ;
993 -> 995 ;
996 [label="mse = 0.0\nsamples = 1\nvalue = 19.7"] ;
995 -> 996 ;
997 [label="mse = 0.0\nsamples = 1\nvalue = 19.2"] ;
995 -> 997 ;
998 [label="mse = -0.0\nsamples = 1\nvalue = 20.5"] ;
992 -> 998 ;
999 [label="X[3] <= 4625.0\nmse = 3.224\nsamples = 8\nvalue = 25.425"] ;
975 -> 999 ;
1000 [label="X[0] <= 321.0\nmse = 0.069\nsamples = 3\nvalue = 27.633"] ;
999 -> 1000 ;
1001 [label="mse = 0.0\nsamples = 1\nvalue = 28.0"] ;
1000 -> 1001 ;
1002 [label="X[4] <= 2.87\nmse = 0.002\nsamples = 2\nvalue = 27.45"] ;
1000 -> 1002 ;
1003 [label="mse = 0.0\nsamples = 1\nvalue = 27.5"] ;
1002 -> 1003 ;
1004 [label="mse = -0.0\nsamples = 1\nvalue = 27.4"] ;
1002 -> 1004 ;
1005 [label="X[3] <= 4875.0\nmse = 0.436\nsamples = 5\nvalue = 24.1"] ;
999 -> 1005 ;
1006 [label="X[0] <= 327.5\nmse = 0.01\nsamples = 2\nvalue = 24.9"] ;
1005 -> 1006 ;
1007 [label="mse = 0.0\nsamples = 1\nvalue = 24.8"] ;
1006 -> 1007 ;
1008 [label="mse = 0.0\nsamples = 1\nvalue = 25.0"] ;
1006 -> 1008 ;
1009 [label="mse = 0.009\nsamples = 3\nvalue = 23.567"] ;
1005 -> 1009 ;
1010 [label="X[3] <= 4875.0\nmse = 9.143\nsamples = 13\nvalue = 27.415"] ;
974 -> 1010 ;
1011 [label="X[12] <= 0.5\nmse = 4.984\nsamples = 11\nvalue = 26.473"] ;
1010 -> 1011 ;
1012 [label="X[0] <= 290.5\nmse = 1.983\nsamples = 6\nvalue = 28.0"] ;
1011 -> 1012 ;
1013 [label="X[6] <= 44.0\nmse = 0.122\nsamples = 2\nvalue = 29.85"] ;
1012 -> 1013 ;
1014 [label="mse = 0.0\nsamples = 1\nvalue = 30.2"] ;
1013 -> 1014 ;
1015 [label="mse = -0.0\nsamples = 1\nvalue = 29.5"] ;
1013 -> 1015 ;
1016 [label="X[5] <= 58.0\nmse = 0.347\nsamples = 4\nvalue = 27.075"] ;
1012 -> 1016 ;
1017 [label="X[3] <= 4625.0\nmse = 0.082\nsamples = 3\nvalue = 26.767"] ;
1016 -> 1017 ;
1018 [label="mse = 0.0\nsamples = 1\nvalue = 27.1"] ;
1017 -> 1018 ;
1019 [label="X[9] <= 0.5\nmse = 0.04\nsamples = 2\nvalue = 26.6"] ;
1017 -> 1019 ;
1020 [label="mse = 0.0\nsamples = 1\nvalue = 26.8"] ;
1019 -> 1020 ;
1021 [label="mse = -0.0\nsamples = 1\nvalue = 26.4"] ;
1019 -> 1021 ;
1022 [label="mse = -0.0\nsamples = 1\nvalue = 28.0"] ;
1016 -> 1022 ;
1023 [label="X[4] <= 3.25\nmse = 2.426\nsamples = 5\nvalue = 24.64"] ;
1011 -> 1023 ;
1024 [label="X[18] <= 0.5\nmse = 0.513\nsamples = 4\nvalue = 25.35"] ;
1023 -> 1024 ;
1025 [label="mse = 0.0\nsamples = 1\nvalue = 24.8"] ;
1024 -> 1025 ;
1026 [label="X[3] <= 4625.0\nmse = 0.549\nsamples = 3\nvalue = 25.533"] ;
1024 -> 1026 ;
1027 [label="mse = 0.0\nsamples = 1\nvalue = 26.5"] ;
1026 -> 1027 ;
1028 [label="mse = 0.123\nsamples = 2\nvalue = 25.05"] ;
1026 -> 1028 ;
1029 [label="mse = -0.0\nsamples = 1\nvalue = 21.8"] ;
1023 -> 1029 ;
1030 [label="X[4] <= 3.28\nmse = 0.25\nsamples = 2\nvalue = 32.6"] ;
1010 -> 1030 ;
1031 [label="mse = 0.0\nsamples = 1\nvalue = 32.1"] ;
1030 -> 1031 ;
1032 [label="mse = 0.0\nsamples = 1\nvalue = 33.1"] ;
1030 -> 1032 ;
1033 [label="X[4] <= 3.545\nmse = 3.207\nsamples = 31\nvalue = 22.332"] ;
973 -> 1033 ;
1034 [label="X[9] <= 0.5\nmse = 1.478\nsamples = 10\nvalue = 20.97"] ;
1033 -> 1034 ;
1035 [label="X[12] <= 0.5\nmse = 0.402\nsamples = 9\nvalue = 21.322"] ;
1034 -> 1035 ;
1036 [label="X[0] <= 343.0\nmse = 0.023\nsamples = 2\nvalue = 20.25"] ;
1035 -> 1036 ;
1037 [label="mse = 0.0\nsamples = 1\nvalue = 20.4"] ;
1036 -> 1037 ;
1038 [label="mse = 0.0\nsamples = 1\nvalue = 20.1"] ;
1036 -> 1038 ;
1039 [label="X[3] <= 4875.0\nmse = 0.088\nsamples = 7\nvalue = 21.629"] ;
1035 -> 1039 ;
1040 [label="X[5] <= 26.0\nmse = 0.04\nsamples = 2\nvalue = 21.9"] ;
1039 -> 1040 ;
1041 [label="mse = 0.0\nsamples = 1\nvalue = 21.7"] ;
1040 -> 1041 ;
1042 [label="mse = 0.0\nsamples = 1\nvalue = 22.1"] ;
1040 -> 1042 ;
1043 [label="X[2] <= 7.0\nmse = 0.066\nsamples = 5\nvalue = 21.52"] ;
1039 -> 1043 ;
1044 [label="mse = 0.0\nsamples = 1\nvalue = 22.0"] ;
1043 -> 1044 ;
1045 [label="X[0] <= 335.0\nmse = 0.01\nsamples = 4\nvalue = 21.4"] ;
1043 -> 1045 ;
1046 [label="mse = 0.0\nsamples = 1\nvalue = 21.3"] ;
1045 -> 1046 ;
1047 [label="X[15] <= 0.5\nmse = 0.009\nsamples = 3\nvalue = 21.433"] ;
1045 -> 1047 ;
1048 [label="mse = 0.01\nsamples = 2\nvalue = 21.4"] ;
1047 -> 1048 ;
1049 [label="mse = 0.0\nsamples = 1\nvalue = 21.5"] ;
1047 -> 1049 ;
1050 [label="mse = 0.0\nsamples = 1\nvalue = 17.8"] ;
1034 -> 1050 ;
1051 [label="X[2] <= 8.5\nmse = 2.726\nsamples = 21\nvalue = 22.981"] ;
1033 -> 1051 ;
1052 [label="X[18] <= 0.5\nmse = 2.534\nsamples = 14\nvalue = 22.3"] ;
1051 -> 1052 ;
1053 [label="X[0] <= 285.5\nmse = 1.848\nsamples = 9\nvalue = 23.111"] ;
1052 -> 1053 ;
1054 [label="X[6] <= 44.0\nmse = 0.482\nsamples = 4\nvalue = 24.325"] ;
1053 -> 1054 ;
1055 [label="mse = 0.0\nsamples = 1\nvalue = 23.2"] ;
1054 -> 1055 ;
1056 [label="X[4] <= 5.275\nmse = 0.08\nsamples = 3\nvalue = 24.7"] ;
1054 -> 1056 ;
1057 [label="mse = 0.0\nsamples = 2\nvalue = 24.5"] ;
1056 -> 1057 ;
1058 [label="mse = 0.0\nsamples = 1\nvalue = 25.1"] ;
1056 -> 1058 ;
1059 [label="X[0] <= 301.5\nmse = 0.818\nsamples = 5\nvalue = 22.14"] ;
1053 -> 1059 ;
1060 [label="X[12] <= 0.5\nmse = 0.003\nsamples = 2\nvalue = 22.75"] ;
1059 -> 1060 ;
1061 [label="mse = 0.0\nsamples = 1\nvalue = 22.7"] ;
1060 -> 1061 ;
1062 [label="mse = 0.0\nsamples = 1\nvalue = 22.8"] ;
1060 -> 1062 ;
1063 [label="X[15] <= 0.5\nmse = 0.949\nsamples = 3\nvalue = 21.733"] ;
1059 -> 1063 ;
1064 [label="X[0] <= 357.5\nmse = 0.09\nsamples = 2\nvalue = 22.4"] ;
1063 -> 1064 ;
1065 [label="mse = 0.0\nsamples = 1\nvalue = 22.1"] ;
1064 -> 1065 ;
1066 [label="mse = 0.0\nsamples = 1\nvalue = 22.7"] ;
1064 -> 1066 ;
1067 [label="mse = 0.0\nsamples = 1\nvalue = 20.4"] ;
1063 -> 1067 ;
1068 [label="X[11] <= 0.5\nmse = 0.454\nsamples = 5\nvalue = 20.84"] ;
1052 -> 1068 ;
1069 [label="X[2] <= 7.5\nmse = 0.088\nsamples = 4\nvalue = 21.15"] ;
1068 -> 1069 ;
1070 [label="X[0] <= 350.0\nmse = 0.027\nsamples = 3\nvalue = 21.0"] ;
1069 -> 1070 ;
1071 [label="X[12] <= 0.5\nmse = 0.01\nsamples = 2\nvalue = 21.1"] ;
1070 -> 1071 ;
1072 [label="mse = 0.0\nsamples = 1\nvalue = 21.2"] ;
1071 -> 1072 ;
1073 [label="mse = -0.0\nsamples = 1\nvalue = 21.0"] ;
1071 -> 1073 ;
1074 [label="mse = 0.0\nsamples = 1\nvalue = 20.8"] ;
1070 -> 1074 ;
1075 [label="mse = -0.0\nsamples = 1\nvalue = 21.6"] ;
1069 -> 1075 ;
1076 [label="mse = -0.0\nsamples = 1\nvalue = 19.6"] ;
1068 -> 1076 ;
1077 [label="X[3] <= 5125.0\nmse = 0.328\nsamples = 7\nvalue = 24.343"] ;
1051 -> 1077 ;
1078 [label="X[0] <= 285.0\nmse = 0.245\nsamples = 6\nvalue = 24.483"] ;
1077 -> 1078 ;
1079 [label="X[4] <= 3.97\nmse = 0.282\nsamples = 3\nvalue = 24.167"] ;
1078 -> 1079 ;
1080 [label="X[3] <= 4875.0\nmse = 0.09\nsamples = 2\nvalue = 24.5"] ;
1079 -> 1080 ;
1081 [label="mse = 0.0\nsamples = 1\nvalue = 24.8"] ;
1080 -> 1081 ;
1082 [label="mse = 0.0\nsamples = 1\nvalue = 24.2"] ;
1080 -> 1082 ;
1083 [label="mse = -0.0\nsamples = 1\nvalue = 23.5"] ;
1079 -> 1083 ;
1084 [label="X[3] <= 4875.0\nmse = 0.007\nsamples = 3\nvalue = 24.8"] ;
1078 -> 1084 ;
1085 [label="X[16] <= 0.5\nmse = 0.003\nsamples = 2\nvalue = 24.85"] ;
1084 -> 1085 ;
1086 [label="mse = 0.0\nsamples = 1\nvalue = 24.9"] ;
1085 -> 1086 ;
1087 [label="mse = -0.0\nsamples = 1\nvalue = 24.8"] ;
1085 -> 1087 ;
1088 [label="mse = -0.0\nsamples = 1\nvalue = 24.7"] ;
1084 -> 1088 ;
1089 [label="mse = -0.0\nsamples = 1\nvalue = 23.5"] ;
1077 -> 1089 ;
1090 [label="X[6] <= 49.5\nmse = 5.056\nsamples = 3\nvalue = 15.867"] ;
970 -> 1090 ;
1091 [label="mse = 0.0\nsamples = 1\nvalue = 12.7"] ;
1090 -> 1091 ;
1092 [label="X[0] <= 295.0\nmse = 0.063\nsamples = 2\nvalue = 17.45"] ;
1090 -> 1092 ;
1093 [label="mse = 0.0\nsamples = 1\nvalue = 17.2"] ;
1092 -> 1093 ;
1094 [label="mse = -0.0\nsamples = 1\nvalue = 17.7"] ;
1092 -> 1094 ;
1095 [label="X[6] <= 49.5\nmse = 7.878\nsamples = 61\nvalue = 20.507"] ;
969 -> 1095 ;
1096 [label="X[2] <= 3.0\nmse = 2.991\nsamples = 9\nvalue = 15.367"] ;
1095 -> 1096 ;
1097 [label="mse = 0.0\nsamples = 1\nvalue = 19.2"] ;
1096 -> 1097 ;
1098 [label="X[2] <= 6.5\nmse = 1.299\nsamples = 8\nvalue = 14.888"] ;
1096 -> 1098 ;
1099 [label="X[18] <= 0.5\nmse = 0.482\nsamples = 6\nvalue = 14.333"] ;
1098 -> 1099 ;
1100 [label="X[3] <= 4625.0\nmse = 0.01\nsamples = 2\nvalue = 15.2"] ;
1099 -> 1100 ;
1101 [label="mse = 0.0\nsamples = 1\nvalue = 15.3"] ;
1100 -> 1101 ;
1102 [label="mse = 0.0\nsamples = 1\nvalue = 15.1"] ;
1100 -> 1102 ;
1103 [label="X[5] <= 26.0\nmse = 0.155\nsamples = 4\nvalue = 13.9"] ;
1099 -> 1103 ;
1104 [label="X[3] <= 4625.0\nmse = 0.096\nsamples = 3\nvalue = 13.733"] ;
1103 -> 1104 ;
1105 [label="X[4] <= 3.035\nmse = 0.002\nsamples = 2\nvalue = 13.95"] ;
1104 -> 1105 ;
1106 [label="mse = 0.0\nsamples = 1\nvalue = 14.0"] ;
1105 -> 1106 ;
1107 [label="mse = 0.0\nsamples = 1\nvalue = 13.9"] ;
1105 -> 1107 ;
1108 [label="mse = -0.0\nsamples = 1\nvalue = 13.3"] ;
1104 -> 1108 ;
1109 [label="mse = 0.0\nsamples = 1\nvalue = 14.4"] ;
1103 -> 1109 ;
1110 [label="X[0] <= 297.0\nmse = 0.062\nsamples = 2\nvalue = 16.55"] ;
1098 -> 1110 ;
1111 [label="mse = 0.0\nsamples = 1\nvalue = 16.8"] ;
1110 -> 1111 ;
1112 [label="mse = 0.0\nsamples = 1\nvalue = 16.3"] ;
1110 -> 1112 ;
1113 [label="X[2] <= 8.5\nmse = 3.36\nsamples = 52\nvalue = 21.396"] ;
1095 -> 1113 ;
1114 [label="X[2] <= 5.5\nmse = 2.103\nsamples = 40\nvalue = 20.767"] ;
1113 -> 1114 ;
1115 [label="X[3] <= 4875.0\nmse = 0.617\nsamples = 12\nvalue = 19.433"] ;
1114 -> 1115 ;
1116 [label="X[4] <= 3.545\nmse = 0.349\nsamples = 9\nvalue = 19.744"] ;
1115 -> 1116 ;
1117 [label="X[4] <= 3.285\nmse = 0.193\nsamples = 7\nvalue = 19.571"] ;
1116 -> 1117 ;
1118 [label="X[4] <= 3.035\nmse = 0.054\nsamples = 5\nvalue = 19.82"] ;
1117 -> 1118 ;
1119 [label="mse = 0.01\nsamples = 2\nvalue = 19.8"] ;
1118 -> 1119 ;
1120 [label="X[0] <= 275.5\nmse = 0.082\nsamples = 3\nvalue = 19.833"] ;
1118 -> 1120 ;
1121 [label="mse = 0.122\nsamples = 2\nvalue = 19.85"] ;
1120 -> 1121 ;
1122 [label="mse = 0.0\nsamples = 1\nvalue = 19.8"] ;
1120 -> 1122 ;
1123 [label="mse = 0.002\nsamples = 2\nvalue = 18.95"] ;
1117 -> 1123 ;
1124 [label="X[5] <= 55.5\nmse = 0.423\nsamples = 2\nvalue = 20.35"] ;
1116 -> 1124 ;
1125 [label="mse = 0.0\nsamples = 1\nvalue = 21.0"] ;
1124 -> 1125 ;
1126 [label="mse = -0.0\nsamples = 1\nvalue = 19.7"] ;
1124 -> 1126 ;
1127 [label="X[3] <= 5250.0\nmse = 0.26\nsamples = 3\nvalue = 18.5"] ;
1115 -> 1127 ;
1128 [label="X[0] <= 265.5\nmse = 0.023\nsamples = 2\nvalue = 18.15"] ;
1127 -> 1128 ;
1129 [label="mse = 0.0\nsamples = 1\nvalue = 18.0"] ;
1128 -> 1129 ;
1130 [label="mse = 0.0\nsamples = 1\nvalue = 18.3"] ;
1128 -> 1130 ;
1131 [label="mse = 0.0\nsamples = 1\nvalue = 19.2"] ;
1127 -> 1131 ;
1132 [label="X[4] <= 3.435\nmse = 1.65\nsamples = 28\nvalue = 21.339"] ;
1114 -> 1132 ;
1133 [label="X[18] <= 0.5\nmse = 1.36\nsamples = 21\nvalue = 20.995"] ;
1132 -> 1133 ;
1134 [label="X[0] <= 266.0\nmse = 0.743\nsamples = 14\nvalue = 21.579"] ;
1133 -> 1134 ;
1135 [label="mse = 0.0\nsamples = 1\nvalue = 23.8"] ;
1134 -> 1135 ;
1136 [label="X[14] <= 0.5\nmse = 0.391\nsamples = 13\nvalue = 21.408"] ;
1134 -> 1136 ;
1137 [label="X[4] <= 3.275\nmse = 0.273\nsamples = 12\nvalue = 21.3"] ;
1136 -> 1137 ;
1138 [label="X[3] <= 4875.0\nmse = 0.243\nsamples = 10\nvalue = 21.41"] ;
1137 -> 1138 ;
1139 [label="X[5] <= 60.5\nmse = 0.22\nsamples = 8\nvalue = 21.537"] ;
1138 -> 1139 ;
1140 [label="X[5] <= 26.0\nmse = 0.185\nsamples = 7\nvalue = 21.629"] ;
1139 -> 1140 ;
1141 [label="X[0] <= 281.5\nmse = 0.1\nsamples = 6\nvalue = 21.5"] ;
1140 -> 1141 ;
1142 [label="mse = 0.022\nsamples = 2\nvalue = 21.85"] ;
1141 -> 1142 ;
1143 [label="X[3] <= 4625.0\nmse = 0.047\nsamples = 4\nvalue = 21.325"] ;
1141 -> 1143 ;
1144 [label="mse = 0.0\nsamples = 1\nvalue = 21.0"] ;
1143 -> 1144 ;
1145 [label="X[16] <= 0.5\nmse = 0.016\nsamples = 3\nvalue = 21.433"] ;
1143 -> 1145 ;
1146 [label="mse = 0.0\nsamples = 1\nvalue = 21.6"] ;
1145 -> 1146 ;
1147 [label="X[4] <= 2.61\nmse = 0.002\nsamples = 2\nvalue = 21.35"] ;
1145 -> 1147 ;
1148 [label="mse = 0.0\nsamples = 1\nvalue = 21.4"] ;
1147 -> 1148 ;
1149 [label="mse = -0.0\nsamples = 1\nvalue = 21.3"] ;
1147 -> 1149 ;
1150 [label="mse = -0.0\nsamples = 1\nvalue = 22.4"] ;
1140 -> 1150 ;
1151 [label="mse = -0.0\nsamples = 1\nvalue = 20.9"] ;
1139 -> 1151 ;
1152 [label="mse = 0.01\nsamples = 2\nvalue = 20.9"] ;
1138 -> 1152 ;
1153 [label="X[3] <= 4750.0\nmse = 0.062\nsamples = 2\nvalue = 20.75"] ;
1137 -> 1153 ;
1154 [label="mse = 0.0\nsamples = 1\nvalue = 20.5"] ;
1153 -> 1154 ;
1155 [label="mse = 0.0\nsamples = 1\nvalue = 21.0"] ;
1153 -> 1155 ;
1156 [label="mse = 0.0\nsamples = 1\nvalue = 22.7"] ;
1136 -> 1156 ;
1157 [label="X[3] <= 5750.0\nmse = 0.553\nsamples = 7\nvalue = 19.829"] ;
1133 -> 1157 ;
1158 [label="X[3] <= 5250.0\nmse = 0.302\nsamples = 6\nvalue = 20.05"] ;
1157 -> 1158 ;
1159 [label="X[3] <= 4875.0\nmse = 0.262\nsamples = 5\nvalue = 19.92"] ;
1158 -> 1159 ;
1160 [label="X[0] <= 375.0\nmse = 0.24\nsamples = 3\nvalue = 20.2"] ;
1159 -> 1160 ;
1161 [label="mse = 0.0\nsamples = 1\nvalue = 20.8"] ;
1160 -> 1161 ;
1162 [label="mse = 0.09\nsamples = 2\nvalue = 19.9"] ;
1160 -> 1162 ;
1163 [label="mse = 0.0\nsamples = 2\nvalue = 19.5"] ;
1159 -> 1163 ;
1164 [label="mse = -0.0\nsamples = 1\nvalue = 20.7"] ;
1158 -> 1164 ;
1165 [label="mse = 0.0\nsamples = 1\nvalue = 18.5"] ;
1157 -> 1165 ;
1166 [label="X[15] <= 0.5\nmse = 1.096\nsamples = 7\nvalue = 22.371"] ;
1132 -> 1166 ;
1167 [label="X[3] <= 5125.0\nmse = 0.532\nsamples = 4\nvalue = 23.125"] ;
1166 -> 1167 ;
1168 [label="X[18] <= 0.5\nmse = 0.042\nsamples = 3\nvalue = 23.533"] ;
1167 -> 1168 ;
1169 [label="X[4] <= 3.85\nmse = 0.01\nsamples = 2\nvalue = 23.4"] ;
1168 -> 1169 ;
1170 [label="mse = 0.0\nsamples = 1\nvalue = 23.3"] ;
1169 -> 1170 ;
1171 [label="mse = 0.0\nsamples = 1\nvalue = 23.5"] ;
1169 -> 1171 ;
1172 [label="mse = 0.0\nsamples = 1\nvalue = 23.8"] ;
1168 -> 1172 ;
1173 [label="mse = -0.0\nsamples = 1\nvalue = 21.9"] ;
1167 -> 1173 ;
1174 [label="X[3] <= 5250.0\nmse = 0.082\nsamples = 3\nvalue = 21.367"] ;
1166 -> 1174 ;
1175 [label="X[3] <= 4875.0\nmse = 0.04\nsamples = 2\nvalue = 21.2"] ;
1174 -> 1175 ;
1176 [label="mse = 0.0\nsamples = 1\nvalue = 21.4"] ;
1175 -> 1176 ;
1177 [label="mse = 0.0\nsamples = 1\nvalue = 21.0"] ;
1175 -> 1177 ;
1178 [label="mse = -0.0\nsamples = 1\nvalue = 21.7"] ;
1174 -> 1178 ;
1179 [label="X[4] <= 3.17\nmse = 1.842\nsamples = 12\nvalue = 23.492"] ;
1113 -> 1179 ;
1180 [label="X[0] <= 279.0\nmse = 0.699\nsamples = 9\nvalue = 24.111"] ;
1179 -> 1180 ;
1181 [label="mse = 0.003\nsamples = 2\nvalue = 23.05"] ;
1180 -> 1181 ;
1182 [label="X[3] <= 4875.0\nmse = 0.484\nsamples = 7\nvalue = 24.414"] ;
1180 -> 1182 ;
1183 [label="X[16] <= 0.5\nmse = 0.229\nsamples = 6\nvalue = 24.633"] ;
1182 -> 1183 ;
1184 [label="X[4] <= 2.945\nmse = 0.11\nsamples = 4\nvalue = 24.9"] ;
1183 -> 1184 ;
1185 [label="X[3] <= 4625.0\nmse = 0.036\nsamples = 3\nvalue = 25.067"] ;
1184 -> 1185 ;
1186 [label="mse = -0.0\nsamples = 2\nvalue = 25.2"] ;
1185 -> 1186 ;
1187 [label="mse = 0.0\nsamples = 1\nvalue = 24.8"] ;
1185 -> 1187 ;
1188 [label="mse = -0.0\nsamples = 1\nvalue = 24.4"] ;
1184 -> 1188 ;
1189 [label="mse = 0.04\nsamples = 2\nvalue = 24.1"] ;
1183 -> 1189 ;
1190 [label="mse = 0.0\nsamples = 1\nvalue = 23.1"] ;
1182 -> 1190 ;
1191 [label="X[3] <= 5750.0\nmse = 0.669\nsamples = 3\nvalue = 21.633"] ;
1179 -> 1191 ;
1192 [label="X[18] <= 0.5\nmse = 0.202\nsamples = 2\nvalue = 22.15"] ;
1191 -> 1192 ;
1193 [label="mse = 0.0\nsamples = 1\nvalue = 21.7"] ;
1192 -> 1193 ;
1194 [label="mse = 0.0\nsamples = 1\nvalue = 22.6"] ;
1192 -> 1194 ;
1195 [label="mse = 0.0\nsamples = 1\nvalue = 20.6"] ;
1191 -> 1195 ;
1196 [label="X[6] <= 49.5\nmse = 8.177\nsamples = 133\nvalue = 16.709"] ;
728 -> 1196 ;
1197 [label="X[0] <= 665.0\nmse = 3.244\nsamples = 28\nvalue = 13.525"] ;
1196 -> 1197 ;
1198 [label="X[4] <= 4.12\nmse = 1.786\nsamples = 23\nvalue = 14.07"] ;
1197 -> 1198 ;
1199 [label="X[3] <= 6250.0\nmse = 1.184\nsamples = 21\nvalue = 14.329"] ;
1198 -> 1199 ;
1200 [label="X[0] <= 607.5\nmse = 0.824\nsamples = 19\nvalue = 14.532"] ;
1199 -> 1200 ;
1201 [label="X[12] <= 0.5\nmse = 0.751\nsamples = 12\nvalue = 14.917"] ;
1200 -> 1201 ;
1202 [label="X[0] <= 550.0\nmse = 0.765\nsamples = 8\nvalue = 14.638"] ;
1201 -> 1202 ;
1203 [label="X[4] <= 3.31\nmse = 0.381\nsamples = 7\nvalue = 14.886"] ;
1202 -> 1203 ;
1204 [label="mse = 0.0\nsamples = 2\nvalue = 15.7"] ;
1203 -> 1204 ;
1205 [label="X[6] <= 32.5\nmse = 0.162\nsamples = 5\nvalue = 14.56"] ;
1203 -> 1205 ;
1206 [label="X[3] <= 4125.0\nmse = 0.04\nsamples = 2\nvalue = 14.9"] ;
1205 -> 1206 ;
1207 [label="mse = 0.0\nsamples = 1\nvalue = 14.7"] ;
1206 -> 1207 ;
1208 [label="mse = 0.0\nsamples = 1\nvalue = 15.1"] ;
1206 -> 1208 ;
1209 [label="X[3] <= 5625.0\nmse = 0.116\nsamples = 3\nvalue = 14.333"] ;
1205 -> 1209 ;
1210 [label="mse = 0.0\nsamples = 1\nvalue = 14.2"] ;
1209 -> 1210 ;
1211 [label="mse = 0.16\nsamples = 2\nvalue = 14.4"] ;
1209 -> 1211 ;
1212 [label="mse = -0.0\nsamples = 1\nvalue = 12.9"] ;
1202 -> 1212 ;
1213 [label="X[4] <= 3.47\nmse = 0.257\nsamples = 4\nvalue = 15.475"] ;
1201 -> 1213 ;
1214 [label="X[4] <= 3.025\nmse = 0.109\nsamples = 3\nvalue = 15.233"] ;
1213 -> 1214 ;
1215 [label="mse = 0.0\nsamples = 1\nvalue = 15.7"] ;
1214 -> 1215 ;
1216 [label="mse = -0.0\nsamples = 2\nvalue = 15.0"] ;
1214 -> 1216 ;
1217 [label="mse = -0.0\nsamples = 1\nvalue = 16.2"] ;
1213 -> 1217 ;
1218 [label="X[3] <= 4125.0\nmse = 0.259\nsamples = 7\nvalue = 13.871"] ;
1200 -> 1218 ;
1219 [label="X[0] <= 620.0\nmse = 0.302\nsamples = 4\nvalue = 14.125"] ;
1218 -> 1219 ;
1220 [label="X[3] <= 3875.0\nmse = 0.202\nsamples = 2\nvalue = 14.55"] ;
1219 -> 1220 ;
1221 [label="mse = 0.0\nsamples = 1\nvalue = 14.1"] ;
1220 -> 1221 ;
1222 [label="mse = -0.0\nsamples = 1\nvalue = 15.0"] ;
1220 -> 1222 ;
1223 [label="X[3] <= 3875.0\nmse = 0.04\nsamples = 2\nvalue = 13.7"] ;
1219 -> 1223 ;
1224 [label="mse = 0.0\nsamples = 1\nvalue = 13.9"] ;
1223 -> 1224 ;
1225 [label="mse = 0.0\nsamples = 1\nvalue = 13.5"] ;
1223 -> 1225 ;
1226 [label="X[2] <= 7.5\nmse = 0.002\nsamples = 3\nvalue = 13.533"] ;
1218 -> 1226 ;
1227 [label="mse = 0.0\nsamples = 2\nvalue = 13.5"] ;
1226 -> 1227 ;
1228 [label="mse = 0.0\nsamples = 1\nvalue = 13.6"] ;
1226 -> 1228 ;
1229 [label="mse = 0.49\nsamples = 2\nvalue = 12.4"] ;
1199 -> 1229 ;
1230 [label="X[3] <= 6250.0\nmse = 0.003\nsamples = 2\nvalue = 11.35"] ;
1198 -> 1230 ;
1231 [label="mse = 0.0\nsamples = 1\nvalue = 11.4"] ;
1230 -> 1231 ;
1232 [label="mse = -0.0\nsamples = 1\nvalue = 11.3"] ;
1230 -> 1232 ;
1233 [label="X[11] <= 0.5\nmse = 2.314\nsamples = 5\nvalue = 11.02"] ;
1197 -> 1233 ;
1234 [label="X[0] <= 720.0\nmse = 0.648\nsamples = 4\nvalue = 10.35"] ;
1233 -> 1234 ;
1235 [label="X[18] <= 0.5\nmse = 0.01\nsamples = 2\nvalue = 11.1"] ;
1234 -> 1235 ;
1236 [label="mse = 0.0\nsamples = 1\nvalue = 11.0"] ;
1235 -> 1236 ;
1237 [label="mse = 0.0\nsamples = 1\nvalue = 11.2"] ;
1235 -> 1237 ;
1238 [label="X[15] <= 0.5\nmse = 0.16\nsamples = 2\nvalue = 9.6"] ;
1234 -> 1238 ;
1239 [label="mse = 0.0\nsamples = 1\nvalue = 10.0"] ;
1238 -> 1239 ;
1240 [label="mse = 0.0\nsamples = 1\nvalue = 9.2"] ;
1238 -> 1240 ;
1241 [label="mse = -0.0\nsamples = 1\nvalue = 13.7"] ;
1233 -> 1241 ;
1242 [label="X[0] <= 670.5\nmse = 6.068\nsamples = 105\nvalue = 17.558"] ;
1196 -> 1242 ;
1243 [label="X[3] <= 5375.0\nmse = 3.874\nsamples = 93\nvalue = 18.104"] ;
1242 -> 1243 ;
1244 [label="X[0] <= 556.5\nmse = 3.392\nsamples = 55\nvalue = 18.836"] ;
1243 -> 1244 ;
1245 [label="X[2] <= 6.5\nmse = 2.63\nsamples = 36\nvalue = 19.511"] ;
1244 -> 1245 ;
1246 [label="X[11] <= 0.5\nmse = 2.587\nsamples = 6\nvalue = 17.7"] ;
1245 -> 1246 ;
1247 [label="mse = 0.0\nsamples = 2\nvalue = 15.9"] ;
1246 -> 1247 ;
1248 [label="X[3] <= 4250.0\nmse = 1.45\nsamples = 4\nvalue = 18.6"] ;
1246 -> 1248 ;
1249 [label="mse = 0.0\nsamples = 1\nvalue = 20.5"] ;
1248 -> 1249 ;
1250 [label="X[0] <= 420.0\nmse = 0.329\nsamples = 3\nvalue = 17.967"] ;
1248 -> 1250 ;
1251 [label="mse = 0.0\nsamples = 1\nvalue = 18.7"] ;
1250 -> 1251 ;
1252 [label="X[5] <= 26.0\nmse = 0.09\nsamples = 2\nvalue = 17.6"] ;
1250 -> 1252 ;
1253 [label="mse = 0.0\nsamples = 1\nvalue = 17.3"] ;
1252 -> 1253 ;
1254 [label="mse = -0.0\nsamples = 1\nvalue = 17.9"] ;
1252 -> 1254 ;
1255 [label="X[1] <= 9.0\nmse = 1.851\nsamples = 30\nvalue = 19.873"] ;
1245 -> 1255 ;
1256 [label="X[9] <= 0.5\nmse = 1.477\nsamples = 28\nvalue = 20.057"] ;
1255 -> 1256 ;
1257 [label="X[0] <= 469.5\nmse = 1.199\nsamples = 27\nvalue = 19.948"] ;
1256 -> 1257 ;
1258 [label="X[4] <= 3.07\nmse = 1.136\nsamples = 18\nvalue = 20.339"] ;
1257 -> 1258 ;
1259 [label="X[7] <= 0.5\nmse = 0.886\nsamples = 10\nvalue = 20.92"] ;
1258 -> 1259 ;
1260 [label="X[2] <= 7.5\nmse = 1.056\nsamples = 6\nvalue = 20.567"] ;
1259 -> 1260 ;
1261 [label="X[3] <= 4625.0\nmse = 0.302\nsamples = 2\nvalue = 19.85"] ;
1260 -> 1261 ;
1262 [label="mse = 0.0\nsamples = 1\nvalue = 20.4"] ;
1261 -> 1262 ;
1263 [label="mse = -0.0\nsamples = 1\nvalue = 19.3"] ;
1261 -> 1263 ;
1264 [label="X[0] <= 445.5\nmse = 1.047\nsamples = 4\nvalue = 20.925"] ;
1260 -> 1264 ;
1265 [label="mse = 0.0\nsamples = 1\nvalue = 21.7"] ;
1264 -> 1265 ;
1266 [label="X[3] <= 4875.0\nmse = 1.129\nsamples = 3\nvalue = 20.667"] ;
1264 -> 1266 ;
1267 [label="X[0] <= 451.5\nmse = 0.49\nsamples = 2\nvalue = 21.3"] ;
1266 -> 1267 ;
1268 [label="mse = 0.0\nsamples = 1\nvalue = 22.0"] ;
1267 -> 1268 ;
1269 [label="mse = 0.0\nsamples = 1\nvalue = 20.6"] ;
1267 -> 1269 ;
1270 [label="mse = -0.0\nsamples = 1\nvalue = 19.4"] ;
1266 -> 1270 ;
1271 [label="X[4] <= 2.94\nmse = 0.162\nsamples = 4\nvalue = 21.45"] ;
1259 -> 1271 ;
1272 [label="X[0] <= 435.5\nmse = 0.04\nsamples = 2\nvalue = 21.8"] ;
1271 -> 1272 ;
1273 [label="mse = 0.0\nsamples = 1\nvalue = 21.6"] ;
1272 -> 1273 ;
1274 [label="mse = 0.0\nsamples = 1\nvalue = 22.0"] ;
1272 -> 1274 ;
1275 [label="mse = 0.04\nsamples = 2\nvalue = 21.1"] ;
1271 -> 1275 ;
1276 [label="X[5] <= 26.0\nmse = 0.499\nsamples = 8\nvalue = 19.612"] ;
1258 -> 1276 ;
1277 [label="X[17] <= 0.5\nmse = 0.299\nsamples = 7\nvalue = 19.429"] ;
1276 -> 1277 ;
1278 [label="X[3] <= 4750.0\nmse = 0.233\nsamples = 6\nvalue = 19.3"] ;
1277 -> 1278 ;
1279 [label="mse = 0.0\nsamples = 2\nvalue = 19.8"] ;
1278 -> 1279 ;
1280 [label="X[0] <= 405.0\nmse = 0.162\nsamples = 4\nvalue = 19.05"] ;
1278 -> 1280 ;
1281 [label="mse = 0.0\nsamples = 1\nvalue = 18.6"] ;
1280 -> 1281 ;
1282 [label="X[2] <= 7.5\nmse = 0.127\nsamples = 3\nvalue = 19.2"] ;
1280 -> 1282 ;
1283 [label="mse = 0.0\nsamples = 1\nvalue = 19.4"] ;
1282 -> 1283 ;
1284 [label="mse = 0.16\nsamples = 2\nvalue = 19.1"] ;
1282 -> 1284 ;
1285 [label="mse = -0.0\nsamples = 1\nvalue = 20.2"] ;
1277 -> 1285 ;
1286 [label="mse = -0.0\nsamples = 1\nvalue = 20.9"] ;
1276 -> 1286 ;
1287 [label="X[2] <= 7.5\nmse = 0.409\nsamples = 9\nvalue = 19.167"] ;
1257 -> 1287 ;
1288 [label="X[3] <= 4250.0\nmse = 0.154\nsamples = 5\nvalue = 19.52"] ;
1287 -> 1288 ;
1289 [label="mse = 0.0\nsamples = 1\nvalue = 18.8"] ;
1288 -> 1289 ;
1290 [label="X[4] <= 2.9\nmse = 0.03\nsamples = 4\nvalue = 19.7"] ;
1288 -> 1290 ;
1291 [label="X[3] <= 4625.0\nmse = 0.04\nsamples = 2\nvalue = 19.6"] ;
1290 -> 1291 ;
1292 [label="mse = 0.0\nsamples = 1\nvalue = 19.8"] ;
1291 -> 1292 ;
1293 [label="mse = -0.0\nsamples = 1\nvalue = 19.4"] ;
1291 -> 1293 ;
1294 [label="mse = 0.0\nsamples = 2\nvalue = 19.8"] ;
1290 -> 1294 ;
1295 [label="X[2] <= 9.0\nmse = 0.377\nsamples = 4\nvalue = 18.725"] ;
1287 -> 1295 ;
1296 [label="X[3] <= 4625.0\nmse = 0.08\nsamples = 3\nvalue = 18.4"] ;
1295 -> 1296 ;
1297 [label="mse = 0.0\nsamples = 2\nvalue = 18.6"] ;
1296 -> 1297 ;
1298 [label="mse = 0.0\nsamples = 1\nvalue = 18.0"] ;
1296 -> 1298 ;
1299 [label="mse = -0.0\nsamples = 1\nvalue = 19.7"] ;
1295 -> 1299 ;
1300 [label="mse = 0.0\nsamples = 1\nvalue = 23.0"] ;
1256 -> 1300 ;
1301 [label="mse = -0.0\nsamples = 2\nvalue = 17.3"] ;
1255 -> 1301 ;
1302 [label="X[2] <= 9.5\nmse = 2.34\nsamples = 19\nvalue = 17.558"] ;
1244 -> 1302 ;
1303 [label="X[1] <= 9.0\nmse = 1.945\nsamples = 17\nvalue = 17.824"] ;
1302 -> 1303 ;
1304 [label="X[2] <= 6.5\nmse = 1.909\nsamples = 12\nvalue = 18.308"] ;
1303 -> 1304 ;
1305 [label="X[2] <= 5.5\nmse = 0.36\nsamples = 2\nvalue = 16.9"] ;
1304 -> 1305 ;
1306 [label="mse = 0.0\nsamples = 1\nvalue = 17.5"] ;
1305 -> 1306 ;
1307 [label="mse = 0.0\nsamples = 1\nvalue = 16.3"] ;
1305 -> 1307 ;
1308 [label="X[0] <= 568.5\nmse = 1.743\nsamples = 10\nvalue = 18.59"] ;
1304 -> 1308 ;
1309 [label="mse = 0.0\nsamples = 1\nvalue = 16.5"] ;
1308 -> 1309 ;
1310 [label="X[5] <= 92.5\nmse = 1.397\nsamples = 9\nvalue = 18.822"] ;
1308 -> 1310 ;
1311 [label="X[15] <= 0.5\nmse = 0.877\nsamples = 8\nvalue = 19.1"] ;
1310 -> 1311 ;
1312 [label="X[0] <= 655.5\nmse = 0.474\nsamples = 7\nvalue = 18.843"] ;
1311 -> 1312 ;
1313 [label="X[8] <= 0.5\nmse = 0.336\nsamples = 6\nvalue = 18.667"] ;
1312 -> 1313 ;
1314 [label="X[4] <= 3.24\nmse = 0.13\nsamples = 5\nvalue = 18.88"] ;
1313 -> 1314 ;
1315 [label="X[3] <= 4875.0\nmse = 0.029\nsamples = 3\nvalue = 19.133"] ;
1314 -> 1315 ;
1316 [label="mse = 0.0\nsamples = 1\nvalue = 18.9"] ;
1315 -> 1316 ;
1317 [label="X[5] <= 26.0\nmse = 0.002\nsamples = 2\nvalue = 19.25"] ;
1315 -> 1317 ;
