digraph Tree {
node [shape=box] ;
0 [label="X[0] <= 243.0\nmse = 88.737\nsamples = 518\nvalue = 28.4"] ;
1 [label="X[5] <= 7.0\nmse = 80.982\nsamples = 210\nvalue = 35.051"] ;
0 -> 1 [labeldistance=2.5, labelangle=45, headlabel="True"] ;
2 [label="X[3] <= 3687.5\nmse = 69.774\nsamples = 42\nvalue = 44.596"] ;
1 -> 2 ;
3 [label="X[7] <= 0.5\nmse = 38.377\nsamples = 20\nvalue = 49.295"] ;
2 -> 3 ;
4 [label="X[2] <= 5.5\nmse = 21.835\nsamples = 16\nvalue = 47.077"] ;
3 -> 4 ;
5 [label="X[0] <= 138.5\nmse = 3.471\nsamples = 4\nvalue = 53.4"] ;
4 -> 5 ;
6 [label="X[4] <= 3.895\nmse = 0.102\nsamples = 3\nvalue = 52.75"] ;
5 -> 6 ;
7 [label="mse = 0.0\nsamples = 1\nvalue = 53.3"] ;
6 -> 7 ;
8 [label="X[4] <= 4.56\nmse = 0.002\nsamples = 2\nvalue = 52.567"] ;
6 -> 8 ;
9 [label="mse = 0.0\nsamples = 1\nvalue = 52.5"] ;
8 -> 9 ;
10 [label="mse = 0.0\nsamples = 1\nvalue = 52.6"] ;
8 -> 10 ;
11 [label="mse = -0.0\nsamples = 1\nvalue = 58.6"] ;
5 -> 11 ;
12 [label="X[3] <= 2937.5\nmse = 6.304\nsamples = 12\nvalue = 44.491"] ;
4 -> 12 ;
13 [label="mse = 0.0\nsamples = 1\nvalue = 53.7"] ;
12 -> 13 ;
14 [label="X[4] <= 3.29\nmse = 2.373\nsamples = 11\nvalue = 44.052"] ;
12 -> 14 ;
15 [label="X[4] <= 3.17\nmse = 0.01\nsamples = 2\nvalue = 47.2"] ;
14 -> 15 ;
16 [label="mse = 0.0\nsamples = 1\nvalue = 47.1"] ;
15 -> 16 ;
17 [label="mse = -0.0\nsamples = 1\nvalue = 47.3"] ;
15 -> 17 ;
18 [label="X[0] <= 210.5\nmse = 1.469\nsamples = 9\nvalue = 43.721"] ;
14 -> 18 ;
19 [label="X[4] <= 5.0\nmse = 0.925\nsamples = 7\nvalue = 43.369"] ;
18 -> 19 ;
20 [label="X[3] <= 3500.0\nmse = 0.169\nsamples = 6\nvalue = 43.036"] ;
19 -> 20 ;
21 [label="X[4] <= 3.515\nmse = 0.112\nsamples = 5\nvalue = 42.925"] ;
20 -> 21 ;
22 [label="X[8] <= 0.5\nmse = 0.227\nsamples = 2\nvalue = 43.075"] ;
21 -> 22 ;
23 [label="mse = 0.0\nsamples = 1\nvalue = 42.8"] ;
22 -> 23 ;
24 [label="mse = -0.0\nsamples = 1\nvalue = 43.9"] ;
22 -> 24 ;
25 [label="X[3] <= 3250.0\nmse = 0.037\nsamples = 3\nvalue = 42.85"] ;
21 -> 25 ;
26 [label="mse = 0.0\nsamples = 2\nvalue = 43.0"] ;
25 -> 26 ;
27 [label="mse = 0.0\nsamples = 1\nvalue = 42.6"] ;
25 -> 27 ;
28 [label="mse = -0.0\nsamples = 1\nvalue = 43.7"] ;
20 -> 28 ;
29 [label="mse = -0.0\nsamples = 1\nvalue = 45.7"] ;
19 -> 29 ;
30 [label="X[3] <= 3500.0\nmse = 0.18\nsamples = 2\nvalue = 45.6"] ;
18 -> 30 ;
31 [label="mse = 0.0\nsamples = 1\nvalue = 46.2"] ;
30 -> 31 ;
32 [label="mse = -0.0\nsamples = 1\nvalue = 45.3"] ;
30 -> 32 ;
33 [label="X[4] <= 4.03\nmse = 20.073\nsamples = 4\nvalue = 56.933"] ;
3 -> 33 ;
34 [label="X[4] <= 3.195\nmse = 9.645\nsamples = 3\nvalue = 58.829"] ;
33 -> 34 ;
35 [label="mse = 0.0\nsamples = 1\nvalue = 61.8"] ;
34 -> 35 ;
36 [label="X[0] <= 130.5\nmse = 5.29\nsamples = 2\nvalue = 56.6"] ;
34 -> 36 ;
37 [label="mse = 0.0\nsamples = 1\nvalue = 58.9"] ;
36 -> 37 ;
38 [label="mse = 0.0\nsamples = 1\nvalue = 54.3"] ;
36 -> 38 ;
39 [label="mse = -0.0\nsamples = 1\nvalue = 50.3"] ;
33 -> 39 ;
40 [label="X[3] <= 4875.0\nmse = 54.041\nsamples = 22\nvalue = 39.516"] ;
2 -> 40 ;
41 [label="X[16] <= 0.5\nmse = 29.537\nsamples = 21\nvalue = 41.348"] ;
40 -> 41 ;
42 [label="X[2] <= 7.5\nmse = 31.729\nsamples = 14\nvalue = 43.262"] ;
41 -> 42 ;
43 [label="X[9] <= 0.5\nmse = 36.014\nsamples = 7\nvalue = 38.9"] ;
42 -> 43 ;
44 [label="X[12] <= 0.5\nmse = 1.697\nsamples = 6\nvalue = 36.5"] ;
43 -> 44 ;
45 [label="mse = 0.0\nsamples = 1\nvalue = 39.1"] ;
44 -> 45 ;
46 [label="X[4] <= 3.355\nmse = 0.414\nsamples = 5\nvalue = 35.98"] ;
44 -> 46 ;
47 [label="mse = 0.122\nsamples = 2\nvalue = 35.25"] ;
46 -> 47 ;
48 [label="X[0] <= 174.5\nmse = 0.016\nsamples = 3\nvalue = 36.467"] ;
46 -> 48 ;
49 [label="mse = 0.0\nsamples = 1\nvalue = 36.3"] ;
48 -> 49 ;
50 [label="X[14] <= 0.5\nmse = 0.003\nsamples = 2\nvalue = 36.55"] ;
48 -> 50 ;
51 [label="mse = 0.0\nsamples = 1\nvalue = 36.5"] ;
50 -> 51 ;
52 [label="mse = 0.0\nsamples = 1\nvalue = 36.6"] ;
50 -> 52 ;
53 [label="mse = 0.0\nsamples = 1\nvalue = 53.3"] ;
43 -> 53 ;
54 [label="X[3] <= 4125.0\nmse = 15.317\nsamples = 7\nvalue = 45.443"] ;
42 -> 54 ;
55 [label="X[7] <= 0.5\nmse = 2.39\nsamples = 5\nvalue = 43.311"] ;
54 -> 55 ;
56 [label="X[4] <= 2.77\nmse = 0.262\nsamples = 3\nvalue = 42.16"] ;
55 -> 56 ;
57 [label="mse = 0.0\nsamples = 1\nvalue = 42.6"] ;
56 -> 57 ;
58 [label="X[3] <= 3875.0\nmse = 0.222\nsamples = 2\nvalue = 41.867"] ;
56 -> 58 ;
59 [label="mse = 0.0\nsamples = 1\nvalue = 42.2"] ;
58 -> 59 ;
60 [label="mse = 0.0\nsamples = 1\nvalue = 41.2"] ;
58 -> 60 ;
61 [label="X[3] <= 3875.0\nmse = 1.322\nsamples = 2\nvalue = 44.75"] ;
55 -> 61 ;
62 [label="mse = 0.0\nsamples = 1\nvalue = 45.9"] ;
61 -> 62 ;
63 [label="mse = 0.0\nsamples = 1\nvalue = 43.6"] ;
61 -> 63 ;
64 [label="X[4] <= 3.02\nmse = 15.682\nsamples = 2\nvalue = 49.28"] ;
54 -> 64 ;
65 [label="mse = 0.0\nsamples = 1\nvalue = 57.2"] ;
64 -> 65 ;
66 [label="mse = 0.0\nsamples = 1\nvalue = 47.3"] ;
64 -> 66 ;
67 [label="X[3] <= 4125.0\nmse = 8.082\nsamples = 7\nvalue = 38.0"] ;
41 -> 67 ;
68 [label="X[5] <= 2.5\nmse = 5.594\nsamples = 4\nvalue = 40.32"] ;
67 -> 68 ;
69 [label="mse = 0.0\nsamples = 1\nvalue = 35.9"] ;
68 -> 69 ;
70 [label="X[2] <= 7.5\nmse = 0.887\nsamples = 3\nvalue = 41.425"] ;
68 -> 70 ;
71 [label="X[3] <= 3937.5\nmse = 0.08\nsamples = 2\nvalue = 40.9"] ;
70 -> 71 ;
72 [label="mse = 0.0\nsamples = 1\nvalue = 40.5"] ;
71 -> 72 ;
73 [label="mse = 0.0\nsamples = 1\nvalue = 41.1"] ;
71 -> 73 ;
74 [label="mse = 0.0\nsamples = 1\nvalue = 43.0"] ;
70 -> 74 ;
75 [label="X[0] <= 209.5\nmse = 3.268\nsamples = 3\nvalue = 36.343"] ;
67 -> 75 ;
76 [label="mse = 0.0\nsamples = 1\nvalue = 35.2"] ;
75 -> 76 ;
77 [label="X[0] <= 237.5\nmse = 0.01\nsamples = 2\nvalue = 39.2"] ;
75 -> 77 ;
78 [label="mse = 0.0\nsamples = 1\nvalue = 39.3"] ;
77 -> 78 ;
79 [label="mse = -0.0\nsamples = 1\nvalue = 39.1"] ;
77 -> 79 ;
80 [label="mse = -0.0\nsamples = 1\nvalue = 24.4"] ;
40 -> 80 ;
81 [label="X[10] <= 0.5\nmse = 50.362\nsamples = 168\nvalue = 32.298"] ;
1 -> 81 ;
82 [label="X[3] <= 3312.5\nmse = 23.489\nsamples = 139\nvalue = 30.387"] ;
81 -> 82 ;
83 [label="X[0] <= 136.0\nmse = 8.357\nsamples = 39\nvalue = 35.522"] ;
82 -> 83 ;
84 [label="X[0] <= 107.5\nmse = 5.298\nsamples = 16\nvalue = 37.322"] ;
83 -> 84 ;
85 [label="X[3] <= 2437.5\nmse = 4.518\nsamples = 4\nvalue = 40.58"] ;
84 -> 85 ;
86 [label="mse = 0.0\nsamples = 1\nvalue = 44.7"] ;
85 -> 86 ;
87 [label="X[3] <= 2687.5\nmse = 0.343\nsamples = 3\nvalue = 39.55"] ;
85 -> 87 ;
88 [label="X[6] <= 42.0\nmse = 0.056\nsamples = 2\nvalue = 39.233"] ;
87 -> 88 ;
89 [label="mse = 0.0\nsamples = 1\nvalue = 39.4"] ;
88 -> 89 ;
90 [label="mse = 0.0\nsamples = 1\nvalue = 38.9"] ;
88 -> 90 ;
91 [label="mse = 0.0\nsamples = 1\nvalue = 40.5"] ;
87 -> 91 ;
92 [label="X[4] <= 4.825\nmse = 2.515\nsamples = 12\nvalue = 36.582"] ;
84 -> 92 ;
93 [label="X[2] <= 4.5\nmse = 0.901\nsamples = 11\nvalue = 36.17"] ;
92 -> 93 ;
94 [label="mse = 0.0\nsamples = 1\nvalue = 33.7"] ;
93 -> 94 ;
95 [label="X[0] <= 133.0\nmse = 0.611\nsamples = 10\nvalue = 36.3"] ;
93 -> 95 ;
96 [label="X[12] <= 0.5\nmse = 0.652\nsamples = 7\nvalue = 36.033"] ;
95 -> 96 ;
97 [label="X[5] <= 28.0\nmse = 0.289\nsamples = 5\nvalue = 36.288"] ;
96 -> 97 ;
98 [label="X[2] <= 5.5\nmse = 0.05\nsamples = 3\nvalue = 36.68"] ;
97 -> 98 ;
99 [label="mse = 0.0\nsamples = 1\nvalue = 36.3"] ;
98 -> 99 ;
100 [label="X[11] <= 0.5\nmse = 0.017\nsamples = 2\nvalue = 36.775"] ;
98 -> 100 ;
101 [label="mse = 0.0\nsamples = 1\nvalue = 37.0"] ;
100 -> 101 ;
102 [label="mse = -0.0\nsamples = 1\nvalue = 36.7"] ;
100 -> 102 ;
103 [label="X[8] <= 0.5\nmse = 0.002\nsamples = 2\nvalue = 35.633"] ;
97 -> 103 ;
104 [label="mse = 0.0\nsamples = 1\nvalue = 35.6"] ;
103 -> 104 ;
105 [label="mse = 0.0\nsamples = 1\nvalue = 35.7"] ;
103 -> 105 ;
106 [label="X[3] <= 3125.0\nmse = 0.992\nsamples = 2\nvalue = 35.525"] ;
96 -> 106 ;
107 [label="mse = 0.0\nsamples = 1\nvalue = 33.8"] ;
106 -> 107 ;
108 [label="mse = -0.0\nsamples = 1\nvalue = 36.1"] ;
106 -> 108 ;
109 [label="X[5] <= 33.0\nmse = 0.208\nsamples = 3\nvalue = 36.757"] ;
95 -> 109 ;
110 [label="mse = 0.0\nsamples = 1\nvalue = 37.4"] ;
109 -> 110 ;
111 [label="X[11] <= 0.5\nmse = 0.06\nsamples = 2\nvalue = 36.5"] ;
109 -> 111 ;
112 [label="mse = 0.0\nsamples = 1\nvalue = 36.8"] ;
111 -> 112 ;
113 [label="mse = -0.0\nsamples = 1\nvalue = 36.3"] ;
111 -> 113 ;
114 [label="mse = -0.0\nsamples = 1\nvalue = 40.7"] ;
92 -> 114 ;
115 [label="X[0] <= 216.5\nmse = 6.498\nsamples = 23\nvalue = 34.208"] ;
83 -> 115 ;
116 [label="X[5] <= 60.5\nmse = 5.186\nsamples = 20\nvalue = 34.568"] ;
115 -> 116 ;
117 [label="X[0] <= 150.0\nmse = 3.891\nsamples = 18\nvalue = 34.174"] ;
116 -> 117 ;
118 [label="X[4] <= 3.795\nmse = 3.132\nsamples = 10\nvalue = 35.058"] ;
117 -> 118 ;
119 [label="X[4] <= 3.145\nmse = 2.365\nsamples = 7\nvalue = 35.75"] ;
118 -> 119 ;
120 [label="X[3] <= 3187.5\nmse = 1.411\nsamples = 3\nvalue = 36.171"] ;
119 -> 120 ;
121 [label="mse = 2.43\nsamples = 2\nvalue = 36.3"] ;
120 -> 121 ;
122 [label="mse = 0.0\nsamples = 1\nvalue = 36.0"] ;
120 -> 122 ;
123 [label="X[5] <= 26.0\nmse = 2.965\nsamples = 4\nvalue = 35.329"] ;
119 -> 123 ;
124 [label="mse = 0.0\nsamples = 1\nvalue = 31.5"] ;
123 -> 124 ;
125 [label="X[4] <= 3.44\nmse = 0.609\nsamples = 3\nvalue = 35.967"] ;
123 -> 125 ;
126 [label="mse = 0.0\nsamples = 1\nvalue = 34.7"] ;
125 -> 126 ;
127 [label="X[0] <= 143.0\nmse = 0.346\nsamples = 2\nvalue = 36.22"] ;
125 -> 127 ;
128 [label="mse = 0.0\nsamples = 1\nvalue = 36.7"] ;
127 -> 128 ;
129 [label="mse = -0.0\nsamples = 1\nvalue = 35.5"] ;
127 -> 129 ;
130 [label="X[2] <= 5.5\nmse = 0.182\nsamples = 3\nvalue = 33.12"] ;
118 -> 130 ;
131 [label="mse = 0.0\nsamples = 1\nvalue = 33.1"] ;
130 -> 131 ;
132 [label="mse = 0.227\nsamples = 2\nvalue = 33.125"] ;
130 -> 132 ;
133 [label="X[0] <= 197.0\nmse = 1.899\nsamples = 8\nvalue = 32.775"] ;
117 -> 133 ;
134 [label="X[0] <= 172.0\nmse = 0.695\nsamples = 7\nvalue = 32.436"] ;
133 -> 134 ;
135 [label="X[4] <= 3.965\nmse = 0.428\nsamples = 5\nvalue = 31.971"] ;
134 -> 135 ;
136 [label="X[3] <= 3000.0\nmse = 0.078\nsamples = 4\nvalue = 32.217"] ;
135 -> 136 ;
137 [label="mse = 0.0\nsamples = 1\nvalue = 32.8"] ;
136 -> 137 ;
138 [label="X[11] <= 0.5\nmse = 0.012\nsamples = 3\nvalue = 32.1"] ;
136 -> 138 ;
139 [label="X[4] <= 3.17\nmse = 0.002\nsamples = 2\nvalue = 32.15"] ;
138 -> 139 ;
140 [label="mse = 0.0\nsamples = 1\nvalue = 32.1"] ;
139 -> 140 ;
141 [label="mse = -0.0\nsamples = 1\nvalue = 32.2"] ;
139 -> 141 ;
142 [label="mse = -0.0\nsamples = 1\nvalue = 31.9"] ;
138 -> 142 ;
143 [label="mse = 0.0\nsamples = 1\nvalue = 30.5"] ;
135 -> 143 ;
144 [label="X[6] <= 43.5\nmse = 0.122\nsamples = 2\nvalue = 33.25"] ;
134 -> 144 ;
145 [label="mse = 0.0\nsamples = 1\nvalue = 32.9"] ;
144 -> 145 ;
146 [label="mse = 0.0\nsamples = 1\nvalue = 33.6"] ;
144 -> 146 ;
147 [label="mse = 0.0\nsamples = 1\nvalue = 36.5"] ;
133 -> 147 ;
148 [label="mse = 0.436\nsamples = 2\nvalue = 38.633"] ;
116 -> 148 ;
149 [label="X[5] <= 26.0\nmse = 3.296\nsamples = 3\nvalue = 30.133"] ;
115 -> 149 ;
150 [label="mse = 0.0\nsamples = 1\nvalue = 32.7"] ;
149 -> 150 ;
151 [label="X[8] <= 0.5\nmse = 0.003\nsamples = 2\nvalue = 28.85"] ;
149 -> 151 ;
152 [label="mse = 0.0\nsamples = 1\nvalue = 28.9"] ;
151 -> 152 ;
153 [label="mse = -0.0\nsamples = 1\nvalue = 28.8"] ;
151 -> 153 ;
154 [label="X[3] <= 3687.5\nmse = 14.174\nsamples = 100\nvalue = 28.239"] ;
82 -> 154 ;
155 [label="X[0] <= 114.5\nmse = 9.052\nsamples = 42\nvalue = 30.134"] ;
154 -> 155 ;
156 [label="mse = 0.0\nsamples = 1\nvalue = 42.9"] ;
155 -> 156 ;
157 [label="X[2] <= 6.5\nmse = 6.683\nsamples = 41\nvalue = 29.941"] ;
155 -> 157 ;
158 [label="X[9] <= 0.5\nmse = 6.118\nsamples = 35\nvalue = 29.294"] ;
157 -> 158 ;
159 [label="X[0] <= 129.5\nmse = 4.849\nsamples = 32\nvalue = 29.602"] ;
158 -> 159 ;
160 [label="mse = 0.0\nsamples = 1\nvalue = 26.1"] ;
159 -> 160 ;
161 [label="X[0] <= 187.0\nmse = 3.848\nsamples = 31\nvalue = 30.0"] ;
159 -> 161 ;
162 [label="X[3] <= 3562.5\nmse = 3.741\nsamples = 25\nvalue = 30.539"] ;
161 -> 162 ;
163 [label="X[0] <= 179.0\nmse = 2.781\nsamples = 14\nvalue = 31.582"] ;
162 -> 163 ;
164 [label="X[0] <= 144.5\nmse = 2.283\nsamples = 10\nvalue = 31.1"] ;
163 -> 164 ;
165 [label="X[1] <= 3.5\nmse = 1.176\nsamples = 2\nvalue = 33.267"] ;
164 -> 165 ;
166 [label="mse = 0.0\nsamples = 1\nvalue = 32.5"] ;
165 -> 166 ;
167 [label="mse = 0.0\nsamples = 1\nvalue = 34.8"] ;
165 -> 167 ;
168 [label="X[5] <= 92.5\nmse = 0.784\nsamples = 8\nvalue = 30.45"] ;
164 -> 168 ;
169 [label="X[4] <= 4.275\nmse = 0.353\nsamples = 7\nvalue = 30.222"] ;
168 -> 169 ;
170 [label="X[5] <= 55.5\nmse = 0.187\nsamples = 6\nvalue = 30.375"] ;
169 -> 170 ;
171 [label="X[0] <= 156.0\nmse = 0.139\nsamples = 5\nvalue = 30.471"] ;
170 -> 171 ;
172 [label="X[3] <= 3437.5\nmse = 0.02\nsamples = 2\nvalue = 30.1"] ;
171 -> 172 ;
173 [label="mse = 0.0\nsamples = 1\nvalue = 30.3"] ;
172 -> 173 ;
174 [label="mse = 0.0\nsamples = 1\nvalue = 30.0"] ;
172 -> 174 ;
175 [label="X[3] <= 3437.5\nmse = 0.047\nsamples = 3\nvalue = 30.75"] ;
171 -> 175 ;
176 [label="X[8] <= 0.5\nmse = 0.036\nsamples = 2\nvalue = 30.667"] ;
175 -> 176 ;
177 [label="mse = 0.0\nsamples = 1\nvalue = 30.4"] ;
176 -> 177 ;
178 [label="mse = 0.0\nsamples = 1\nvalue = 30.8"] ;
176 -> 178 ;
179 [label="mse = 0.0\nsamples = 1\nvalue = 31.0"] ;
175 -> 179 ;
180 [label="mse = 0.0\nsamples = 1\nvalue = 29.7"] ;
170 -> 180 ;
181 [label="mse = 0.0\nsamples = 1\nvalue = 29.0"] ;
169 -> 181 ;
182 [label="mse = -0.0\nsamples = 1\nvalue = 32.5"] ;
168 -> 182 ;
183 [label="X[12] <= 0.5\nmse = 1.188\nsamples = 4\nvalue = 33.15"] ;
163 -> 183 ;
184 [label="mse = 0.0\nsamples = 1\nvalue = 34.9"] ;
183 -> 184 ;
185 [label="mse = 0.222\nsamples = 3\nvalue = 32.567"] ;
183 -> 185 ;
186 [label="X[4] <= 4.08\nmse = 2.376\nsamples = 11\nvalue = 29.431"] ;
162 -> 186 ;
187 [label="X[5] <= 16.0\nmse = 1.69\nsamples = 9\nvalue = 28.954"] ;
186 -> 187 ;
188 [label="mse = 0.0\nsamples = 1\nvalue = 26.9"] ;
187 -> 188 ;
189 [label="X[12] <= 0.5\nmse = 1.091\nsamples = 8\nvalue = 29.327"] ;
187 -> 189 ;
190 [label="X[4] <= 3.205\nmse = 0.009\nsamples = 2\nvalue = 28.167"] ;
189 -> 190 ;
191 [label="mse = 0.0\nsamples = 1\nvalue = 28.3"] ;
190 -> 191 ;
192 [label="mse = 0.0\nsamples = 1\nvalue = 28.1"] ;
190 -> 192 ;
193 [label="X[5] <= 55.5\nmse = 0.802\nsamples = 6\nvalue = 29.762"] ;
189 -> 193 ;
194 [label="X[4] <= 2.975\nmse = 0.348\nsamples = 4\nvalue = 29.517"] ;
193 -> 194 ;
195 [label="mse = 0.0\nsamples = 1\nvalue = 30.3"] ;
194 -> 195 ;
196 [label="X[0] <= 159.5\nmse = 0.062\nsamples = 3\nvalue = 29.125"] ;
194 -> 196 ;
197 [label="mse = 0.0\nsamples = 1\nvalue = 29.3"] ;
196 -> 197 ;
198 [label="mse = 0.062\nsamples = 2\nvalue = 28.95"] ;
196 -> 198 ;
199 [label="mse = 1.44\nsamples = 2\nvalue = 30.5"] ;
193 -> 199 ;
200 [label="X[4] <= 4.11\nmse = 0.08\nsamples = 2\nvalue = 31.5"] ;
186 -> 200 ;
201 [label="mse = 0.0\nsamples = 1\nvalue = 31.9"] ;
200 -> 201 ;
202 [label="mse = -0.0\nsamples = 1\nvalue = 31.3"] ;
200 -> 202 ;
203 [label="X[6] <= 44.0\nmse = 0.678\nsamples = 6\nvalue = 28.382"] ;
161 -> 203 ;
204 [label="mse = 0.0\nsamples = 1\nvalue = 27.3"] ;
203 -> 204 ;
205 [label="X[4] <= 3.11\nmse = 0.511\nsamples = 5\nvalue = 28.622"] ;
203 -> 205 ;
206 [label="mse = 0.0\nsamples = 1\nvalue = 29.7"] ;
205 -> 206 ;
207 [label="X[4] <= 4.035\nmse = 0.411\nsamples = 4\nvalue = 28.488"] ;
205 -> 207 ;
208 [label="mse = 0.0\nsamples = 1\nvalue = 28.3"] ;
207 -> 208 ;
209 [label="mse = 0.464\nsamples = 3\nvalue = 28.514"] ;
207 -> 209 ;
210 [label="X[5] <= 53.0\nmse = 0.029\nsamples = 3\nvalue = 24.267"] ;
158 -> 210 ;
211 [label="X[3] <= 3562.5\nmse = 0.003\nsamples = 2\nvalue = 24.15"] ;
210 -> 211 ;
212 [label="mse = 0.0\nsamples = 1\nvalue = 24.2"] ;
211 -> 212 ;
213 [label="mse = 0.0\nsamples = 1\nvalue = 24.1"] ;
211 -> 213 ;
214 [label="mse = -0.0\nsamples = 1\nvalue = 24.5"] ;
210 -> 214 ;
215 [label="X[13] <= 0.5\nmse = 1.457\nsamples = 6\nvalue = 32.343"] ;
157 -> 215 ;
216 [label="X[3] <= 3562.5\nmse = 0.709\nsamples = 5\nvalue = 31.967"] ;
215 -> 216 ;
217 [label="X[8] <= 0.5\nmse = 0.262\nsamples = 4\nvalue = 32.28"] ;
216 -> 217 ;
218 [label="X[4] <= 3.555\nmse = 0.165\nsamples = 3\nvalue = 32.1"] ;
217 -> 218 ;
219 [label="X[9] <= 0.5\nmse = 0.01\nsamples = 2\nvalue = 31.7"] ;
218 -> 219 ;
220 [label="mse = 0.0\nsamples = 1\nvalue = 31.6"] ;
219 -> 220 ;
221 [label="mse = -0.0\nsamples = 1\nvalue = 31.8"] ;
219 -> 221 ;
222 [label="mse = 0.0\nsamples = 1\nvalue = 32.5"] ;
218 -> 222 ;
223 [label="mse = -0.0\nsamples = 1\nvalue = 33.0"] ;
217 -> 223 ;
224 [label="mse = -0.0\nsamples = 1\nvalue = 30.4"] ;
216 -> 224 ;
225 [label="mse = 0.0\nsamples = 1\nvalue = 34.6"] ;
215 -> 225 ;
226 [label="X[6] <= 49.5\nmse = 13.183\nsamples = 58\nvalue = 26.762"] ;
154 -> 226 ;
227 [label="X[4] <= 3.6\nmse = 16.773\nsamples = 13\nvalue = 23.929"] ;
226 -> 227 ;
228 [label="X[4] <= 3.27\nmse = 5.374\nsamples = 10\nvalue = 22.115"] ;
227 -> 228 ;
229 [label="X[0] <= 176.5\nmse = 0.18\nsamples = 3\nvalue = 18.6"] ;
228 -> 229 ;
230 [label="mse = 0.0\nsamples = 1\nvalue = 18.3"] ;
229 -> 230 ;
231 [label="X[3] <= 4125.0\nmse = 0.202\nsamples = 2\nvalue = 18.75"] ;
229 -> 231 ;
232 [label="mse = 0.0\nsamples = 1\nvalue = 19.2"] ;
231 -> 232 ;
233 [label="mse = -0.0\nsamples = 1\nvalue = 18.3"] ;
231 -> 233 ;
234 [label="X[4] <= 3.445\nmse = 2.112\nsamples = 7\nvalue = 23.17"] ;
228 -> 234 ;
235 [label="X[3] <= 3812.5\nmse = 0.479\nsamples = 5\nvalue = 23.775"] ;
234 -> 235 ;
236 [label="X[9] <= 0.5\nmse = 0.5\nsamples = 2\nvalue = 24.4"] ;
235 -> 236 ;
237 [label="mse = 0.0\nsamples = 1\nvalue = 23.4"] ;
236 -> 237 ;
238 [label="mse = 0.0\nsamples = 1\nvalue = 24.9"] ;
236 -> 238 ;
239 [label="X[4] <= 3.385\nmse = 0.092\nsamples = 3\nvalue = 23.4"] ;
235 -> 239 ;
240 [label="X[16] <= 0.5\nmse = 0.109\nsamples = 2\nvalue = 23.267"] ;
239 -> 240 ;
241 [label="mse = 0.0\nsamples = 1\nvalue = 22.8"] ;
240 -> 241 ;
242 [label="mse = 0.0\nsamples = 1\nvalue = 23.5"] ;
240 -> 242 ;
243 [label="mse = 0.0\nsamples = 1\nvalue = 23.6"] ;
239 -> 243 ;
244 [label="X[3] <= 3937.5\nmse = 1.322\nsamples = 2\nvalue = 20.75"] ;
234 -> 244 ;
245 [label="mse = 0.0\nsamples = 1\nvalue = 21.9"] ;
244 -> 245 ;
246 [label="mse = -0.0\nsamples = 1\nvalue = 19.6"] ;
244 -> 246 ;
247 [label="X[9] <= 0.5\nmse = 8.367\nsamples = 3\nvalue = 29.825"] ;
227 -> 247 ;
248 [label="X[4] <= 4.085\nmse = 0.202\nsamples = 2\nvalue = 26.95"] ;
247 -> 248 ;
249 [label="mse = 0.0\nsamples = 1\nvalue = 26.5"] ;
248 -> 249 ;
250 [label="mse = -0.0\nsamples = 1\nvalue = 27.4"] ;
248 -> 250 ;
251 [label="mse = 0.0\nsamples = 1\nvalue = 32.7"] ;
247 -> 251 ;
252 [label="X[2] <= 6.5\nmse = 9.835\nsamples = 45\nvalue = 27.459"] ;
226 -> 252 ;
253 [label="X[2] <= 3.0\nmse = 7.693\nsamples = 25\nvalue = 26.326"] ;
252 -> 253 ;
254 [label="X[3] <= 3937.5\nmse = 0.5\nsamples = 2\nvalue = 33.1"] ;
253 -> 254 ;
255 [label="mse = 0.0\nsamples = 1\nvalue = 33.6"] ;
254 -> 255 ;
256 [label="mse = -0.0\nsamples = 1\nvalue = 32.1"] ;
254 -> 256 ;
257 [label="X[16] <= 0.5\nmse = 4.15\nsamples = 23\nvalue = 25.761"] ;
253 -> 257 ;
258 [label="X[0] <= 189.5\nmse = 1.874\nsamples = 6\nvalue = 23.9"] ;
257 -> 258 ;
259 [label="X[0] <= 168.5\nmse = 0.694\nsamples = 2\nvalue = 24.98"] ;
258 -> 259 ;
260 [label="mse = 0.0\nsamples = 1\nvalue = 24.3"] ;
259 -> 260 ;
261 [label="mse = 0.0\nsamples = 1\nvalue = 26.0"] ;
259 -> 261 ;
262 [label="X[4] <= 3.385\nmse = 0.722\nsamples = 4\nvalue = 22.82"] ;
258 -> 262 ;
263 [label="mse = 0.0\nsamples = 1\nvalue = 21.2"] ;
262 -> 263 ;
264 [label="X[0] <= 220.0\nmse = 0.082\nsamples = 3\nvalue = 23.225"] ;
262 -> 264 ;
265 [label="X[15] <= 0.5\nmse = 0.009\nsamples = 2\nvalue = 23.067"] ;
264 -> 265 ;
266 [label="mse = 0.0\nsamples = 1\nvalue = 23.0"] ;
265 -> 266 ;
267 [label="mse = -0.0\nsamples = 1\nvalue = 23.2"] ;
265 -> 267 ;
268 [label="mse = -0.0\nsamples = 1\nvalue = 23.7"] ;
264 -> 268 ;
269 [label="X[0] <= 183.0\nmse = 3.18\nsamples = 17\nvalue = 26.477"] ;
257 -> 269 ;
270 [label="X[12] <= 0.5\nmse = 1.328\nsamples = 6\nvalue = 28.171"] ;
269 -> 270 ;
271 [label="X[0] <= 174.5\nmse = 0.402\nsamples = 3\nvalue = 27.275"] ;
270 -> 271 ;
272 [label="mse = 0.023\nsamples = 2\nvalue = 26.65"] ;
271 -> 272 ;
273 [label="mse = 0.0\nsamples = 1\nvalue = 27.9"] ;
271 -> 273 ;
274 [label="X[4] <= 3.29\nmse = 0.062\nsamples = 3\nvalue = 29.367"] ;
270 -> 274 ;
275 [label="X[4] <= 3.065\nmse = 0.01\nsamples = 2\nvalue = 29.2"] ;
274 -> 275 ;
276 [label="mse = 0.0\nsamples = 1\nvalue = 29.1"] ;
275 -> 276 ;
277 [label="mse = -0.0\nsamples = 1\nvalue = 29.3"] ;
275 -> 277 ;
278 [label="mse = -0.0\nsamples = 1\nvalue = 29.7"] ;
274 -> 278 ;
279 [label="X[4] <= 3.985\nmse = 2.415\nsamples = 11\nvalue = 25.853"] ;
269 -> 279 ;
280 [label="X[4] <= 3.52\nmse = 2.037\nsamples = 7\nvalue = 25.225"] ;
279 -> 280 ;
281 [label="X[0] <= 218.0\nmse = 0.84\nsamples = 5\nvalue = 25.74"] ;
280 -> 281 ;
282 [label="X[5] <= 55.5\nmse = 0.022\nsamples = 2\nvalue = 26.48"] ;
281 -> 282 ;
283 [label="mse = 0.0\nsamples = 1\nvalue = 26.3"] ;
282 -> 283 ;
284 [label="mse = -0.0\nsamples = 1\nvalue = 26.6"] ;
282 -> 284 ;
285 [label="X[5] <= 55.5\nmse = 0.564\nsamples = 3\nvalue = 25.0"] ;
281 -> 285 ;
286 [label="mse = 0.002\nsamples = 2\nvalue = 25.375"] ;
285 -> 286 ;
287 [label="mse = 0.0\nsamples = 1\nvalue = 23.5"] ;
285 -> 287 ;
288 [label="X[4] <= 3.7\nmse = 0.063\nsamples = 2\nvalue = 22.65"] ;
280 -> 288 ;
289 [label="mse = 0.0\nsamples = 1\nvalue = 22.9"] ;
288 -> 289 ;
290 [label="mse = -0.0\nsamples = 1\nvalue = 22.4"] ;
288 -> 290 ;
291 [label="X[3] <= 4625.0\nmse = 1.231\nsamples = 4\nvalue = 26.929"] ;
279 -> 291 ;
292 [label="X[5] <= 26.0\nmse = 0.765\nsamples = 3\nvalue = 27.7"] ;
291 -> 292 ;
293 [label="X[0] <= 231.0\nmse = 0.02\nsamples = 2\nvalue = 28.2"] ;
292 -> 293 ;
294 [label="mse = 0.0\nsamples = 1\nvalue = 28.0"] ;
293 -> 294 ;
295 [label="mse = 0.0\nsamples = 1\nvalue = 28.3"] ;
293 -> 295 ;
296 [label="mse = -0.0\nsamples = 1\nvalue = 26.2"] ;
292 -> 296 ;
297 [label="mse = 0.0\nsamples = 1\nvalue = 25.9"] ;
291 -> 297 ;
298 [label="X[0] <= 182.0\nmse = 8.777\nsamples = 20\nvalue = 28.933"] ;
252 -> 298 ;
299 [label="X[8] <= 0.5\nmse = 2.722\nsamples = 2\nvalue = 34.433"] ;
298 -> 299 ;
300 [label="mse = 0.0\nsamples = 1\nvalue = 35.6"] ;
299 -> 300 ;
301 [label="mse = -0.0\nsamples = 1\nvalue = 32.1"] ;
299 -> 301 ;
302 [label="X[3] <= 4125.0\nmse = 5.715\nsamples = 18\nvalue = 28.322"] ;
298 -> 302 ;
303 [label="X[4] <= 2.22\nmse = 2.956\nsamples = 11\nvalue = 29.731"] ;
302 -> 303 ;
304 [label="mse = 0.269\nsamples = 2\nvalue = 26.967"] ;
303 -> 304 ;
305 [label="X[4] <= 2.855\nmse = 1.405\nsamples = 9\nvalue = 30.369"] ;
303 -> 305 ;
306 [label="X[8] <= 0.5\nmse = 1.0\nsamples = 2\nvalue = 31.6"] ;
305 -> 306 ;
307 [label="mse = 0.0\nsamples = 1\nvalue = 32.6"] ;
306 -> 307 ;
308 [label="mse = 0.0\nsamples = 1\nvalue = 30.6"] ;
306 -> 308 ;
309 [label="X[3] <= 3937.5\nmse = 0.613\nsamples = 7\nvalue = 29.822"] ;
305 -> 309 ;
310 [label="X[4] <= 3.165\nmse = 0.092\nsamples = 3\nvalue = 30.525"] ;
309 -> 310 ;
311 [label="X[2] <= 8.0\nmse = 0.0\nsamples = 2\nvalue = 30.7"] ;
310 -> 311 ;
312 [label="mse = 0.0\nsamples = 1\nvalue = 30.7"] ;
311 -> 312 ;
313 [label="mse = 0.0\nsamples = 1\nvalue = 30.7"] ;
311 -> 313 ;
314 [label="mse = 0.0\nsamples = 1\nvalue = 30.0"] ;
310 -> 314 ;
315 [label="X[4] <= 3.005\nmse = 0.318\nsamples = 4\nvalue = 29.26"] ;
309 -> 315 ;
316 [label="X[0] <= 224.5\nmse = 0.123\nsamples = 2\nvalue = 28.65"] ;
315 -> 316 ;
317 [label="mse = 0.0\nsamples = 1\nvalue = 29.0"] ;
316 -> 317 ;
318 [label="mse = 0.0\nsamples = 1\nvalue = 28.3"] ;
316 -> 318 ;
319 [label="X[12] <= 0.5\nmse = 0.036\nsamples = 2\nvalue = 29.667"] ;
315 -> 319 ;
320 [label="mse = 0.0\nsamples = 1\nvalue = 29.8"] ;
319 -> 320 ;
321 [label="mse = 0.0\nsamples = 1\nvalue = 29.4"] ;
319 -> 321 ;
322 [label="X[5] <= 58.0\nmse = 2.64\nsamples = 7\nvalue = 26.273"] ;
302 -> 322 ;
323 [label="X[7] <= 0.5\nmse = 0.399\nsamples = 6\nvalue = 26.75"] ;
322 -> 323 ;
324 [label="mse = 0.0\nsamples = 1\nvalue = 27.6"] ;
323 -> 324 ;
325 [label="X[4] <= 2.43\nmse = 0.272\nsamples = 5\nvalue = 26.538"] ;
323 -> 325 ;
326 [label="mse = 0.0\nsamples = 2\nvalue = 26.2"] ;
325 -> 326 ;
327 [label="X[4] <= 3.1\nmse = 0.326\nsamples = 3\nvalue = 26.74"] ;
325 -> 327 ;
328 [label="mse = 0.09\nsamples = 2\nvalue = 27.4"] ;
327 -> 328 ;
329 [label="mse = 0.0\nsamples = 1\nvalue = 26.3"] ;
327 -> 329 ;
330 [label="mse = 0.0\nsamples = 1\nvalue = 21.5"] ;
322 -> 330 ;
331 [label="X[3] <= 3937.5\nmse = 82.309\nsamples = 29\nvalue = 40.594"] ;
81 -> 331 ;
332 [label="X[4] <= 3.83\nmse = 22.249\nsamples = 25\nvalue = 37.155"] ;
331 -> 332 ;
333 [label="X[0] <= 164.0\nmse = 18.666\nsamples = 11\nvalue = 40.461"] ;
332 -> 333 ;
334 [label="X[3] <= 3125.0\nmse = 12.552\nsamples = 8\nvalue = 38.979"] ;
333 -> 334 ;
335 [label="X[5] <= 55.5\nmse = 13.609\nsamples = 5\nvalue = 40.725"] ;
334 -> 335 ;
336 [label="X[1] <= 3.5\nmse = 1.472\nsamples = 4\nvalue = 42.767"] ;
335 -> 336 ;
337 [label="mse = 0.0\nsamples = 1\nvalue = 45.1"] ;
336 -> 337 ;
338 [label="X[3] <= 2812.5\nmse = 0.46\nsamples = 3\nvalue = 42.3"] ;
336 -> 338 ;
339 [label="mse = 0.056\nsamples = 2\nvalue = 42.833"] ;
338 -> 339 ;
340 [label="mse = 0.0\nsamples = 1\nvalue = 41.5"] ;
338 -> 340 ;
341 [label="mse = 0.0\nsamples = 1\nvalue = 34.6"] ;
335 -> 341 ;
342 [label="X[0] <= 126.0\nmse = 1.653\nsamples = 3\nvalue = 36.65"] ;
334 -> 342 ;
343 [label="mse = 0.0\nsamples = 1\nvalue = 38.5"] ;
342 -> 343 ;
344 [label="X[3] <= 3437.5\nmse = 1.162\nsamples = 2\nvalue = 36.28"] ;
342 -> 344 ;
345 [label="mse = 0.0\nsamples = 1\nvalue = 37.6"] ;
344 -> 345 ;
346 [label="mse = 0.0\nsamples = 1\nvalue = 35.4"] ;
344 -> 346 ;
347 [label="X[3] <= 3812.5\nmse = 5.448\nsamples = 3\nvalue = 45.65"] ;
333 -> 347 ;
348 [label="X[6] <= 43.5\nmse = 2.276\nsamples = 2\nvalue = 46.767"] ;
347 -> 348 ;
349 [label="mse = 0.0\nsamples = 1\nvalue = 45.7"] ;
348 -> 349 ;
350 [label="mse = -0.0\nsamples = 1\nvalue = 48.9"] ;
348 -> 350 ;
351 [label="mse = 0.0\nsamples = 1\nvalue = 42.3"] ;
347 -> 351 ;
352 [label="X[0] <= 148.5\nmse = 10.588\nsamples = 14\nvalue = 34.675"] ;
332 -> 352 ;
353 [label="X[6] <= 43.5\nmse = 0.889\nsamples = 2\nvalue = 28.233"] ;
352 -> 353 ;
354 [label="mse = 0.0\nsamples = 1\nvalue = 28.9"] ;
353 -> 354 ;
355 [label="mse = 0.0\nsamples = 1\nvalue = 26.9"] ;
353 -> 355 ;
356 [label="X[5] <= 92.5\nmse = 5.199\nsamples = 12\nvalue = 35.595"] ;
352 -> 356 ;
357 [label="X[5] <= 55.5\nmse = 2.43\nsamples = 11\nvalue = 35.975"] ;
356 -> 357 ;
358 [label="X[3] <= 3187.5\nmse = 0.48\nsamples = 6\nvalue = 34.8"] ;
357 -> 358 ;
359 [label="X[0] <= 155.5\nmse = 0.302\nsamples = 2\nvalue = 33.95"] ;
358 -> 359 ;
360 [label="mse = 0.0\nsamples = 1\nvalue = 33.4"] ;
359 -> 360 ;
361 [label="mse = -0.0\nsamples = 1\nvalue = 34.5"] ;
359 -> 361 ;
362 [label="X[4] <= 4.355\nmse = 0.146\nsamples = 4\nvalue = 35.14"] ;
358 -> 362 ;
363 [label="mse = 0.0\nsamples = 1\nvalue = 34.9"] ;
362 -> 363 ;
364 [label="mse = 0.165\nsamples = 3\nvalue = 35.2"] ;
362 -> 364 ;
365 [label="X[0] <= 176.5\nmse = 2.336\nsamples = 5\nvalue = 36.608"] ;
357 -> 365 ;
366 [label="X[4] <= 4.745\nmse = 1.617\nsamples = 4\nvalue = 37.027"] ;
365 -> 366 ;
367 [label="X[0] <= 155.5\nmse = 0.778\nsamples = 2\nvalue = 35.82"] ;
366 -> 367 ;
368 [label="mse = 0.0\nsamples = 1\nvalue = 36.9"] ;
367 -> 368 ;
369 [label="mse = -0.0\nsamples = 1\nvalue = 35.1"] ;
367 -> 369 ;
370 [label="mse = 0.089\nsamples = 2\nvalue = 38.033"] ;
366 -> 370 ;
371 [label="mse = 0.0\nsamples = 1\nvalue = 34.3"] ;
365 -> 371 ;
372 [label="mse = -0.0\nsamples = 1\nvalue = 28.0"] ;
356 -> 372 ;
373 [label="X[4] <= 3.055\nmse = 9.505\nsamples = 4\nvalue = 58.65"] ;
331 -> 373 ;
374 [label="X[3] <= 4125.0\nmse = 7.686\nsamples = 3\nvalue = 59.767"] ;
373 -> 374 ;
375 [label="mse = 4.646\nsamples = 2\nvalue = 60.64"] ;
374 -> 375 ;
376 [label="mse = 0.0\nsamples = 1\nvalue = 55.4"] ;
374 -> 376 ;
377 [label="mse = 0.0\nsamples = 1\nvalue = 55.3"] ;
373 -> 377 ;
378 [label="X[5] <= 7.0\nmse = 40.312\nsamples = 308\nvalue = 23.663"] ;
0 -> 378 [labeldistance=2.5, labelangle=-45, headlabel="False"] ;
379 [label="X[0] <= 378.0\nmse = 36.802\nsamples = 40\nvalue = 34.337"] ;
378 -> 379 ;
380 [label="X[7] <= 0.5\nmse = 26.405\nsamples = 29\nvalue = 36.527"] ;
379 -> 380 ;
381 [label="X[4] <= 3.315\nmse = 17.837\nsamples = 17\nvalue = 38.767"] ;
380 -> 381 ;
382 [label="X[0] <= 347.0\nmse = 21.402\nsamples = 10\nvalue = 40.633"] ;
381 -> 382 ;
383 [label="X[15] <= 0.5\nmse = 8.544\nsamples = 9\nvalue = 42.542"] ;
382 -> 383 ;
384 [label="X[4] <= 2.69\nmse = 2.569\nsamples = 8\nvalue = 41.41"] ;
383 -> 384 ;
385 [label="mse = 0.0\nsamples = 1\nvalue = 45.4"] ;
384 -> 385 ;
386 [label="X[4] <= 2.81\nmse = 0.889\nsamples = 7\nvalue = 40.967"] ;
384 -> 386 ;
387 [label="mse = 0.0\nsamples = 1\nvalue = 39.4"] ;
386 -> 387 ;
388 [label="X[0] <= 273.5\nmse = 0.241\nsamples = 6\nvalue = 41.414"] ;
386 -> 388 ;
389 [label="X[6] <= 40.0\nmse = 0.002\nsamples = 2\nvalue = 41.95"] ;
388 -> 389 ;
390 [label="mse = 0.0\nsamples = 1\nvalue = 41.9"] ;
389 -> 390 ;
391 [label="mse = -0.0\nsamples = 1\nvalue = 42.0"] ;
389 -> 391 ;
392 [label="X[2] <= 8.5\nmse = 0.176\nsamples = 4\nvalue = 41.2"] ;
388 -> 392 ;
393 [label="X[18] <= 0.5\nmse = 0.02\nsamples = 3\nvalue = 41.0"] ;
392 -> 393 ;
394 [label="X[12] <= 0.5\nmse = 0.009\nsamples = 2\nvalue = 40.933"] ;
393 -> 394 ;
395 [label="mse = 0.0\nsamples = 1\nvalue = 40.8"] ;
394 -> 395 ;
396 [label="mse = -0.0\nsamples = 1\nvalue = 41.0"] ;
394 -> 396 ;
397 [label="mse = 0.0\nsamples = 1\nvalue = 41.2"] ;
393 -> 397 ;
398 [label="mse = 0.0\nsamples = 1\nvalue = 42.0"] ;
392 -> 398 ;
399 [label="mse = -0.0\nsamples = 1\nvalue = 48.2"] ;
383 -> 399 ;
400 [label="mse = 0.0\nsamples = 1\nvalue = 33.0"] ;
382 -> 400 ;
401 [label="X[18] <= 0.5\nmse = 3.581\nsamples = 7\nvalue = 36.433"] ;
381 -> 401 ;
402 [label="X[4] <= 4.68\nmse = 0.425\nsamples = 5\nvalue = 37.662"] ;
401 -> 402 ;
403 [label="X[4] <= 3.72\nmse = 0.036\nsamples = 2\nvalue = 38.467"] ;
402 -> 403 ;
404 [label="mse = 0.0\nsamples = 1\nvalue = 38.2"] ;
403 -> 404 ;
405 [label="mse = -0.0\nsamples = 1\nvalue = 38.6"] ;
403 -> 405 ;
406 [label="X[0] <= 289.5\nmse = 0.038\nsamples = 3\nvalue = 37.18"] ;
402 -> 406 ;
407 [label="mse = 0.0\nsamples = 1\nvalue = 37.3"] ;
406 -> 407 ;
408 [label="mse = 0.04\nsamples = 2\nvalue = 37.0"] ;
406 -> 408 ;
409 [label="X[0] <= 296.5\nmse = 0.827\nsamples = 2\nvalue = 33.975"] ;
401 -> 409 ;
410 [label="mse = 0.0\nsamples = 1\nvalue = 32.4"] ;
409 -> 410 ;
411 [label="mse = 0.0\nsamples = 1\nvalue = 34.5"] ;
409 -> 411 ;
412 [label="X[6] <= 49.5\nmse = 20.44\nsamples = 12\nvalue = 33.167"] ;
380 -> 412 ;
413 [label="mse = 0.0\nsamples = 1\nvalue = 19.4"] ;
412 -> 413 ;
414 [label="X[4] <= 3.575\nmse = 9.838\nsamples = 11\nvalue = 33.976"] ;
412 -> 414 ;
415 [label="X[2] <= 5.5\nmse = 4.542\nsamples = 9\nvalue = 34.82"] ;
414 -> 415 ;
416 [label="mse = 0.0\nsamples = 1\nvalue = 29.3"] ;
415 -> 416 ;
417 [label="X[4] <= 3.11\nmse = 2.534\nsamples = 8\nvalue = 35.214"] ;
415 -> 417 ;
418 [label="X[0] <= 301.5\nmse = 0.04\nsamples = 2\nvalue = 38.3"] ;
417 -> 418 ;
419 [label="mse = 0.0\nsamples = 1\nvalue = 38.1"] ;
418 -> 419 ;
420 [label="mse = 0.0\nsamples = 1\nvalue = 38.5"] ;
418 -> 420 ;
421 [label="X[18] <= 0.5\nmse = 1.098\nsamples = 6\nvalue = 34.7"] ;
417 -> 421 ;
422 [label="X[4] <= 3.275\nmse = 0.303\nsamples = 2\nvalue = 36.35"] ;
421 -> 422 ;
423 [label="mse = 0.0\nsamples = 1\nvalue = 36.9"] ;
422 -> 423 ;
424 [label="mse = 0.0\nsamples = 1\nvalue = 35.8"] ;
422 -> 424 ;
425 [label="X[4] <= 3.285\nmse = 0.604\nsamples = 4\nvalue = 34.37"] ;
421 -> 425 ;
426 [label="X[3] <= 4875.0\nmse = 0.047\nsamples = 2\nvalue = 34.975"] ;
425 -> 426 ;
427 [label="mse = 0.0\nsamples = 1\nvalue = 35.1"] ;
426 -> 427 ;
428 [label="mse = 0.0\nsamples = 1\nvalue = 34.6"] ;
426 -> 428 ;
429 [label="X[3] <= 4625.0\nmse = 0.569\nsamples = 2\nvalue = 33.967"] ;
425 -> 429 ;
430 [label="mse = 0.0\nsamples = 1\nvalue = 34.5"] ;
429 -> 430 ;
431 [label="mse = -0.0\nsamples = 1\nvalue = 32.9"] ;
429 -> 431 ;
432 [label="X[0] <= 290.0\nmse = 4.202\nsamples = 2\nvalue = 27.65"] ;
414 -> 432 ;
433 [label="mse = 0.0\nsamples = 1\nvalue = 29.7"] ;
432 -> 433 ;
434 [label="mse = 0.0\nsamples = 1\nvalue = 25.6"] ;
432 -> 434 ;
435 [label="X[3] <= 4875.0\nmse = 18.04\nsamples = 11\nvalue = 28.541"] ;
379 -> 435 ;
436 [label="X[4] <= 3.245\nmse = 5.479\nsamples = 7\nvalue = 31.65"] ;
435 -> 436 ;
437 [label="X[3] <= 4187.5\nmse = 0.847\nsamples = 3\nvalue = 34.6"] ;
436 -> 437 ;
438 [label="mse = 0.0\nsamples = 1\nvalue = 33.3"] ;
437 -> 438 ;
439 [label="X[3] <= 4625.0\nmse = 0.002\nsamples = 2\nvalue = 35.25"] ;
437 -> 439 ;
440 [label="mse = 0.0\nsamples = 1\nvalue = 35.3"] ;
439 -> 440 ;
441 [label="mse = 0.0\nsamples = 1\nvalue = 35.2"] ;
439 -> 441 ;
442 [label="X[2] <= 6.5\nmse = 2.136\nsamples = 4\nvalue = 30.386"] ;
436 -> 442 ;
443 [label="mse = 0.0\nsamples = 1\nvalue = 27.2"] ;
442 -> 443 ;
444 [label="X[4] <= 3.63\nmse = 0.518\nsamples = 3\nvalue = 30.917"] ;
442 -> 444 ;
445 [label="X[9] <= 0.5\nmse = 0.009\nsamples = 2\nvalue = 31.633"] ;
444 -> 445 ;
446 [label="mse = 0.0\nsamples = 1\nvalue = 31.7"] ;
445 -> 446 ;
447 [label="mse = -0.0\nsamples = 1\nvalue = 31.5"] ;
445 -> 447 ;
448 [label="mse = 0.0\nsamples = 1\nvalue = 30.2"] ;
444 -> 448 ;
449 [label="X[0] <= 419.0\nmse = 2.454\nsamples = 4\nvalue = 24.1"] ;
435 -> 449 ;
450 [label="X[3] <= 5500.0\nmse = 0.002\nsamples = 2\nvalue = 22.633"] ;
449 -> 450 ;
451 [label="mse = 0.0\nsamples = 1\nvalue = 22.6"] ;
450 -> 451 ;
452 [label="mse = -0.0\nsamples = 1\nvalue = 22.7"] ;
450 -> 452 ;
453 [label="X[3] <= 5750.0\nmse = 1.47\nsamples = 2\nvalue = 25.2"] ;
449 -> 453 ;
454 [label="mse = 0.0\nsamples = 1\nvalue = 27.3"] ;
453 -> 454 ;
455 [label="mse = 0.0\nsamples = 1\nvalue = 24.5"] ;
453 -> 455 ;
456 [label="X[1] <= 7.0\nmse = 21.577\nsamples = 268\nvalue = 22.09"] ;
378 -> 456 ;
457 [label="X[3] <= 4625.0\nmse = 13.329\nsamples = 188\nvalue = 23.984"] ;
456 -> 457 ;
458 [label="X[1] <= 4.5\nmse = 9.831\nsamples = 135\nvalue = 25.127"] ;
457 -> 458 ;
459 [label="X[2] <= 6.5\nmse = 6.504\nsamples = 49\nvalue = 27.034"] ;
458 -> 459 ;
460 [label="X[0] <= 298.5\nmse = 2.015\nsamples = 18\nvalue = 25.457"] ;
459 -> 460 ;
461 [label="X[0] <= 282.0\nmse = 1.485\nsamples = 14\nvalue = 25.862"] ;
460 -> 461 ;
462 [label="X[0] <= 250.0\nmse = 1.094\nsamples = 12\nvalue = 25.663"] ;
461 -> 462 ;
463 [label="X[3] <= 4125.0\nmse = 0.953\nsamples = 8\nvalue = 26.131"] ;
462 -> 463 ;
464 [label="X[4] <= 2.98\nmse = 0.152\nsamples = 5\nvalue = 26.682"] ;
463 -> 464 ;
465 [label="mse = 0.0\nsamples = 1\nvalue = 27.4"] ;
464 -> 465 ;
466 [label="X[3] <= 3937.5\nmse = 0.046\nsamples = 4\nvalue = 26.522"] ;
464 -> 466 ;
467 [label="X[5] <= 26.0\nmse = 0.014\nsamples = 3\nvalue = 26.588"] ;
466 -> 467 ;
468 [label="mse = 0.0\nsamples = 1\nvalue = 26.4"] ;
467 -> 468 ;
469 [label="X[3] <= 3812.5\nmse = 0.003\nsamples = 2\nvalue = 26.65"] ;
467 -> 469 ;
470 [label="mse = -0.0\nsamples = 1\nvalue = 26.7"] ;
469 -> 470 ;
471 [label="mse = 0.0\nsamples = 1\nvalue = 26.6"] ;
469 -> 471 ;
472 [label="mse = 0.0\nsamples = 1\nvalue = 26.0"] ;
466 -> 472 ;
473 [label="X[3] <= 4375.0\nmse = 0.582\nsamples = 3\nvalue = 24.92"] ;
463 -> 473 ;
474 [label="mse = 0.0\nsamples = 1\nvalue = 24.1"] ;
473 -> 474 ;
475 [label="X[16] <= 0.5\nmse = 0.222\nsamples = 2\nvalue = 25.467"] ;
473 -> 475 ;
476 [label="mse = 0.0\nsamples = 1\nvalue = 24.8"] ;
475 -> 476 ;
477 [label="mse = -0.0\nsamples = 1\nvalue = 25.8"] ;
475 -> 477 ;
478 [label="X[3] <= 3937.5\nmse = 0.057\nsamples = 4\nvalue = 24.725"] ;
462 -> 478 ;
479 [label="X[3] <= 3812.5\nmse = 0.013\nsamples = 3\nvalue = 24.6"] ;
478 -> 479 ;
480 [label="mse = 0.0\nsamples = 1\nvalue = 24.8"] ;
479 -> 480 ;
481 [label="X[6] <= 44.0\nmse = 0.006\nsamples = 2\nvalue = 24.56"] ;
479 -> 481 ;
482 [label="mse = 0.0\nsamples = 1\nvalue = 24.6"] ;
481 -> 482 ;
483 [label="mse = -0.0\nsamples = 1\nvalue = 24.4"] ;
481 -> 483 ;
484 [label="mse = 0.0\nsamples = 1\nvalue = 25.1"] ;
478 -> 484 ;
485 [label="X[3] <= 3562.5\nmse = 0.002\nsamples = 2\nvalue = 28.25"] ;
461 -> 485 ;
486 [label="mse = 0.0\nsamples = 1\nvalue = 28.2"] ;
485 -> 486 ;
487 [label="mse = 0.0\nsamples = 1\nvalue = 28.3"] ;
485 -> 487 ;
488 [label="X[0] <= 305.5\nmse = 1.708\nsamples = 4\nvalue = 24.289"] ;
460 -> 488 ;
489 [label="mse = 0.0\nsamples = 1\nvalue = 20.6"] ;
488 -> 489 ;
490 [label="X[4] <= 3.975\nmse = 0.008\nsamples = 3\nvalue = 24.75"] ;
488 -> 490 ;
491 [label="mse = 0.0\nsamples = 1\nvalue = 24.6"] ;
490 -> 491 ;
492 [label="X[6] <= 43.5\nmse = 0.0\nsamples = 2\nvalue = 24.8"] ;
490 -> 492 ;
493 [label="mse = 0.0\nsamples = 1\nvalue = 24.8"] ;
492 -> 493 ;
494 [label="mse = 0.0\nsamples = 1\nvalue = 24.8"] ;
492 -> 494 ;
495 [label="X[5] <= 16.0\nmse = 6.616\nsamples = 31\nvalue = 28.209"] ;
459 -> 495 ;
496 [label="X[3] <= 3812.5\nmse = 0.095\nsamples = 3\nvalue = 23.5"] ;
495 -> 496 ;
497 [label="mse = 0.0\nsamples = 1\nvalue = 23.8"] ;
496 -> 497 ;
498 [label="X[0] <= 272.0\nmse = 0.01\nsamples = 2\nvalue = 23.2"] ;
496 -> 498 ;
499 [label="mse = 0.0\nsamples = 1\nvalue = 23.1"] ;
498 -> 499 ;
500 [label="mse = -0.0\nsamples = 1\nvalue = 23.3"] ;
498 -> 500 ;
501 [label="X[13] <= 0.5\nmse = 4.968\nsamples = 28\nvalue = 28.647"] ;
495 -> 501 ;
502 [label="X[0] <= 256.0\nmse = 3.002\nsamples = 27\nvalue = 28.867"] ;
501 -> 502 ;
503 [label="X[3] <= 4375.0\nmse = 2.785\nsamples = 14\nvalue = 29.45"] ;
502 -> 503 ;
504 [label="X[4] <= 4.34\nmse = 1.901\nsamples = 10\nvalue = 30.063"] ;
503 -> 504 ;
505 [label="X[2] <= 8.5\nmse = 0.936\nsamples = 9\nvalue = 29.606"] ;
504 -> 505 ;
506 [label="X[2] <= 7.5\nmse = 0.345\nsamples = 8\nvalue = 29.907"] ;
505 -> 506 ;
507 [label="mse = 0.0\nsamples = 1\nvalue = 30.6"] ;
506 -> 507 ;
508 [label="X[3] <= 3937.5\nmse = 0.309\nsamples = 7\nvalue = 29.792"] ;
506 -> 508 ;
509 [label="X[3] <= 3812.5\nmse = 0.036\nsamples = 2\nvalue = 30.433"] ;
508 -> 509 ;
510 [label="mse = 0.0\nsamples = 1\nvalue = 30.3"] ;
509 -> 510 ;
511 [label="mse = 0.0\nsamples = 1\nvalue = 30.7"] ;
509 -> 511 ;
512 [label="X[4] <= 3.005\nmse = 0.217\nsamples = 5\nvalue = 29.578"] ;
508 -> 512 ;
513 [label="X[3] <= 4125.0\nmse = 0.192\nsamples = 4\nvalue = 29.367"] ;
512 -> 513 ;
514 [label="mse = 0.09\nsamples = 3\nvalue = 29.52"] ;
513 -> 514 ;
515 [label="mse = 0.0\nsamples = 1\nvalue = 28.6"] ;
513 -> 515 ;
516 [label="mse = -0.0\nsamples = 1\nvalue = 30.0"] ;
512 -> 516 ;
517 [label="mse = 0.0\nsamples = 1\nvalue = 27.5"] ;
505 -> 517 ;
518 [label="mse = 0.0\nsamples = 1\nvalue = 32.5"] ;
504 -> 518 ;
519 [label="X[5] <= 60.5\nmse = 1.393\nsamples = 4\nvalue = 27.786"] ;
503 -> 519 ;
520 [label="X[15] <= 0.5\nmse = 0.222\nsamples = 3\nvalue = 28.233"] ;
519 -> 520 ;
521 [label="mse = 0.25\nsamples = 2\nvalue = 28.4"] ;
520 -> 521 ;
522 [label="mse = -0.0\nsamples = 1\nvalue = 27.9"] ;
520 -> 522 ;
523 [label="mse = 0.0\nsamples = 1\nvalue = 25.1"] ;
519 -> 523 ;
524 [label="X[3] <= 3937.5\nmse = 1.904\nsamples = 13\nvalue = 27.919"] ;
502 -> 524 ;
525 [label="X[4] <= 3.21\nmse = 1.414\nsamples = 7\nvalue = 28.775"] ;
524 -> 525 ;
526 [label="X[16] <= 0.5\nmse = 0.996\nsamples = 4\nvalue = 29.4"] ;
525 -> 526 ;
527 [label="mse = 0.0\nsamples = 1\nvalue = 30.4"] ;
526 -> 527 ;
528 [label="X[3] <= 3812.5\nmse = 0.549\nsamples = 3\nvalue = 28.733"] ;
526 -> 528 ;
529 [label="X[7] <= 0.5\nmse = 0.303\nsamples = 2\nvalue = 29.15"] ;
528 -> 529 ;
530 [label="mse = 0.0\nsamples = 1\nvalue = 29.7"] ;
529 -> 530 ;
531 [label="mse = 0.0\nsamples = 1\nvalue = 28.6"] ;
529 -> 531 ;
532 [label="mse = 0.0\nsamples = 1\nvalue = 27.9"] ;
528 -> 532 ;
533 [label="X[0] <= 320.0\nmse = 0.376\nsamples = 3\nvalue = 27.733"] ;
525 -> 533 ;
534 [label="X[2] <= 7.5\nmse = 0.16\nsamples = 2\nvalue = 28.1"] ;
533 -> 534 ;
535 [label="mse = 0.0\nsamples = 1\nvalue = 28.5"] ;
534 -> 535 ;
536 [label="mse = -0.0\nsamples = 1\nvalue = 27.7"] ;
534 -> 536 ;
537 [label="mse = 0.0\nsamples = 1\nvalue = 27.0"] ;
533 -> 537 ;
538 [label="X[0] <= 321.0\nmse = 0.927\nsamples = 6\nvalue = 27.063"] ;
524 -> 538 ;
539 [label="X[4] <= 3.175\nmse = 0.149\nsamples = 5\nvalue = 27.4"] ;
538 -> 539 ;
540 [label="X[3] <= 4125.0\nmse = 0.064\nsamples = 3\nvalue = 27.2"] ;
539 -> 540 ;
541 [label="mse = 0.068\nsamples = 2\nvalue = 27.25"] ;
540 -> 541 ;
542 [label="mse = 0.0\nsamples = 1\nvalue = 27.0"] ;
540 -> 542 ;
543 [label="X[4] <= 3.5\nmse = 0.01\nsamples = 2\nvalue = 27.9"] ;
539 -> 543 ;
544 [label="mse = 0.0\nsamples = 1\nvalue = 28.0"] ;
543 -> 544 ;
545 [label="mse = 0.0\nsamples = 1\nvalue = 27.8"] ;
543 -> 545 ;
546 [label="mse = 0.0\nsamples = 1\nvalue = 24.7"] ;
538 -> 546 ;
547 [label="mse = -0.0\nsamples = 1\nvalue = 19.4"] ;
501 -> 547 ;
548 [label="X[4] <= 2.88\nmse = 8.458\nsamples = 86\nvalue = 24.034"] ;
458 -> 548 ;
549 [label="X[4] <= 2.79\nmse = 4.343\nsamples = 19\nvalue = 26.067"] ;
548 -> 549 ;
550 [label="X[3] <= 3937.5\nmse = 4.426\nsamples = 8\nvalue = 24.454"] ;
549 -> 550 ;
551 [label="X[0] <= 318.0\nmse = 6.003\nsamples = 2\nvalue = 26.65"] ;
550 -> 551 ;
552 [label="mse = 0.0\nsamples = 1\nvalue = 29.1"] ;
551 -> 552 ;
553 [label="mse = 0.0\nsamples = 1\nvalue = 24.2"] ;
551 -> 553 ;
554 [label="X[4] <= 1.62\nmse = 0.628\nsamples = 6\nvalue = 23.478"] ;
550 -> 554 ;
555 [label="mse = 0.0\nsamples = 1\nvalue = 25.6"] ;
554 -> 555 ;
556 [label="X[16] <= 0.5\nmse = 0.074\nsamples = 5\nvalue = 23.212"] ;
554 -> 556 ;
557 [label="X[12] <= 0.5\nmse = 0.109\nsamples = 2\nvalue = 23.433"] ;
556 -> 557 ;
558 [label="mse = 0.0\nsamples = 1\nvalue = 23.9"] ;
557 -> 558 ;
559 [label="mse = 0.0\nsamples = 1\nvalue = 23.2"] ;
557 -> 559 ;
560 [label="X[0] <= 288.0\nmse = 0.006\nsamples = 3\nvalue = 23.08"] ;
556 -> 560 ;
561 [label="mse = 0.003\nsamples = 2\nvalue = 23.05"] ;
560 -> 561 ;
562 [label="mse = -0.0\nsamples = 1\nvalue = 23.2"] ;
560 -> 562 ;
563 [label="X[12] <= 0.5\nmse = 1.499\nsamples = 11\nvalue = 27.115"] ;
549 -> 563 ;
564 [label="X[0] <= 345.5\nmse = 0.08\nsamples = 3\nvalue = 25.4"] ;
563 -> 564 ;
565 [label="mse = -0.0\nsamples = 2\nvalue = 25.2"] ;
564 -> 565 ;
566 [label="mse = 0.0\nsamples = 1\nvalue = 25.8"] ;
564 -> 566 ;
567 [label="X[0] <= 321.0\nmse = 0.307\nsamples = 8\nvalue = 27.85"] ;
563 -> 567 ;
568 [label="mse = 0.01\nsamples = 2\nvalue = 29.1"] ;
567 -> 568 ;
569 [label="X[3] <= 3937.5\nmse = 0.052\nsamples = 6\nvalue = 27.642"] ;
567 -> 569 ;
570 [label="mse = 0.0\nsamples = 1\nvalue = 28.3"] ;
569 -> 570 ;
571 [label="X[5] <= 26.0\nmse = 0.014\nsamples = 5\nvalue = 27.582"] ;
569 -> 571 ;
572 [label="mse = 0.0\nsamples = 1\nvalue = 27.7"] ;
571 -> 572 ;
573 [label="X[0] <= 328.5\nmse = 0.005\nsamples = 4\nvalue = 27.483"] ;
571 -> 573 ;
574 [label="mse = 0.0\nsamples = 2\nvalue = 27.5"] ;
573 -> 574 ;
575 [label="mse = 0.009\nsamples = 2\nvalue = 27.467"] ;
573 -> 575 ;
576 [label="X[10] <= 0.5\nmse = 8.08\nsamples = 67\nvalue = 23.424"] ;
548 -> 576 ;
577 [label="X[3] <= 4375.0\nmse = 6.407\nsamples = 65\nvalue = 23.118"] ;
576 -> 577 ;
578 [label="X[3] <= 3687.5\nmse = 5.603\nsamples = 49\nvalue = 23.729"] ;
577 -> 578 ;
579 [label="X[0] <= 475.0\nmse = 6.558\nsamples = 5\nvalue = 20.083"] ;
578 -> 579 ;
580 [label="X[9] <= 0.5\nmse = 0.047\nsamples = 3\nvalue = 22.5"] ;
579 -> 580 ;
581 [label="X[2] <= 6.5\nmse = 0.003\nsamples = 2\nvalue = 22.65"] ;
580 -> 581 ;
582 [label="mse = 0.0\nsamples = 1\nvalue = 22.6"] ;
581 -> 582 ;
583 [label="mse = 0.0\nsamples = 1\nvalue = 22.7"] ;
581 -> 583 ;
584 [label="mse = -0.0\nsamples = 1\nvalue = 22.2"] ;
580 -> 584 ;
585 [label="X[2] <= 6.5\nmse = 1.389\nsamples = 2\nvalue = 17.667"] ;
579 -> 585 ;
586 [label="mse = 0.0\nsamples = 1\nvalue = 16.0"] ;
585 -> 586 ;
587 [label="mse = 0.0\nsamples = 1\nvalue = 18.5"] ;
585 -> 587 ;
588 [label="X[5] <= 26.0\nmse = 4.342\nsamples = 44\nvalue = 24.029"] ;
578 -> 588 ;
589 [label="X[3] <= 3812.5\nmse = 3.506\nsamples = 37\nvalue = 24.342"] ;
588 -> 589 ;
590 [label="X[9] <= 0.5\nmse = 2.496\nsamples = 6\nvalue = 26.033"] ;
589 -> 590 ;
591 [label="X[12] <= 0.5\nmse = 0.5\nsamples = 2\nvalue = 24.1"] ;
590 -> 591 ;
592 [label="mse = 0.0\nsamples = 1\nvalue = 24.6"] ;
591 -> 592 ;
593 [label="mse = -0.0\nsamples = 1\nvalue = 23.1"] ;
591 -> 593 ;
594 [label="X[0] <= 435.0\nmse = 0.69\nsamples = 4\nvalue = 27.0"] ;
590 -> 594 ;
595 [label="X[0] <= 395.0\nmse = 0.128\nsamples = 3\nvalue = 27.55"] ;
594 -> 595 ;
596 [label="mse = 0.036\nsamples = 2\nvalue = 27.733"] ;
595 -> 596 ;
597 [label="mse = 0.0\nsamples = 1\nvalue = 27.0"] ;
595 -> 597 ;
598 [label="mse = 0.0\nsamples = 1\nvalue = 25.9"] ;
594 -> 598 ;
599 [label="X[6] <= 44.0\nmse = 3.109\nsamples = 31\nvalue = 24.055"] ;
589 -> 599 ;
600 [label="mse = 0.0\nsamples = 1\nvalue = 19.4"] ;
599 -> 600 ;
601 [label="X[2] <= 6.5\nmse = 2.744\nsamples = 30\nvalue = 24.144"] ;
599 -> 601 ;
602 [label="X[11] <= 0.5\nmse = 2.818\nsamples = 8\nvalue = 22.882"] ;
601 -> 602 ;
603 [label="X[4] <= 3.605\nmse = 0.492\nsamples = 5\nvalue = 23.775"] ;
602 -> 603 ;
604 [label="X[3] <= 4062.5\nmse = 0.08\nsamples = 2\nvalue = 23.0"] ;
603 -> 604 ;
605 [label="mse = 0.0\nsamples = 1\nvalue = 23.4"] ;
604 -> 605 ;
606 [label="mse = 0.0\nsamples = 1\nvalue = 22.8"] ;
604 -> 606 ;
607 [label="X[13] <= 0.5\nmse = 0.162\nsamples = 3\nvalue = 24.24"] ;
603 -> 607 ;
608 [label="X[18] <= 0.5\nmse = 0.036\nsamples = 2\nvalue = 23.933"] ;
607 -> 608 ;
609 [label="mse = 0.0\nsamples = 1\nvalue = 23.8"] ;
608 -> 609 ;
610 [label="mse = 0.0\nsamples = 1\nvalue = 24.2"] ;
608 -> 610 ;
611 [label="mse = -0.0\nsamples = 1\nvalue = 24.7"] ;
607 -> 611 ;
612 [label="X[0] <= 336.0\nmse = 1.22\nsamples = 3\nvalue = 20.5"] ;
602 -> 612 ;
613 [label="X[4] <= 3.45\nmse = 0.36\nsamples = 2\nvalue = 21.2"] ;
612 -> 613 ;
614 [label="mse = 0.0\nsamples = 1\nvalue = 20.6"] ;
613 -> 614 ;
615 [label="mse = -0.0\nsamples = 1\nvalue = 21.8"] ;
613 -> 615 ;
616 [label="mse = -0.0\nsamples = 1\nvalue = 19.1"] ;
612 -> 616 ;
617 [label="X[0] <= 476.5\nmse = 2.182\nsamples = 22\nvalue = 24.483"] ;
601 -> 617 ;
618 [label="X[9] <= 0.5\nmse = 1.676\nsamples = 19\nvalue = 24.806"] ;
617 -> 618 ;
619 [label="X[4] <= 3.295\nmse = 0.883\nsamples = 12\nvalue = 24.232"] ;
618 -> 619 ;
620 [label="X[0] <= 320.0\nmse = 0.421\nsamples = 7\nvalue = 24.91"] ;
619 -> 620 ;
621 [label="X[3] <= 4125.0\nmse = 0.322\nsamples = 3\nvalue = 24.48"] ;
620 -> 621 ;
622 [label="mse = 0.0\nsamples = 1\nvalue = 25.1"] ;
621 -> 622 ;
623 [label="mse = 0.109\nsamples = 2\nvalue = 24.067"] ;
621 -> 623 ;
624 [label="X[18] <= 0.5\nmse = 0.15\nsamples = 4\nvalue = 25.34"] ;
620 -> 624 ;
625 [label="mse = 0.18\nsamples = 2\nvalue = 25.5"] ;
624 -> 625 ;
626 [label="mse = 0.01\nsamples = 2\nvalue = 25.1"] ;
624 -> 626 ;
627 [label="X[0] <= 351.0\nmse = 0.566\nsamples = 5\nvalue = 23.667"] ;
619 -> 627 ;
628 [label="X[3] <= 4062.5\nmse = 0.007\nsamples = 2\nvalue = 22.75"] ;
627 -> 628 ;
629 [label="mse = 0.0\nsamples = 1\nvalue = 22.7"] ;
628 -> 629 ;
630 [label="mse = -0.0\nsamples = 1\nvalue = 22.9"] ;
628 -> 630 ;
631 [label="X[0] <= 435.0\nmse = 0.214\nsamples = 3\nvalue = 24.125"] ;
627 -> 631 ;
632 [label="mse = 0.0\nsamples = 2\nvalue = 24.3"] ;
631 -> 632 ;
633 [label="mse = -0.0\nsamples = 1\nvalue = 22.9"] ;
631 -> 633 ;
634 [label="X[18] <= 0.5\nmse = 1.517\nsamples = 7\nvalue = 25.777"] ;
618 -> 634 ;
635 [label="X[0] <= 345.0\nmse = 0.665\nsamples = 3\nvalue = 24.883"] ;
634 -> 635 ;
636 [label="X[3] <= 3937.5\nmse = 0.118\nsamples = 2\nvalue = 25.22"] ;
635 -> 636 ;
637 [label="mse = 0.0\nsamples = 1\nvalue = 25.5"] ;
636 -> 637 ;
638 [label="mse = 0.0\nsamples = 1\nvalue = 24.8"] ;
636 -> 638 ;
639 [label="mse = -0.0\nsamples = 1\nvalue = 23.2"] ;
635 -> 639 ;
640 [label="X[0] <= 435.0\nmse = 0.977\nsamples = 4\nvalue = 26.543"] ;
634 -> 640 ;
641 [label="X[3] <= 3937.5\nmse = 0.034\nsamples = 3\nvalue = 27.16"] ;
640 -> 641 ;
642 [label="X[0] <= 395.0\nmse = 0.002\nsamples = 2\nvalue = 27.25"] ;
641 -> 642 ;
643 [label="mse = 0.0\nsamples = 1\nvalue = 27.2"] ;
642 -> 643 ;
644 [label="mse = 0.0\nsamples = 1\nvalue = 27.3"] ;
642 -> 644 ;
645 [label="mse = -0.0\nsamples = 1\nvalue = 26.8"] ;
641 -> 645 ;
646 [label="mse = 0.0\nsamples = 1\nvalue = 25.0"] ;
640 -> 646 ;
647 [label="X[3] <= 3937.5\nmse = 0.98\nsamples = 3\nvalue = 22.6"] ;
617 -> 647 ;
648 [label="mse = 0.0\nsamples = 1\nvalue = 21.2"] ;
647 -> 648 ;
649 [label="mse = -0.0\nsamples = 2\nvalue = 23.3"] ;
647 -> 649 ;
650 [label="X[0] <= 380.0\nmse = 5.39\nsamples = 7\nvalue = 22.264"] ;
588 -> 650 ;
651 [label="X[18] <= 0.5\nmse = 1.955\nsamples = 5\nvalue = 23.438"] ;
650 -> 651 ;
652 [label="X[5] <= 33.0\nmse = 0.423\nsamples = 2\nvalue = 25.25"] ;
651 -> 652 ;
653 [label="mse = 0.0\nsamples = 1\nvalue = 24.6"] ;
652 -> 653 ;
654 [label="mse = 0.0\nsamples = 1\nvalue = 25.9"] ;
652 -> 654 ;
655 [label="X[4] <= 3.25\nmse = 1.006\nsamples = 3\nvalue = 22.833"] ;
651 -> 655 ;
656 [label="X[3] <= 3875.0\nmse = 0.01\nsamples = 2\nvalue = 23.28"] ;
655 -> 656 ;
657 [label="mse = 0.0\nsamples = 1\nvalue = 23.4"] ;
656 -> 657 ;
658 [label="mse = -0.0\nsamples = 1\nvalue = 23.2"] ;
656 -> 658 ;
659 [label="mse = 0.0\nsamples = 1\nvalue = 20.6"] ;
655 -> 659 ;
660 [label="X[9] <= 0.5\nmse = 1.076\nsamples = 2\nvalue = 19.133"] ;
650 -> 660 ;
661 [label="mse = 0.0\nsamples = 1\nvalue = 20.6"] ;
660 -> 661 ;
662 [label="mse = 0.0\nsamples = 1\nvalue = 18.4"] ;
660 -> 662 ;
663 [label="X[12] <= 0.5\nmse = 4.268\nsamples = 16\nvalue = 21.262"] ;
577 -> 663 ;
664 [label="X[2] <= 8.5\nmse = 3.074\nsamples = 11\nvalue = 20.406"] ;
663 -> 664 ;
665 [label="X[2] <= 6.5\nmse = 2.261\nsamples = 10\nvalue = 20.171"] ;
664 -> 665 ;
666 [label="X[16] <= 0.5\nmse = 0.795\nsamples = 8\nvalue = 20.75"] ;
665 -> 666 ;
667 [label="X[15] <= 0.5\nmse = 0.113\nsamples = 4\nvalue = 20.014"] ;
666 -> 667 ;
668 [label="X[7] <= 0.5\nmse = 0.026\nsamples = 3\nvalue = 19.82"] ;
667 -> 668 ;
669 [label="mse = 0.0\nsamples = 1\nvalue = 20.1"] ;
668 -> 669 ;
670 [label="mse = 0.007\nsamples = 2\nvalue = 19.75"] ;
668 -> 670 ;
671 [label="mse = 0.0\nsamples = 1\nvalue = 20.5"] ;
667 -> 671 ;
672 [label="X[0] <= 351.5\nmse = 0.396\nsamples = 4\nvalue = 21.486"] ;
666 -> 672 ;
673 [label="X[0] <= 300.0\nmse = 0.383\nsamples = 3\nvalue = 21.85"] ;
672 -> 673 ;
674 [label="X[0] <= 285.0\nmse = 0.16\nsamples = 2\nvalue = 21.3"] ;
673 -> 674 ;
675 [label="mse = 0.0\nsamples = 1\nvalue = 21.7"] ;
674 -> 675 ;
676 [label="mse = 0.0\nsamples = 1\nvalue = 20.9"] ;
674 -> 676 ;
677 [label="mse = 0.0\nsamples = 1\nvalue = 22.4"] ;
673 -> 677 ;
678 [label="mse = 0.0\nsamples = 1\nvalue = 21.0"] ;
672 -> 678 ;
679 [label="X[9] <= 0.5\nmse = 0.222\nsamples = 2\nvalue = 17.467"] ;
665 -> 679 ;
680 [label="mse = 0.0\nsamples = 1\nvalue = 16.8"] ;
679 -> 680 ;
681 [label="mse = -0.0\nsamples = 1\nvalue = 17.8"] ;
679 -> 681 ;
682 [label="mse = -0.0\nsamples = 1\nvalue = 24.4"] ;
664 -> 682 ;
683 [label="X[4] <= 3.325\nmse = 1.596\nsamples = 5\nvalue = 23.188"] ;
663 -> 683 ;
684 [label="X[4] <= 3.155\nmse = 0.022\nsamples = 2\nvalue = 21.95"] ;
683 -> 684 ;
685 [label="mse = 0.0\nsamples = 1\nvalue = 22.1"] ;
684 -> 685 ;
686 [label="mse = -0.0\nsamples = 1\nvalue = 21.8"] ;
684 -> 686 ;
687 [label="X[4] <= 3.465\nmse = 0.107\nsamples = 3\nvalue = 24.425"] ;
683 -> 687 ;
688 [label="mse = 0.0\nsamples = 1\nvalue = 23.9"] ;
687 -> 688 ;
689 [label="X[2] <= 7.5\nmse = 0.02\nsamples = 2\nvalue = 24.6"] ;
687 -> 689 ;
690 [label="mse = 0.0\nsamples = 1\nvalue = 24.5"] ;
689 -> 690 ;
691 [label="mse = 0.0\nsamples = 1\nvalue = 24.8"] ;
689 -> 691 ;
692 [label="X[0] <= 278.0\nmse = 0.086\nsamples = 2\nvalue = 29.84"] ;
576 -> 692 ;
693 [label="mse = -0.0\nsamples = 1\nvalue = 29.6"] ;
692 -> 693 ;
694 [label="mse = -0.0\nsamples = 1\nvalue = 30.2"] ;
692 -> 694 ;
695 [label="X[6] <= 49.5\nmse = 9.505\nsamples = 53\nvalue = 20.848"] ;
457 -> 695 ;
696 [label="X[1] <= 5.0\nmse = 3.496\nsamples = 5\nvalue = 16.18"] ;
695 -> 696 ;
697 [label="mse = 0.0\nsamples = 1\nvalue = 19.2"] ;
696 -> 697 ;
698 [label="X[2] <= 6.5\nmse = 1.519\nsamples = 4\nvalue = 15.425"] ;
696 -> 698 ;
699 [label="X[16] <= 0.5\nmse = 0.649\nsamples = 3\nvalue = 13.967"] ;
698 -> 699 ;
700 [label="X[0] <= 273.0\nmse = 0.01\nsamples = 2\nvalue = 13.4"] ;
699 -> 700 ;
701 [label="mse = 0.0\nsamples = 1\nvalue = 13.3"] ;
700 -> 701 ;
702 [label="mse = -0.0\nsamples = 1\nvalue = 13.5"] ;
700 -> 702 ;
703 [label="mse = -0.0\nsamples = 1\nvalue = 15.1"] ;
699 -> 703 ;
704 [label="mse = 0.0\nsamples = 1\nvalue = 16.3"] ;
698 -> 704 ;
705 [label="X[0] <= 275.5\nmse = 6.893\nsamples = 48\nvalue = 21.496"] ;
695 -> 705 ;
706 [label="X[12] <= 0.5\nmse = 0.554\nsamples = 7\nvalue = 18.693"] ;
705 -> 706 ;
707 [label="X[3] <= 4875.0\nmse = 0.212\nsamples = 6\nvalue = 18.942"] ;
706 -> 707 ;
708 [label="X[7] <= 0.5\nmse = 0.051\nsamples = 4\nvalue = 19.112"] ;
707 -> 708 ;
709 [label="mse = 0.0\nsamples = 1\nvalue = 19.6"] ;
708 -> 709 ;
710 [label="X[4] <= 3.245\nmse = 0.02\nsamples = 3\nvalue = 19.043"] ;
708 -> 710 ;
711 [label="mse = -0.0\nsamples = 1\nvalue = 19.2"] ;
710 -> 711 ;
712 [label="mse = 0.002\nsamples = 2\nvalue = 18.925"] ;
710 -> 712 ;
713 [label="X[3] <= 5250.0\nmse = 0.36\nsamples = 2\nvalue = 18.6"] ;
707 -> 713 ;
714 [label="mse = 0.0\nsamples = 1\nvalue = 18.0"] ;
713 -> 714 ;
715 [label="mse = -0.0\nsamples = 1\nvalue = 19.2"] ;
713 -> 715 ;
716 [label="mse = 0.0\nsamples = 1\nvalue = 17.2"] ;
706 -> 716 ;
717 [label="X[3] <= 5125.0\nmse = 6.069\nsamples = 41\nvalue = 22.172"] ;
705 -> 717 ;
718 [label="X[7] <= 0.5\nmse = 5.291\nsamples = 31\nvalue = 22.933"] ;
717 -> 718 ;
719 [label="X[2] <= 3.5\nmse = 4.462\nsamples = 17\nvalue = 24.004"] ;
718 -> 719 ;
720 [label="mse = 0.0\nsamples = 1\nvalue = 28.0"] ;
719 -> 720 ;
721 [label="X[4] <= 3.425\nmse = 3.341\nsamples = 16\nvalue = 23.657"] ;
719 -> 721 ;
722 [label="X[5] <= 63.0\nmse = 3.206\nsamples = 7\nvalue = 24.58"] ;
721 -> 722 ;
723 [label="X[4] <= 3.19\nmse = 1.507\nsamples = 6\nvalue = 25.033"] ;
722 -> 723 ;
724 [label="X[0] <= 320.0\nmse = 0.854\nsamples = 3\nvalue = 24.16"] ;
723 -> 724 ;
725 [label="X[4] <= 3.095\nmse = 0.222\nsamples = 2\nvalue = 23.467"] ;
724 -> 725 ;
726 [label="mse = 0.0\nsamples = 1\nvalue = 22.8"] ;
725 -> 726 ;
727 [label="mse = -0.0\nsamples = 1\nvalue = 23.8"] ;
725 -> 727 ;
728 [label="mse = -0.0\nsamples = 1\nvalue = 25.2"] ;
724 -> 728 ;
729 [label="X[0] <= 315.0\nmse = 0.177\nsamples = 3\nvalue = 26.125"] ;
723 -> 729 ;
730 [label="mse = 0.0\nsamples = 1\nvalue = 25.4"] ;
729 -> 730 ;
731 [label="X[0] <= 385.0\nmse = 0.002\nsamples = 2\nvalue = 26.367"] ;
729 -> 731 ;
732 [label="mse = 0.0\nsamples = 1\nvalue = 26.4"] ;
731 -> 732 ;
733 [label="mse = 0.0\nsamples = 1\nvalue = 26.3"] ;
731 -> 733 ;
734 [label="mse = 0.0\nsamples = 1\nvalue = 20.5"] ;
722 -> 734 ;
735 [label="X[2] <= 9.5\nmse = 2.284\nsamples = 9\nvalue = 22.946"] ;
721 -> 735 ;
736 [label="X[14] <= 0.5\nmse = 0.226\nsamples = 6\nvalue = 21.6"] ;
735 -> 736 ;
737 [label="X[0] <= 352.5\nmse = 0.028\nsamples = 5\nvalue = 21.417"] ;
736 -> 737 ;
738 [label="X[12] <= 0.5\nmse = 0.003\nsamples = 2\nvalue = 21.25"] ;
737 -> 738 ;
739 [label="mse = 0.0\nsamples = 1\nvalue = 21.2"] ;
738 -> 739 ;
740 [label="mse = 0.0\nsamples = 1\nvalue = 21.3"] ;
738 -> 740 ;
741 [label="X[3] <= 4875.0\nmse = 0.02\nsamples = 3\nvalue = 21.5"] ;
737 -> 741 ;
742 [label="mse = 0.0\nsamples = 1\nvalue = 21.7"] ;
741 -> 742 ;
743 [label="X[15] <= 0.5\nmse = 0.009\nsamples = 2\nvalue = 21.433"] ;
741 -> 743 ;
744 [label="mse = 0.0\nsamples = 1\nvalue = 21.3"] ;
743 -> 744 ;
745 [label="mse = 0.0\nsamples = 1\nvalue = 21.5"] ;
743 -> 745 ;
746 [label="mse = 0.0\nsamples = 1\nvalue = 22.7"] ;
736 -> 746 ;
747 [label="X[4] <= 3.58\nmse = 0.105\nsamples = 3\nvalue = 24.517"] ;
735 -> 747 ;
748 [label="X[3] <= 4875.0\nmse = 0.009\nsamples = 2\nvalue = 24.833"] ;
747 -> 748 ;
749 [label="mse = 0.0\nsamples = 1\nvalue = 24.9"] ;
748 -> 749 ;
750 [label="mse = -0.0\nsamples = 1\nvalue = 24.7"] ;
748 -> 750 ;
751 [label="mse = 0.0\nsamples = 1\nvalue = 24.2"] ;
747 -> 751 ;
752 [label="X[2] <= 8.5\nmse = 2.632\nsamples = 14\nvalue = 21.444"] ;
718 -> 752 ;
753 [label="X[4] <= 3.42\nmse = 1.45\nsamples = 11\nvalue = 20.92"] ;
752 -> 753 ;
754 [label="X[0] <= 359.0\nmse = 0.629\nsamples = 9\nvalue = 20.554"] ;
753 -> 754 ;
755 [label="X[5] <= 55.5\nmse = 0.414\nsamples = 5\nvalue = 21.1"] ;
754 -> 755 ;
756 [label="X[3] <= 4875.0\nmse = 0.102\nsamples = 4\nvalue = 21.333"] ;
755 -> 756 ;
757 [label="X[16] <= 0.5\nmse = 0.007\nsamples = 2\nvalue = 21.55"] ;
756 -> 757 ;
758 [label="mse = -0.0\nsamples = 1\nvalue = 21.6"] ;
757 -> 758 ;
759 [label="mse = -0.0\nsamples = 1\nvalue = 21.4"] ;
757 -> 759 ;
760 [label="X[4] <= 3.275\nmse = 0.01\nsamples = 2\nvalue = 20.9"] ;
756 -> 760 ;
761 [label="mse = 0.0\nsamples = 1\nvalue = 20.8"] ;
760 -> 761 ;
762 [label="mse = 0.0\nsamples = 1\nvalue = 21.0"] ;
760 -> 762 ;
763 [label="mse = 0.0\nsamples = 1\nvalue = 19.7"] ;
755 -> 763 ;
764 [label="X[2] <= 7.0\nmse = 0.125\nsamples = 4\nvalue = 19.917"] ;
754 -> 764 ;
765 [label="mse = 0.142\nsamples = 2\nvalue = 20.033"] ;
764 -> 765 ;
766 [label="mse = 0.08\nsamples = 2\nvalue = 19.8"] ;
764 -> 766 ;
767 [label="X[4] <= 3.57\nmse = 0.25\nsamples = 2\nvalue = 23.3"] ;
753 -> 767 ;
768 [label="mse = 0.0\nsamples = 1\nvalue = 23.8"] ;
767 -> 768 ;
769 [label="mse = 0.0\nsamples = 1\nvalue = 22.8"] ;
767 -> 769 ;
770 [label="X[0] <= 345.5\nmse = 0.296\nsamples = 3\nvalue = 24.067"] ;
752 -> 770 ;
771 [label="X[16] <= 0.5\nmse = 0.203\nsamples = 2\nvalue = 24.35"] ;
770 -> 771 ;
772 [label="mse = 0.0\nsamples = 1\nvalue = 24.8"] ;
771 -> 772 ;
773 [label="mse = -0.0\nsamples = 1\nvalue = 23.9"] ;
771 -> 773 ;
774 [label="mse = 0.0\nsamples = 1\nvalue = 23.5"] ;
770 -> 774 ;
775 [label="X[0] <= 380.0\nmse = 1.897\nsamples = 10\nvalue = 19.993"] ;
717 -> 775 ;
776 [label="X[0] <= 301.5\nmse = 1.572\nsamples = 8\nvalue = 19.482"] ;
775 -> 776 ;
777 [label="X[3] <= 5750.0\nmse = 1.307\nsamples = 3\nvalue = 20.375"] ;
776 -> 777 ;
778 [label="X[7] <= 0.5\nmse = 0.18\nsamples = 2\nvalue = 21.0"] ;
777 -> 778 ;
779 [label="mse = 0.0\nsamples = 1\nvalue = 21.6"] ;
778 -> 779 ;
780 [label="mse = 0.0\nsamples = 1\nvalue = 20.7"] ;
778 -> 780 ;
781 [label="mse = 0.0\nsamples = 1\nvalue = 18.5"] ;
777 -> 781 ;
782 [label="X[2] <= 8.5\nmse = 1.008\nsamples = 5\nvalue = 18.971"] ;
776 -> 782 ;
783 [label="X[0] <= 311.5\nmse = 0.083\nsamples = 3\nvalue = 18.15"] ;
782 -> 783 ;
784 [label="X[7] <= 0.5\nmse = 0.02\nsamples = 2\nvalue = 18.3"] ;
783 -> 784 ;
785 [label="mse = 0.0\nsamples = 1\nvalue = 18.1"] ;
784 -> 785 ;
786 [label="mse = 0.0\nsamples = 1\nvalue = 18.4"] ;
784 -> 786 ;
787 [label="mse = -0.0\nsamples = 1\nvalue = 17.7"] ;
783 -> 787 ;
788 [label="X[2] <= 9.5\nmse = 0.142\nsamples = 2\nvalue = 20.067"] ;
782 -> 788 ;
789 [label="mse = 0.0\nsamples = 1\nvalue = 20.6"] ;
788 -> 789 ;
790 [label="mse = -0.0\nsamples = 1\nvalue = 19.8"] ;
788 -> 790 ;
791 [label="X[12] <= 0.5\nmse = 0.09\nsamples = 2\nvalue = 21.4"] ;
775 -> 791 ;
792 [label="mse = 0.0\nsamples = 1\nvalue = 21.7"] ;
791 -> 792 ;
793 [label="mse = 0.0\nsamples = 1\nvalue = 21.1"] ;
791 -> 793 ;
794 [label="X[6] <= 49.5\nmse = 8.129\nsamples = 80\nvalue = 16.991"] ;
456 -> 794 ;
795 [label="X[0] <= 1103.5\nmse = 3.35\nsamples = 14\nvalue = 13.29"] ;
794 -> 795 ;
796 [label="X[4] <= 4.12\nmse = 2.599\nsamples = 13\nvalue = 13.505"] ;
795 -> 796 ;
797 [label="X[0] <= 655.0\nmse = 2.036\nsamples = 11\nvalue = 13.912"] ;
796 -> 797 ;
798 [label="X[3] <= 5625.0\nmse = 1.211\nsamples = 9\nvalue = 14.292"] ;
797 -> 798 ;
799 [label="X[0] <= 575.0\nmse = 0.564\nsamples = 6\nvalue = 14.788"] ;
798 -> 799 ;
800 [label="X[7] <= 0.5\nmse = 0.098\nsamples = 4\nvalue = 15.32"] ;
799 -> 800 ;
801 [label="X[3] <= 4750.0\nmse = 0.002\nsamples = 2\nvalue = 15.067"] ;
800 -> 801 ;
802 [label="mse = 0.0\nsamples = 1\nvalue = 15.1"] ;
801 -> 802 ;
803 [label="mse = -0.0\nsamples = 1\nvalue = 15.0"] ;
801 -> 803 ;
804 [label="X[0] <= 485.5\nmse = 0.0\nsamples = 2\nvalue = 15.7"] ;
800 -> 804 ;
805 [label="mse = 0.0\nsamples = 1\nvalue = 15.7"] ;
804 -> 805 ;
806 [label="mse = 0.0\nsamples = 1\nvalue = 15.7"] ;
804 -> 806 ;
807 [label="X[3] <= 4000.0\nmse = 0.08\nsamples = 2\nvalue = 13.9"] ;
799 -> 807 ;
808 [label="mse = 0.0\nsamples = 1\nvalue = 14.1"] ;
807 -> 808 ;
809 [label="mse = -0.0\nsamples = 1\nvalue = 13.5"] ;
807 -> 809 ;
810 [label="X[0] <= 560.0\nmse = 1.228\nsamples = 3\nvalue = 13.5"] ;
798 -> 810 ;
811 [label="X[6] <= 32.5\nmse = 0.023\nsamples = 2\nvalue = 12.95"] ;
810 -> 811 ;
812 [label="mse = 0.0\nsamples = 1\nvalue = 12.8"] ;
811 -> 812 ;
813 [label="mse = 0.0\nsamples = 1\nvalue = 13.1"] ;
811 -> 813 ;
814 [label="mse = -0.0\nsamples = 1\nvalue = 15.7"] ;
810 -> 814 ;
815 [label="X[9] <= 0.5\nmse = 2.276\nsamples = 2\nvalue = 12.267"] ;
797 -> 815 ;
816 [label="mse = 0.0\nsamples = 1\nvalue = 14.4"] ;
815 -> 816 ;
817 [label="mse = 0.0\nsamples = 1\nvalue = 11.2"] ;
815 -> 817 ;
818 [label="X[3] <= 6250.0\nmse = 0.002\nsamples = 2\nvalue = 11.333"] ;
796 -> 818 ;
819 [label="mse = 0.0\nsamples = 1\nvalue = 11.4"] ;
818 -> 819 ;
820 [label="mse = 0.0\nsamples = 1\nvalue = 11.3"] ;
818 -> 820 ;
821 [label="mse = -0.0\nsamples = 1\nvalue = 9.2"] ;
795 -> 821 ;
822 [label="X[1] <= 9.0\nmse = 5.611\nsamples = 66\nvalue = 17.779"] ;
794 -> 822 ;
823 [label="X[3] <= 5375.0\nmse = 4.326\nsamples = 55\nvalue = 18.403"] ;
822 -> 823 ;
824 [label="X[0] <= 556.5\nmse = 4.087\nsamples = 32\nvalue = 19.2"] ;
823 -> 824 ;
825 [label="X[4] <= 3.21\nmse = 3.088\nsamples = 23\nvalue = 19.919"] ;
824 -> 825 ;
826 [label="X[9] <= 0.5\nmse = 1.207\nsamples = 14\nvalue = 20.842"] ;
825 -> 826 ;
827 [label="X[2] <= 8.5\nmse = 1.001\nsamples = 13\nvalue = 20.722"] ;
826 -> 827 ;
828 [label="X[4] <= 2.71\nmse = 0.818\nsamples = 10\nvalue = 20.354"] ;
827 -> 828 ;
829 [label="X[3] <= 4625.0\nmse = 0.186\nsamples = 4\nvalue = 19.85"] ;
828 -> 829 ;
830 [label="X[2] <= 7.5\nmse = 0.09\nsamples = 2\nvalue = 20.1"] ;
829 -> 830 ;
831 [label="mse = 0.0\nsamples = 1\nvalue = 20.4"] ;
830 -> 831 ;
832 [label="mse = -0.0\nsamples = 1\nvalue = 19.8"] ;
830 -> 832 ;
833 [label="X[12] <= 0.5\nmse = 0.003\nsamples = 2\nvalue = 19.35"] ;
829 -> 833 ;
834 [label="mse = 0.0\nsamples = 1\nvalue = 19.4"] ;
833 -> 834 ;
835 [label="mse = -0.0\nsamples = 1\nvalue = 19.3"] ;
833 -> 835 ;
836 [label="X[4] <= 3.07\nmse = 0.956\nsamples = 6\nvalue = 20.786"] ;
828 -> 836 ;
837 [label="X[4] <= 2.79\nmse = 0.397\nsamples = 4\nvalue = 21.525"] ;
836 -> 837 ;
838 [label="mse = 0.0\nsamples = 1\nvalue = 20.6"] ;
837 -> 838 ;
839 [label="X[4] <= 2.94\nmse = 0.149\nsamples = 3\nvalue = 21.833"] ;
837 -> 839 ;
840 [label="X[3] <= 4500.0\nmse = 0.01\nsamples = 2\nvalue = 22.1"] ;
839 -> 840 ;
841 [label="mse = 0.0\nsamples = 1\nvalue = 22.0"] ;
840 -> 841 ;
842 [label="mse = -0.0\nsamples = 1\nvalue = 22.2"] ;
840 -> 842 ;
843 [label="mse = 0.0\nsamples = 1\nvalue = 21.3"] ;
839 -> 843 ;
844 [label="X[0] <= 462.5\nmse = 0.0\nsamples = 2\nvalue = 19.8"] ;
836 -> 844 ;
845 [label="mse = 0.0\nsamples = 1\nvalue = 19.8"] ;
844 -> 845 ;
846 [label="mse = -0.0\nsamples = 1\nvalue = 19.8"] ;
844 -> 846 ;
847 [label="X[3] <= 4625.0\nmse = 0.206\nsamples = 3\nvalue = 21.68"] ;
827 -> 847 ;
848 [label="mse = 0.0\nsamples = 1\nvalue = 22.5"] ;
847 -> 848 ;
849 [label="X[0] <= 398.5\nmse = 0.047\nsamples = 2\nvalue = 21.475"] ;
847 -> 849 ;
850 [label="mse = 0.0\nsamples = 1\nvalue = 21.1"] ;
849 -> 850 ;
851 [label="mse = -0.0\nsamples = 1\nvalue = 21.6"] ;
849 -> 851 ;
852 [label="mse = -0.0\nsamples = 1\nvalue = 23.0"] ;
826 -> 852 ;
853 [label="X[7] <= 0.5\nmse = 2.77\nsamples = 9\nvalue = 18.569"] ;
825 -> 853 ;
854 [label="X[0] <= 435.0\nmse = 0.818\nsamples = 5\nvalue = 19.686"] ;
853 -> 854 ;
855 [label="mse = 0.0\nsamples = 2\nvalue = 18.7"] ;
854 -> 855 ;
856 [label="X[5] <= 26.0\nmse = 0.157\nsamples = 3\nvalue = 20.425"] ;
854 -> 856 ;
857 [label="mse = 0.0\nsamples = 1\nvalue = 19.8"] ;
856 -> 857 ;
858 [label="X[3] <= 3812.5\nmse = 0.036\nsamples = 2\nvalue = 20.633"] ;
856 -> 858 ;
859 [label="mse = 0.0\nsamples = 1\nvalue = 20.9"] ;
858 -> 859 ;
860 [label="mse = 0.0\nsamples = 1\nvalue = 20.5"] ;
858 -> 860 ;
861 [label="X[2] <= 6.5\nmse = 1.896\nsamples = 4\nvalue = 17.267"] ;
853 -> 861 ;
862 [label="X[3] <= 4625.0\nmse = 0.0\nsamples = 2\nvalue = 15.9"] ;
861 -> 862 ;
863 [label="mse = 0.0\nsamples = 1\nvalue = 15.9"] ;
862 -> 863 ;
864 [label="mse = -0.0\nsamples = 1\nvalue = 15.9"] ;
862 -> 864 ;
865 [label="X[4] <= 3.575\nmse = 0.056\nsamples = 2\nvalue = 18.633"] ;
861 -> 865 ;
866 [label="mse = 0.0\nsamples = 1\nvalue = 18.3"] ;
865 -> 866 ;
867 [label="mse = -0.0\nsamples = 1\nvalue = 18.8"] ;
865 -> 867 ;
868 [label="X[4] <= 2.79\nmse = 2.765\nsamples = 9\nvalue = 17.667"] ;
824 -> 868 ;
869 [label="X[2] <= 9.0\nmse = 0.227\nsamples = 2\nvalue = 15.575"] ;
868 -> 869 ;
870 [label="mse = 0.0\nsamples = 1\nvalue = 16.4"] ;
869 -> 870 ;
871 [label="mse = -0.0\nsamples = 1\nvalue = 15.3"] ;
869 -> 871 ;
872 [label="X[2] <= 6.5\nmse = 1.518\nsamples = 7\nvalue = 18.427"] ;
868 -> 872 ;
873 [label="X[0] <= 678.5\nmse = 0.562\nsamples = 2\nvalue = 16.75"] ;
872 -> 873 ;
874 [label="mse = 0.0\nsamples = 1\nvalue = 17.5"] ;
873 -> 874 ;
875 [label="mse = 0.0\nsamples = 1\nvalue = 16.0"] ;
873 -> 875 ;
876 [label="X[18] <= 0.5\nmse = 0.967\nsamples = 5\nvalue = 18.8"] ;
872 -> 876 ;
877 [label="mse = 0.0\nsamples = 1\nvalue = 16.5"] ;
876 -> 877 ;
878 [label="X[8] <= 0.5\nmse = 0.344\nsamples = 4\nvalue = 19.088"] ;
876 -> 878 ;
879 [label="X[4] <= 3.115\nmse = 0.165\nsamples = 3\nvalue = 18.817"] ;
878 -> 879 ;
880 [label="mse = -0.0\nsamples = 1\nvalue = 19.2"] ;
879 -> 880 ;
881 [label="X[7] <= 0.5\nmse = 0.036\nsamples = 2\nvalue = 18.433"] ;
879 -> 881 ;
882 [label="mse = 0.0\nsamples = 1\nvalue = 18.3"] ;
881 -> 882 ;
883 [label="mse = 0.0\nsamples = 1\nvalue = 18.7"] ;
881 -> 883 ;
884 [label="mse = 0.0\nsamples = 1\nvalue = 19.9"] ;
878 -> 884 ;
885 [label="X[5] <= 26.0\nmse = 2.145\nsamples = 23\nvalue = 17.153"] ;
823 -> 885 ;
886 [label="X[4] <= 3.23\nmse = 0.925\nsamples = 14\nvalue = 16.347"] ;
885 -> 886 ;
887 [label="X[4] <= 3.015\nmse = 0.246\nsamples = 5\nvalue = 17.2"] ;
886 -> 887 ;
888 [label="X[3] <= 6250.0\nmse = 0.09\nsamples = 2\nvalue = 16.5"] ;
887 -> 888 ;
889 [label="mse = 0.0\nsamples = 1\nvalue = 16.8"] ;
888 -> 889 ;
890 [label="mse = 0.0\nsamples = 1\nvalue = 16.2"] ;
888 -> 890 ;
891 [label="X[7] <= 0.5\nmse = 0.034\nsamples = 3\nvalue = 17.48"] ;
887 -> 891 ;
892 [label="mse = 0.0\nsamples = 1\nvalue = 17.7"] ;
891 -> 892 ;
893 [label="mse = 0.002\nsamples = 2\nvalue = 17.333"] ;
891 -> 893 ;
894 [label="X[18] <= 0.5\nmse = 0.649\nsamples = 9\nvalue = 15.85"] ;
886 -> 894 ;
895 [label="mse = 0.0\nsamples = 1\nvalue = 13.7"] ;
894 -> 895 ;
896 [label="X[0] <= 494.0\nmse = 0.25\nsamples = 8\nvalue = 16.045"] ;
894 -> 896 ;
897 [label="X[0] <= 382.0\nmse = 0.072\nsamples = 6\nvalue = 15.775"] ;
896 -> 897 ;
898 [label="X[2] <= 7.0\nmse = 0.009\nsamples = 2\nvalue = 16.067"] ;
897 -> 898 ;
899 [label="mse = 0.0\nsamples = 1\nvalue = 16.0"] ;
898 -> 899 ;
900 [label="mse = -0.0\nsamples = 1\nvalue = 16.2"] ;
898 -> 900 ;
901 [label="X[2] <= 7.0\nmse = 0.028\nsamples = 4\nvalue = 15.6"] ;
897 -> 901 ;
902 [label="mse = 0.0\nsamples = 1\nvalue = 15.4"] ;
901 -> 902 ;
903 [label="X[0] <= 426.5\nmse = 0.002\nsamples = 3\nvalue = 15.733"] ;
901 -> 903 ;
904 [label="mse = 0.0\nsamples = 1\nvalue = 15.8"] ;
903 -> 904 ;
905 [label="mse = -0.0\nsamples = 2\nvalue = 15.7"] ;
903 -> 905 ;
906 [label="X[0] <= 547.5\nmse = 0.009\nsamples = 2\nvalue = 16.767"] ;
896 -> 906 ;
907 [label="mse = 0.0\nsamples = 1\nvalue = 16.9"] ;
906 -> 907 ;
908 [label="mse = 0.0\nsamples = 1\nvalue = 16.7"] ;
906 -> 908 ;
909 [label="X[0] <= 323.0\nmse = 1.193\nsamples = 9\nvalue = 18.545"] ;
885 -> 909 ;
910 [label="mse = 0.0\nsamples = 1\nvalue = 17.1"] ;
909 -> 910 ;
911 [label="X[3] <= 6250.0\nmse = 0.891\nsamples = 8\nvalue = 18.867"] ;
909 -> 911 ;
912 [label="X[18] <= 0.5\nmse = 0.512\nsamples = 7\nvalue = 19.1"] ;
911 -> 912 ;
913 [label="mse = 0.0\nsamples = 1\nvalue = 18.0"] ;
912 -> 913 ;
914 [label="X[2] <= 7.0\nmse = 0.388\nsamples = 6\nvalue = 19.257"] ;
912 -> 914 ;
915 [label="mse = 0.0\nsamples = 1\nvalue = 20.1"] ;
914 -> 915 ;
916 [label="X[7] <= 0.5\nmse = 0.315\nsamples = 5\nvalue = 19.117"] ;
914 -> 916 ;
917 [label="mse = 0.002\nsamples = 2\nvalue = 19.75"] ;
916 -> 917 ;
918 [label="X[3] <= 5750.0\nmse = 0.17\nsamples = 3\nvalue = 18.8"] ;
916 -> 918 ;
919 [label="mse = 0.0\nsamples = 1\nvalue = 18.5"] ;
918 -> 919 ;
920 [label="mse = 0.16\nsamples = 2\nvalue = 19.1"] ;
918 -> 920 ;
921 [label="mse = -0.0\nsamples = 1\nvalue = 17.0"] ;
911 -> 921 ;
922 [label="X[9] <= 0.5\nmse = 1.679\nsamples = 11\nvalue = 14.953"] ;
822 -> 922 ;
923 [label="X[3] <= 4125.0\nmse = 0.962\nsamples = 7\nvalue = 14.325"] ;
922 -> 923 ;
924 [label="mse = 0.0\nsamples = 1\nvalue = 11.9"] ;
923 -> 924 ;
925 [label="X[4] <= 2.77\nmse = 0.466\nsamples = 6\nvalue = 14.545"] ;
923 -> 925 ;
926 [label="mse = 0.0\nsamples = 1\nvalue = 16.5"] ;
925 -> 926 ;
927 [label="X[3] <= 4500.0\nmse = 0.093\nsamples = 5\nvalue = 14.35"] ;
925 -> 927 ;
928 [label="mse = -0.0\nsamples = 1\nvalue = 14.6"] ;
927 -> 928 ;
929 [label="X[2] <= 7.5\nmse = 0.094\nsamples = 4\nvalue = 14.243"] ;
927 -> 929 ;
930 [label="mse = 0.0\nsamples = 1\nvalue = 13.8"] ;
929 -> 930 ;
931 [label="X[12] <= 0.5\nmse = 0.022\nsamples = 3\nvalue = 14.42"] ;
929 -> 931 ;
932 [label="mse = 0.0\nsamples = 1\nvalue = 14.6"] ;
931 -> 932 ;
933 [label="X[0] <= 593.5\nmse = 0.0\nsamples = 2\nvalue = 14.3"] ;
931 -> 933 ;
934 [label="mse = 0.0\nsamples = 1\nvalue = 14.3"] ;
933 -> 934 ;
935 [label="mse = -0.0\nsamples = 1\nvalue = 14.3"] ;
933 -> 935 ;
936 [label="X[0] <= 620.0\nmse = 0.182\nsamples = 4\nvalue = 16.46"] ;
922 -> 936 ;
937 [label="X[3] <= 4125.0\nmse = 0.092\nsamples = 3\nvalue = 16.625"] ;
936 -> 937 ;
938 [label="mse = 0.0\nsamples = 2\nvalue = 16.8"] ;
937 -> 938 ;
939 [label="mse = 0.0\nsamples = 1\nvalue = 16.1"] ;
937 -> 939 ;
940 [label="mse = 0.0\nsamples = 1\nvalue = 15.8"] ;
936 -> 940 ;
}
